#pragma once
#include "dl_lib_matrix3d.h"
#include "dl_lib_matrix3dq.h"

// please input layer num and stride
const static int dscnn_model_info[5][2] = { {1,1}, {2,2}, {2,2}, {1,1}, {1,1} };
const static qtp_t conv_1_weights_0_item_array[] = {7531, -7177, -7244, -2641, 212, -5341, 7957, 4349, -4409, -10457, -208, -613, 5110, 5146, -7047, 5616, 15635, 5520, 4940, -708, 8184, -7429, -6419, 240, -7599, -2000, 8234, -5713, -2432, 5404, 6285, -5222, 6749, 3762, -5314, 5180, -6431, -13816, -2930, 6815, -11822, 547, -2901, 5283, 3554, 4853, -4229, -2297, 4981, 1739, -9177, 4603, 3852, -4295, -3088, 13300, 12595, 797, 3750, 7789, 354, -11160, -1141, 10335, -3169, -4084, 14416, 958, 5220, -3742, 175, -854, -5220, 2337, -1644, -4757, 207, -5212, -6674, -4522, -5402, -4461, 3758, 766, -3218, 6182, 8732, -4738, -1350, 5517, 4138, 925, 5859, 3137, -1736, 7779, 3878, 710, 4202, -5825, 4526, 4668, -2352, 6152, 1994, -886, 8650, -3287, -15458, 3165, -17624, -699, 5377, 6907, 12508, -801, -8687, 16350, 5497, -12735, -11294, -3267, -189, 9000, -17835, 8657, -1381, 3142, 5459, 4712, -559, 7683, 6958, 2011, 4024, -5957, -2345, -745, 5989, -4828, 2439, -4031, -13256, -1500};

const static dl_matrix3dq_t conv_1_weights_0 = {
	.w = 3,
	.h = 3,
	.c = 1,
	.n = 16,
	.stride = 3,
	.exponent = -18,
	.item = (qtp_t *)(& conv_1_weights_0_item_array[0])
};

const static qtp_t conv_1_biases_0_item_array[] = {-3131, 11773, -1015, 4383, -13006, -1202, 13278, 9362, -15948, 6055, 16037, 6414, -8907, -2471, 17885, -14227};

const static dl_matrix3dq_t conv_1_biases_0 = {
	.w = 1,
	.h = 1,
	.c = 16,
	.n = 1,
	.stride = 16,
	.exponent = -14,
	.item = (qtp_t *)(& conv_1_biases_0_item_array[0])
};

const static qtp_t conv_ds_1_dw_conv_depthwise_weights_0_item_array[] = {-5080, 761, -3149, -6717, 3993, 5455, 4116, 16010, 3829, 9494, 2800, 563, -576, -4973, -1897, -4972, 2924, 3365, -7310, 8767, 3258, 4141, 16932, 181, 2089, -13650, -5697, -3442, -2037, 3241, -6098, 1620, 4957, -1851, -2915, 7721, 2163, -5807, 144, -6799, -5769, -2138, 4646, -17004, -4401, 1555, 9996, -1028, -4940, -10507, -908, 6183, -520, -2338, -9678, 9060, 4227, -1206, 5974, -4068, 2552, -2393, -7141, -1123, 2731, 2744, -3705, 495, 4110, -4019, -3967, -1818, -4862, 10779, 10350, -1864, -5972, 928, 2844, 87, 6307, -4470, 2535, 4049, -382, 6879, 465, -4095, -5621, -16222, 8486, -1534, -475, 2493, -512, -4677, 7673, -7685, 2529, -5135, 1915, 7862, -4890, -2680, 3288, 2049, 6934, 11446, 1977, -152, 5901, 1089, 5780, 5207, -5225, 3807, 4578, 5914, -17474, -3093, -82, -4997, -4703, -4419, -3300, 4322, -3187, -246, -7895, -8438, 753, -3416, 2878, 7901, 3378, 3302, 37, 11427, -3834, 13176, 394, 1346, 2302, -3379};

const static dl_matrix3dq_t conv_ds_1_dw_conv_depthwise_weights_0 = {
	.w = 3,
	.h = 3,
	.c = 16,
	.n = 1,
	.stride = 48,
	.exponent = -13,
	.item = (qtp_t *)(& conv_ds_1_dw_conv_depthwise_weights_0_item_array[0])
};

const static qtp_t conv_ds_1_dw_conv_biases_0_item_array[] = {-8845, 14872, 10574, -9791, -15512, -11153, 5737, -6685, 916, 4569, -19200, 7419, 7916, -3828, 91, 11778};

const static dl_matrix3dq_t conv_ds_1_dw_conv_biases_0 = {
	.w = 1,
	.h = 1,
	.c = 16,
	.n = 1,
	.stride = 16,
	.exponent = -14,
	.item = (qtp_t *)(& conv_ds_1_dw_conv_biases_0_item_array[0])
};

const static qtp_t conv_ds_1_pw_conv_weights_0_item_array[] = {6185, 8521, -8144, 5071, -7561, 967, 10504, 11471, 5322, 2991, -2504, -9071, 1396, 9799, -10503, -8424, -11928, -3475, -4550, -11949, 2776, 3853, 20002, 3255, 6506, -2271, -6520, 1499, -13653, 6466, -12325, -7373, 3340, -4953, 6195, 6172, -2787, 4652, -5277, 11975, -6781, -1317, 296, -5230, -18, 2496, -4515, -4337, 7179, 13273, -576, 1296, -18974, 263, 4153, 2568, -10050, 7736, -10527, 8427, 6548, 12812, 12293, 14736, 7771, 1200, 12224, -13276, 761, 6887, -3617, -1307, 9747, 7074, -4919, -1234, 8227, 1401, -5505, 1498, -6264, 5539, -195, -311, 4728, 1160, -2632, 531, -14854, 9978, -8135, -13888, 8442, 7409, -1546, 608, 544, -9347, -13326, 8239, -4056, 8256, -4679, -479, -1342, -4398, 2448, 10297, 15293, -311, 7353, 7347, -12260, 869, 5607, -7807, 1240, -953, 6071, -8862, 10017, -12664, -11071, 2338, 2593, -3689, -2478, -1588, 3850, -10206, 2734, 1779, 35, -6324, 3827, 166, 7516, -6089, -6959, 10118, -1039, 2675, -8459, -249, -11754, 4519, 15803, -1463, -10808, -13755, -8890, -4867, -10672, -14552, 744, 9577, 18087, 6224, -9515, -14184, 6171, 3343, -5392, -3973, -3210, -8794, -2008, -13630, -3832, 2354, 839, -300, 2995, -3256, 6771, 7936, -16690, 10298, -3133, -4878, -10160, -9178, -1418, 9936, 2565, -10736, -13995, -4308, 7944, 12258, 160, 5198, -11327, -9862, 2827, -4644, 8249, 10380, 357, -5052, -3764, -5798, -6518, 12684, 9341, -3137, -11838, -11312, -4007, -6861, 11974, 8064, 1621, 2136, 8795, -299, -988, 5069, -9314, 7350, 680, 7843, 8345, -432, -5647, 594, -13228, -1183, 353, -8926, 1581, 2677, -2458, -1293, -7031, -7378, 7328, -4915, 4283, -2456, -4894, 3018, 5228, 1939, -9815, -6395, -2273, -1608, -2894, 3538, 1847, 5918, 3783, -6921, 6230, 4194, -12547, 11325, 9117, -2633, 915, 12822, 10244, -5110, 11187, -10992, 12672, 11506, 2636, -4660, 5866, 2845, 5, -10238, -702, 8202, -10760, -6923, -3721, -13422, 7405, -7604, 2372, 7734, 5706, 8619, -2560, 9437, -6314, 3128, -381, -12118, 3107, -6253, 8038, 14279, -4071, -12298, -1943, 841, -612, 2208, -9246, -6362, -2479, 5106, -2142, 9675, -2296, 3301, 5700, -8101, 1219, -7590, 6739, -7085, 8780, 3539, 8886, 3121, 5663, -6754, -2831, 10094, 1095, -4794, -10037, 7085, -6188, -8460, 10216, -8560, 7471, 8606, 2040, -9357, -4087, -5072, 666, -6805, -15764, 5543, 2234, -18664, -3802, -15670, -7517, -10181, -9591, 1479, -13131, -11146, -21099, 6141, -8208, -8710, 3627, 3457, 6351, -9154, -17644, 4211, -3988, 18038, -612, 13285, 1030, 17303, -970, -13867, -10046, 11391, 4767, -4245, -6061, -4246, -5878, 7710, 1700, -5116, 14937, -9150, -10462, 6092, 2832, 6606, -3600, 146, 3172, 11866, -2506, 205, -14354, -3943, 6150, 4355, -7887, 1103, 9082, -1290, -3832, 1738, 1200, 5696, -5171, 1025, 609, -9209, 11531, -8096, 599, -3065, 3518, -10724, 7456, 5703, 933, -5485, 7695, 2244, -5061, 4009, 8038, 563, -4051, -6803, -11622, 9127, -8670, 10487, 10697, 177, -10301, -450, -6621, 6876, 6972, 4678, 2088, 5189, -2837, -1613, 5374, 7205, 9903, -8673, -1848, -2243, 8374, 11278, -1920, 1516, 752, -8857, 5597, 6671, 13972, -1303, -10813, -13701, 14813, 5235, 18209, -9015, -2977, -4101, 4016, -3217, -8145, 4207, 1034, -8080, -2713, -3790, 265, -9357, 7742, -7712, 10463, 5666, 5644, -66, 15354, -7445, -102, 9084, 48, 7574, -5254, 6105, -9308, -3496, -872, -11793, -8942, -15131, 5210, -2583, 13642, -8141, 5080, 5214, 10683, -1912, 10503, 2529, -305, 5445, 4122, 396, -2897, 479};

const static dl_matrix3dq_t conv_ds_1_pw_conv_weights_0 = {
	.w = 1,
	.h = 1,
	.c = 16,
	.n = 32,
	.stride = 16,
	.exponent = -14,
	.item = (qtp_t *)(& conv_ds_1_pw_conv_weights_0_item_array[0])
};

const static qtp_t conv_ds_1_pw_conv_biases_0_item_array[] = {-3224, 7297, -1757, -10308, -4813, 603, -4993, 6880, 2335, 7594, 2584, 5042, 4563, -7582, 8783, -966, -10987, 1397, 5294, -4476, -717, 22141, -3469, 4542, -2986, -332, -2603, -2552, -7138, 3017, 3592, -8456};

const static dl_matrix3dq_t conv_ds_1_pw_conv_biases_0 = {
	.w = 1,
	.h = 1,
	.c = 32,
	.n = 1,
	.stride = 32,
	.exponent = -13,
	.item = (qtp_t *)(& conv_ds_1_pw_conv_biases_0_item_array[0])
};

const static qtp_t conv_ds_2_dw_conv_depthwise_weights_0_item_array[] = {-5457, 4143, 190, 8346, 3185, -494, -5898, -1603, -6567, 968, -6934, -2373, 5387, 12628, -9944, 3620, -1636, 3034, -6468, -4022, 7489, 10726, 6951, 5510, -4435, -4273, -10976, -5272, -1030, -7864, 5574, 17684, 7458, -4458, -8156, 9957, 4168, -10399, 493, -7693, -7775, -3234, 10110, 10356, -1270, 5125, 4019, 3925, 6061, 3985, 1090, 1371, -4440, 17873, -2629, -4836, 1941, -3510, -3499, -731, 262, 3301, 4537, 2142, 6921, -11082, 800, 5181, -5539, -759, 3364, -11061, -17426, 7950, -9632, -7245, -5156, 1549, -15211, -14218, 139, 1078, -10764, 8238, -10471, -11440, -2842, 1788, -3933, -4236, 1020, -3118, 3702, -8954, 12143, 3373, -190, 5300, -4446, -2725, 3437, 879, -459, 8014, 11675, 4673, 622, -317, 5206, -5192, -2254, 7738, 4162, 6583, 4430, 3782, 1267, -8805, 5757, 1966, -3876, -9625, 2795, -5688, -7249, -3444, 5055, -9711, 1918, -7428, -6160, 5552, 2002, -5676, -6167, -1215, 2829, -6295, 7595, 5134, -1881, -5260, 7174, 2667, -4209, 4652, -10570, 5818, 4630, 11713, 1150, 1234, 5180, -4733, 3888, -4478, 685, -20822, 2712, 2622, 6014, 2897, 6756, 2971, -22884, -11145, 4021, -6987, 447, 5520, -7482, -4063, 3706, -3809, -4556, -2448, -8381, 3217, -6710, 9341, -7134, -2695, 806, 3650, -5316, 3223, -3517, -1474, 3000, -6678, 6710, -7502, -813, 7596, -8262, 4911, 5421, -11984, -3674, -207, 733, 3771, -952, 7088, -3598, 2439, 6748, 13915, -5622, 2949, -206, 1952, -1038, -2851, 2275, 998, -804, -9843, -2505, -1015, 1762, -4472, 605, -8898, 5984, -547, 3514, 1296, -6420, -2368, -82, 2332, 9191, -2863, 5115, -2108, -9954, -7599, -3304, -19077, 717, 654, -1425, -6179, 2722, -3645, -3436, -3258, -4321, -616, 798, -4245, -5798, -6975, -3486, 819, -845, 6816, -230, 3781, 6967, -1493, -5248, 4425, 4468, 2065, 1768, 6402, 4042, 2165, 11854, 19733, -6512, -2526, -3591, -5044, -7032, 5192, 3260, 1726, -3509, -1934, 327, 1683, 3598, 4258, -117, -1536};

const static dl_matrix3dq_t conv_ds_2_dw_conv_depthwise_weights_0 = {
	.w = 3,
	.h = 3,
	.c = 32,
	.n = 1,
	.stride = 96,
	.exponent = -13,
	.item = (qtp_t *)(& conv_ds_2_dw_conv_depthwise_weights_0_item_array[0])
};

const static qtp_t conv_ds_2_dw_conv_biases_0_item_array[] = {-1881, 2064, 7932, -6826, -3972, 9329, 6484, 3024, -4514, 985, 9940, -4794, 317, -1346, 5731, -3334, 2413, -6859, 8007, -8244, -34, 1792, -4973, -2385, 10621, 11064, 3984, 9140, 44, 18924, -6131, -403};

const static dl_matrix3dq_t conv_ds_2_dw_conv_biases_0 = {
	.w = 1,
	.h = 1,
	.c = 32,
	.n = 1,
	.stride = 32,
	.exponent = -13,
	.item = (qtp_t *)(& conv_ds_2_dw_conv_biases_0_item_array[0])
};

const static qtp_t conv_ds_2_pw_conv_weights_0_item_array[] = {-5432, -5569, 3689, -5373, -7733, 6133, 7469, 4307, -6536, 3720, -4328, -4178, 3452, -3311, -4835, -4760, -2579, -2093, -6784, -727, -10259, -2212, 6750, -1766, -7861, -4952, 3381, 8031, 4039, -6881, 2118, 713, -2702, -104, -4479, -3688, -5822, 69, 1225, 3611, -913, 4149, -2569, -3144, 4736, -1123, 7517, 6939, 8761, -3934, 1454, 2641, -2731, -2374, 3536, -719, 3771, -5064, 3522, -1437, -1969, -1768, -5241, 1377, -113, 3079, -1919, -890, 9166, -5333, 2752, 3186, -7032, 2056, -4780, -1572, 6421, 4786, 2473, 2234, -4196, 2130, -3735, 2592, -2794, 2180, -6936, 5658, -2900, -3514, -4622, 1932, 2483, 6157, 457, 2959, 1683, -520, 2198, -3340, 979, 5213, -7644, -9968, -9485, -1422, -2435, -2447, -5624, -1367, -6048, 3191, 1733, 6229, 3098, -8025, -9703, -5548, 217, -6175, -755, -9548, -3639, -6421, -1074, 5044, -4359, -7407, 2749, -7906, 2746, -3847, 4068, -1899, 6895, -5324, 8425, -4595, -610, -3773, 5132, -2515, -1132, 1144, 7817, -186, 8291, -4824, 7139, -9977, 929, 3437, -3830, 6492, -999, 4590, -6630, 8876, 2259, 215, 1179, -1340, 11790, 2816, 3794, 4286, -2066, 4819, 6724, -3403, 978, -4874, 6893, 4447, -9470, -3893, -1029, 6913, -4320, 11997, -3623, -9594, -297, -9199, 5552, 5841, 8026, 966, -265, -146, 4896, -2123, -1675, 4844, 8984, -5394, 1479, -9869, 264, -2872, 7011, 4391, 2083, 1719, 8432, 1279, 8218, 1441, -4429, -3407, -1207, 3407, 7638, 1817, 1473, -4823, 2146, 937, 4107, -7702, 10642, -5081, 6826, 10822, -922, -11190, 11318, 6510, 2158, 2254, 5558, -10293, 8298, -2414, -5168, -4247, 2385, -6556, 8776, 4842, 2149, -4120, 1973, 1821, 616, 8511, -9254, 11146, 6387, -5733, 760, 7602, 1387, -5920, 9433, -9637, 8397, 9476, 5876, -4827, -7909, 952, -4996, 7594, 1459, 8977, -7327, -5178, 1169, -1190, 6666, 9785, -889, -8495, 2347, -3563, -5388, 4457, 2212, 13156, -10469, -5270, 2391, 4407, 1326, -2609, 7201, 2948, 3623, -10380, -12160, -195, -5983, 12109, -6631, -942, -5829, 9789, 7772, -734, 3236, 4110, 9199, -4467, 2398, -5136, 9962, 4168, 3144, 3810, -1657, -1568, 12743, -3795, -705, -7477, 6900, 5803, -8516, -6735, 3853, -259, 618, -6654, 4815, -6497, 9505, 3266, -3869, -3565, 1680, -6433, -4030, 5172, 10096, -1483, 7528, -509, 869, 7213, -2249, 3924, 9119, 6400, 6761, -6540, 1781, -9957, -3, 8261, 6112, -3905, -4336, -11081, 5571, 209, -557, -7, -5753, -2504, -1218, -325, -11885, -8449, 1196, -5102, 4661, -244, 1371, 1289, -9264, 3731, -4629, -2399, -4169, 2474, 10504, -5984, -2584, 10584, 7047, 142, 5550, 4511, -1130, -2120, -4125, -5896, -5963, 3753, 3721, 1674, -4837, -7985, -120, 1817, -4944, -863, -2856, -250, -2238, -4125, -2310, -2662, 5690, -5546, 4495, -6759, 4579, 2914, 1667, -2731, 476, -1622, 3578, 6596, 3584, 7155, 9643, 1553, -5538, 4857, -12998, 7126, -2378, 692, 2788, -10540, -5117, 5150, 8826, -3378, -2231, 1626, -888, 8968, -2081, -1895, 187, -5878, 324, 1520, -3371, -5469, 4405, -4470, -9550, -1891, 4715, -3034, 6196, 1195, -5489, -3363, 2905, 3341, -4752, 3289, 852, -1882, -9930, -5602, 6387, 2882, 879, 10316, 4329, 4677, -5413, 2309, 5750, -1422, 7184, 458, 3351, 2307, -1090, -2836, -4560, 2919, -3271, -5916, -2423, -5289, -8639, -10072, -902, -2011, -780, -5203, 4889, -6943, -1116, 5609, 1561, -3689, 6483, 6394, 5011, 5224, 3793, 3148, -9282, 5801, -3792, -5415, -180, 6400, 992, 3967, -3447, -1704, -577, -5297, 1968, -3268, -6348, 3800, 5623, -4427, 2788, 1418, 277, 887, -6708, 1183, -5147, 6814, 3896, -4682, -2727, -4361, 110, -2514, -1349, -4099, -1583, -5221, -175, -486, 1374, 906, 2895, 1585, -10892, -1555, 2952, 459, -2640, -4785, 722, -2575, -7182, 743, 2884, -11071, -7159, 1550, -3518, 474, -5644, 6529, -190, 944, 8242, 2242, 1664, -10354, -6668, -1445, 3754, -10565, 7515, -8075, 499, 2269, -169, 2289, 14055, -10323, -4378, -9300, -9, -1359, -7684, -13799, -3467, -8881, -536, -6386, 3397, -12, 7533, 4073, -11403, 12052, -3446, -1092, -3371, 3240, -9589, 2512, -1813, 1, 11815, -5706, -11048, -873, 1447, 5512, -1022, 1539, -3469, 3952, 1817, -7121, 7548, 4380, -4017, -3221, 2506, 7, 5754, -3187, -7931, 6289, -1650, 2156, 2493, 2865, 1833, -2593, 7556, 8359, 2922, -2019, -87, -3013, 5668, -4452, -7475, -7298, 2688, 10198, -3643, -7096, -3015, 2373, -4427, -9101, 4904, -5455, -855, 9188, -2630, 6344, 4125, 10521, 1619, 1483, -3903, 5443, 5398, -8911, 9763, 2751, -1347, 2817, -4664, -5493, 5964, 10080, -6355, -472, 3539, -2677, -6150, -7394, -9684, 5635, -5529, 2137, 180, -1352, -1259, 1193, 155, 5293, -6875, -3616, 3396, -11408, -6894, 2725, -10128, 4034, 5381, 12369, 5544, 1913, -5, -12552, 2573, 3272, 2785, -5555, 7144, 3788, -1254, 7288, -1584, 3861, 5887, 8460, 10204, -5283, 2259, -6004, 363, -11356, 11122, -651, -2704, 322, 8266, -4234, 6915, 6917, 2752, 170, -8278, 460, -2320, 275, 334, 90, -4894, -5044, -4183, -12573, -3437, 4122, 217, -1786, 432, 810, 841, -6181, -4803, 2555, -10383, 4877, 4933, -2646, 3563, -10375, 2184, 5892, 1012, -9305, 2968, -3642, -292, -11410, 11874, 7251, 5265, 7797, -10628, 5747, -7111, 1366, 3898, -9818, 1302, 7268, 6444, -9013, -6736, 11914, 6117, -1624, -1012, -3979, -7938, -7963, -2212, 2809, 8444, -7085, 372, 2187, 1898, -3917, 8256, 93, 6641, -4471, 435, -2903, -2591, -4820, -7826, 3727, 6191, 1286, -2063, 1476, -1140, -2141, -2441, -946, 1695, 5169, 688, 1211, -4115, -1333, -6282, -3758, -5684, -1866, -1907, 1791, 5837, 2414, 2839, 5156, 4055, -970, 5968, -3809, 3654, 2906, -10113, 1695, -4049, 4427, -2796, 64, 5517, -7281, 9157, 3533, 1799, -3160, 8173, 1496, -5413, 2779, 7457, -6410, -4826, -3416, -3161, -2751, -6150, -2360, -4243, 4212, -3182, 3018, -1956, -2713, 6918, 1607, 1425, 3129, -10854, -1321, 6295, 5467, -5564, 8071, -10460, -1933, -5892, 10394, 6010, -11021, -2471, -2965, 10356, -5801, -6754, -2204, -4584, 54, 6862, -7609, 3412, 1449, -518, 287, -10935, -4016, 6161, -5807, 3164, -4632, -4850, 6429, -418, 10048, 1043, -5604, 3326, -7358, -4771, 1396, -5139, 7668, -6268, 584, 3974, 4283, -7953, 6401, 7197, 4127, -9096, 110, -565, -3198, -1137, 8817, -2340, 2041, 250, -5391, 4804, -8675, 8063, -151, -1369, 10342, -7389, -6352, -13515, -10152, -5774, -2033, 7663, 7733, 5048, 7372, 7136, 3326, -9468, -4939, -2528, 2487, 4499, 1715, -3224, -6602, -4000, 2443, 723, -4897, -4117, 4519, -2635, 795, -946, -277, 1523, 4912, -175, 1970, 3340, 4223, 6753, -2561, -3462, 4506, -6259, 5061, 7239, 867, 2649, 3148, 5294, 4955, -2350, 838, -998, -5204, -1809, -949, -1153, -291, -2610, -527, 5661, -2123, 8185, 3432, -6938, -6853, 5898, 4291, -5448, -2602, -7258, -2390, -1025, -4052, 8979, 3102, -3713, -9897, 2296, 2547, 7166, -4165, -8447, -714, -1992, -6033, 2405, 3195, 4316, 2070, 1080, 4106, -1144, -231, -3835, -1803, 4745, 3637, -5197, 124, 4581, -464, -2523, 3811, 653, -2675, 1973, -8143, 9215, -2632, 5601, 2855, -2089, 588, 9802, -159, -6209, 6548, -5360, 639, 8162, -1274, -3530, -1667, -3742, -3448, 4547, 3135, 1451, 5830, -5500, -9938, 5367, -3164, 4573, 2422, 10142, -2909, 3219, 5900, -763, 7035, 3368, -1401, 4613, -2959, -2053, -11593, -329, -7677, 5758, 185, -3748, -12543, -1890, -427, 6608, -11562, -152, 693, -9635, -7953, 7351, -4455, 4272, 7420, -8855, 6715, -9608, -1647, -1245, 4676, 6194, -4169, 1418, 2073, 7801, -3851, 1456, -983, 4065, -1187, 4397, 10736, -2266, -7057, -2025, -3062, -8054, -50, 2585, -3795, -3008, -4247, -3303, -2928, -2632, -36, 1841, -1041, -2370, 561, -7195, -3406, 2941, 9422, 6954, 5046, 1481, 2476, -2683, 6456, 3143, -6733, -2441, -4676, 1599, 2264, 2458, 905, 356, -5899, 892, 11916, -4656, 473, -2780, -6818, -1024, -6414, -2346, -8807, -6409, -5081, 9332, 1471, 7624, -1230, -3283, 2618, -8158, -8530, 598, 5920, -6507, -8136, -6135, -6298, 4508, 2803, 839, 491, -264, -1904, -3840, 7008, -1985, 3015, 5281, 6919, 3917, 5469, 6215, 2173, -2224, 3377, 1517, 2658, -172, 3986, -1335, 4291, 2931, 3407, 1712, 252, 2647, -5568, -1118, 2784, -1285, 252, 4783, -1822, 3950, 733, 3104, 3284, 2076, -175, 2483, -4594, 3770, -663, -5358, 2480, 4217, 3983, -126, -5189, -3364, 1606, -5832, 4995, 7097, -3283, -54, -1638, -554, 2901, -2901, 5101, 3798, -7919, 1125, 817, -7715, 2500, 2420, 430, 2437, 3755, 753, -2657, 3127, 5395, -5165, 4554, 389, 4085, 2988, -700, 1213, -2421, 3989, -1985, -3278, -7458, -2821, 3204, -2220, 2148, 5167, -4205, -162, -4940, 3333, 4024, -11953, 4395, -5730, 4012, -2161, -1449, -2575, 4880, -804, 3147, 6122, -6326, 4827, 2818, 4690, 1202, -11136, -1721, -4187, 2739, -7906, 7423, -7668, 4092, -7949, 4707, -8842, 10686, -5885, 6947, 5224, 5072, 2334, -4864, -3316, 8450, 5726, -8110, -3961, -3398, -4976, -3662, 5684, 4824, 4070, 9854, 1048, 2735, -4127, -9233, -4568, -3520, -7091, 5480, 5007, -489, -14258, -8635, 8126, 3599, -4715, -1164, 7349, 5782, 8766, -602, -1518, 10846, -1123, -3833, -2351, 3597, 2929, -5336, -3831, 3841, -1158, 3144, -9120, 9511, -5544, -13700, 2688, 6667, 6047, 7107, 2861, 6513, 3161, -3272, -1859, -4600, 6083, 3945, 616, 2444, 9577, 4078, -2306, -1637, 3547, 1149, -741, -7811, -505, -2040, 1844, 28, -4420, 973, -9897, -2518, 6956, 6625, 1659, 6137, 5711, 7011, -1995, -4882, 4229, -11314, -4290, 386, 5994, 4561, -2246, -9862, 11297, 6892, 7850, 5475, -2723, -478, -5027, -2607, 277, 5768, 9266, 6661, -9066, -2574, 6000, 1550, 1838, 6908, -899, -7352, 9388, -6721, 6998, 6146, -866, 2761, -3271, -8255, 4732, -4058, 139, 2592, 641, -1571, -2467, 1693, 195, 3559, -4454, 2600, -2331, -5439, -6112, 5374, 3047, 3754, -3205, -4656, -3357, 811, 2622, 5985, -9180, -6925, -2989, 2958, 4242, 624, -794, 2335, 724, 5119, -5861, -842, 3544, -1110, 4749, 2279, 5671, 4414, -3987, 3686, -5588, 8222, -7759, -1995, -2953, 6534, -667, 1706, -2129, 4457, 9468, -5048, 1894, 6060, -10064, 1587, -8300, 7076, 1050, -2509, -156, -7308, 3709, -2527, -1836, 2468, -7735, -12174, -2903, 2001, -4345, 1150, 5054, -4553, 4864, -11438, 2806, -9815, 1481, -7451, 5062, 7184, 4491, -584, -4912, -10531, 589, -4940, 10981, 11790, -4273, -7580, 2930, 7029, 5762, 3908, 1744, -4378, -12601, -664, -10301, -4097, 3417, 7740, 10196, -4535, 1190, 16074, -4784, 12775, 506, 7516, -2374, 6713, 1772, -3791, -4984, -8657, -7963, 2149, 8327, 5091, 1384, -578, 106, -2314, -774, 332, -6876, 2662, 4208, 332, 3334, 2823, -3115, -2986, 1456, -4537, -2157, 2275, -2186, 954, 101, 2652, -2736, 4297, -3995, -5470, 2502, 5946, 2414, 6613, -3188, -1896, 448, 4162, 2984, 217, -8281, 5978, -9414, -3082, -4320, 5013, 5150, 5732, 4987, 1538, 7375, -2044, 3967, -8676, 740, -1762, 1713, 6365, -9718, 5246, 2338, -3030, -2803, -6724, 1522, -5124, 3898, -4061, -2394, -6088, -700, -1005, -7329, 6989, 6172, -92, -217, -6003, 10369, 8408, 784, -5951, -3865, 3747, 11984, 9760, 9802, -4699, 6870, -5570, -3160, 281, -3466, 6617, -1423, 3869, -4407, -7155, 1608, 7054, 1548, -1312, 2769, 845, 7451, 2832, 6663, 3519, 3337, -593, 3091, -974, -8414, -3314, -4287, -5565, -5982, -3273, -3831, -3269, 2623, 5859, 682, -1640, 4603, 906, 4091, -1603, 9476, 5668, 121, -2507, 3037, -9637, 7334, 2027, 2164, 6285, -9215, 6111, 12025, 6483, -1211, 2958, -6810, -7243, 4606, 1964, 6544, -2183, 3626, -3134, 1749, 6592, 8264, -8267, -15666, 4382, -5622, 10200, -1021, 8297, 1609, -5716, -13288, 818, -8141, -2068, -546, 1048, 9046, 8740, -4189, 744, 6822, -9379, -100, -7795, -3899, 4781, 1134, 6514, -6373, -8249, -2916, 4559, -333, -6742, 1101, 4912, -7180, 561, 6569, -9719, 5560, -13900, 12184, -2959, -8490, -5105, -3239, 8876, -2022, 5062, 4140, -1630, -3250, 4153, 3490, -8861, -234, 6555, -664, 3763, -2820, -15471, -8344, 11191, 552, 2521, 291, 1701, -6682, 9556, -7274, -3988, 5170, 7690, -6041, -11328, 2721, -4662, 2779, 3096, 4436, -2406, 2974, 2725, 1038, -4891, -4484, -1261, -2967, -6158, -4578, -1685, -6370, -1808, 4059, -1856, -1770, -948, -1070, -1196, -2277, -5609, -2501, -3923, -464, -6417, 4052, -2428, -2289, -9095, 2584, -6914, 10083, 2, -1321, -1753, 65, -780, -7767, -4500, 5329, 4832, -4373, -5406, -1517, -9955, -3839, 6550, 3644, -5030, 1504, 3007, -2129, -1902, 4311, 737, 1366, 3810, 6603, 856, 1874, -2958, -7236, -8010, -2701, 2551, 3323, 696, 5227, -6613, 766, 4412, -1366, 2158, -4376, 2918, 5426, -2958, -6956, 444, -1168, 1227, -2254, -4074, -2706, 5647, 2023, -4324, -6723, 6840, 5095, 821, 43, 6401, -5658, -3088, 1820, -2507, -3773, -1532, 1228, -13321, 8970, 5049, 8213, -10756, 11770, -4371, 7691, -2193, 6286, -9311, 6945, -7100, -4510, -2166, 3980, -13544, -5498, 1841, -6078, -2928, 1634, -8188, 1348, 1586, 4471, -2326, 4154, -8751, 7421, 4321, -7013, 3437, -1424, -3961, 1710, 5670, 285, 2869, 9513, 3396, -3951, 2977, 6375, 1222, -5407, 11724, 6583, -10882, -17178, -2306, -10118, -5062, 8161, 4796, 6561, 11531, -2318, 3734, 8395, -3365, 5397, 3452, -7260, -2074, -5818, 8528, -1692, 15867, 10923, 1218, -7656, -9884, 4789, 10203, 5335, 3516, 905, -3844, 12494, -16041, -1918, 6222, 2703, 2300, 6724, -121, -1072, 555, -1586, -3232, 4345, -5802, -817, -8450, 5801, 2711, -4280, -9001, -1612, -5290, -291, -3556, 7093, 6961, -2723, 1496, -10792, 3279, -4016, -1371, -3543, 9175, 6850, -5333, -1021, 4680, -6112, -6275, 5037, -1306, 86, 1987, -7097, -739, -2766, -9937, 1869, -6352, -2262, 2804, 446, -3746, -1978, -6341, -1920, -4413, 2332, 2198, -1625, -6679, -5979, -1808, 2841, 7333, -1540, 6381, -10156, 3225, -3617, 1886, -4596, 147};

const static dl_matrix3dq_t conv_ds_2_pw_conv_weights_0 = {
	.w = 1,
	.h = 1,
	.c = 32,
	.n = 64,
	.stride = 32,
	.exponent = -14,
	.item = (qtp_t *)(& conv_ds_2_pw_conv_weights_0_item_array[0])
};

const static qtp_t conv_ds_2_pw_conv_biases_0_item_array[] = {13084, 1252, -2505, 31023, -7467, -15062, -18739, -12180, -7435, -4756, -11820, 5518, 10690, 861, -11142, 11579, 10222, 18566, 22056, -11978, -3012, 10935, -19201, 11500, 1525, -1373, 5749, 6245, -2117, 11301, -13005, 5572, -9364, 5782, 1541, 8745, 19886, -19954, -5769, 1343, 1646, 7580, -18859, -2943, -12558, 5615, -6133, 10283, -4905, -5992, 3420, -14076, -7203, -4036, 7929, 137, 18290, -2971, -778, 14615, -9478, -21313, 12932, 19584};

const static dl_matrix3dq_t conv_ds_2_pw_conv_biases_0 = {
	.w = 1,
	.h = 1,
	.c = 64,
	.n = 1,
	.stride = 64,
	.exponent = -14,
	.item = (qtp_t *)(& conv_ds_2_pw_conv_biases_0_item_array[0])
};

const static qtp_t conv_ds_3_dw_conv_depthwise_weights_0_item_array[] = {-8940, 1625, -4053, 16473, 820, -4901, 2413, -2721, -795, -4676, 7125, 2089, -9692, -2355, 3615, 929, 26938, -2016, 2117, 2368, -5481, -685, -3975, -13750, 3381, -11234, 3996, -2629, 7708, -7367, -711, 3912, -14298, -6345, -1903, -5374, -4529, 2727, -2501, 2130, 1668, 3144, 5751, 7008, 5852, -18049, 7995, -6110, -3371, -4080, 4408, 4858, 698, 513, -4448, -2279, 11788, 3095, 1989, 5576, 1796, -4407, -12126, -8263, -10319, -12268, -3983, 13185, -8104, 442, -565, 4390, 5382, -1278, 184, 15715, 3237, 10070, -4845, 5601, 11548, 5187, 1758, -7085, 3147, -16695, -7197, -1899, 6499, 4046, -5591, 2061, -1195, 5227, 4005, 4645, 10450, -4177, -10649, -254, 3513, -3206, 3834, -2273, -4585, 542, -9535, 1381, -4299, -237, 4898, -4427, -772, 8606, 3412, -2564, 2623, -5313, 8539, -1632, -15083, 11690, -8483, 7944, -6980, 2462, 7198, -6415, 1476, 6776, -5993, -3439, 8567, -7777, 972, 8307, -1762, 1964, 5066, -15992, -13834, -4320, -15586, -14547, 5786, -16169, 12593, 3673, -2938, 2588, -6843, 11477, 2929, 21179, 8311, -7835, -8476, 2001, 5745, 22890, 4059, 7673, -2445, 8892, -2107, 3779, -4035, 9754, -2173, -7203, -8310, -726, 28497, 4565, -2716, -4952, 3091, 7809, 3914, -10734, 2426, 3308, -6260, -3078, 5586, -339, -2266, -15416, 976, -7532, -7460, 5045, -15136, 5863, -6635, -1010, 4990, 1186, 2271, 2279, -1526, -2846, 6864, 2197, 6554, -5612, 1368, 5661, -6228, -6953, -8366, -1512, -302, -4223, 2735, -7037, -9142, 7602, -394, -11473, 4272, -18401, -6057, -1711, 870, 1058, -2286, -9611, -1748, 5355, 2107, -7584, 2303, 1244, 3633, 828, 1675, -6961, -12107, 209, 372, 12170, -2377, 6755, 4335, -74, -1231, -4395, 9115, 9572, -2207, 3878, 3534, -2824, -14014, -255, 5948, -7332, 1273, -18944, 2517, -10711, -9026, 6717, 2322, -3812, 12, 4306, 8218, 8415, -3778, -5561, -22548, 2269, 3076, -3845, -6102, -1098, -2267, 4387, 2135, -9877, 6116, 7692, 8779, 6430, 1169, 3660, -6907, -1238, -1237, 2985, 5084, -2289, 6017, 3469, 1260, 1884, -1453, 2692, -7093, 4764, 2918, -3675, -9120, -12589, -7155, -3295, -5213, -4098, -11106, 2950, 5353, 5325, 4614, 1257, -3862, 6407, 894, 510, -4256, 4603, 1832, -8392, -8446, -10037, -724, 1061, -2681, 2872, -1491, 5619, -3710, -5739, 6139, 9170, 8056, -2986, 5893, 6891, -9070, -16099, -2194, -8256, 5599, -7276, 4979, 580, 4407, -6729, 1142, 6106, -740, 5069, 7670, -790, -4284, 2362, -14698, -1014, -929, -11570, -4735, 1280, -8771, -6480, -2260, -2316, -189, -2800, 2802, 1909, 757, 172, 1153, 3343, 13410, 343, 10461, 10491, -2012, -2168, 8405, 5959, -6680, 1175, -6633, 6670, 420, 2729, 2401, 4795, 1737, -8180, -794, 3708, -1247, 5441, -961, -2575, -21475, -5191, -1615, 2423, -3705, -4088, -9917, 7189, -6110, -4520, -16522, -3254, -2332, 248, 512, -4479, -3543, -5908, 4734, 2590, -23526, -1939, -16133, -3451, 22, -7224, -4251, 3604, 496, 1409, 6719, -1041, -832, -13285, -2334, 1448, -3696, 3318, -10216, -7247, -91, -25822, -7536, 1141, -1352, 1697, 3171, -3644, 11615, -4166, -8349, -5079, -7663, -1994, -521, 8929, 1632, 1209, 3260, -2909, -7877, -4213, 1724, -8105, 5271, -4144, -5482, -1477, 763, 3300, 1158, -3736, -2744, 9560, -3648, -158, -6381, -991, 2474, 4769, -6058, -5174, -4694, -5270, 5080, -6848, 658, 3325, -7966, -10217, 5623, 2884, 3682, 1547, 8881, -914, -2157, 9320, -7411, -4299, -10851, -4591, -4120, 4250, 3012, -7545, 7795, -3309, -4051, 3495, 711, 485, -459, 4180, -4821, 3044, -6539, 10475, -5488, 75, -13288, 762, -11735, -1023, 14143, -1968, -7589, -2556, -12667, 4749, 2054, 784, -2618, -2172, -3516, -19142, 5985, -14393, 739, 8150, -10779, 341, 5593, -12453, 4641, 4009, -3819, -509, 11000, 1016, 810, 7738, -1467, 9019, -1160, 282, -15094, 2473, 11120, -13713, -3733, 9707, 6163, -73, 2505, -504, 6956, 2512, 7341, 8096, -3237, -8953, 1798, -898, -7979, 2027};

const static dl_matrix3dq_t conv_ds_3_dw_conv_depthwise_weights_0 = {
	.w = 3,
	.h = 3,
	.c = 64,
	.n = 1,
	.stride = 192,
	.exponent = -13,
	.item = (qtp_t *)(& conv_ds_3_dw_conv_depthwise_weights_0_item_array[0])
};

const static qtp_t conv_ds_3_dw_conv_biases_0_item_array[] = {-385, 6853, 25215, 11130, 3337, 7417, 4356, -19910, -5176, 9146, -12522, -11482, -309, -6415, 7801, 5222, 6710, 7824, -6313, 8098, 8667, 20429, 11070, 8853, -4374, 1722, -4465, -2785, -7956, 4234, -3053, -10533, 32, 5383, 10675, 12051, -10361, 4469, 1719, -9850, 6418, 10110, 4526, -15192, 684, 267, -14614, 15130, 9646, -1093, -1928, 6682, 9739, 7814, 5830, 70, -11187, -9669, 2071, -11057, 7433, -4493, -1455, 14823};

const static dl_matrix3dq_t conv_ds_3_dw_conv_biases_0 = {
	.w = 1,
	.h = 1,
	.c = 64,
	.n = 1,
	.stride = 64,
	.exponent = -14,
	.item = (qtp_t *)(& conv_ds_3_dw_conv_biases_0_item_array[0])
};

const static qtp_t conv_ds_3_pw_conv_weights_0_item_array[] = {-4106, 8175, -6283, 9520, 2241, -7467, -6487, -5665, 7580, 6309, 6404, -1152, -3814, 568, 2631, -4833, 6727, 512, -8811, 3468, 1228, -2587, -3436, -3207, 6387, -4475, 4480, -5532, -2369, 2263, -767, -189, -4340, -175, -2198, -4174, 8273, -7275, -1337, 5165, 822, -1375, 923, -5486, 2401, -7760, 10965, 6336, 4070, -3793, -6156, -2316, 2133, 4139, 2532, 2685, 4562, -591, -10597, -5409, -4651, -56, 583, 4782, 5815, -5064, -4006, 2538, 1221, -8973, 2319, -4110, 1098, -12068, -4794, -4566, -4314, 1052, -5571, 856, 4413, 5958, -2831, 3507, -12051, 5210, 5972, 5134, -2502, -1442, -12094, 3321, 8062, -3993, -3133, 3960, 1298, 1243, -2242, -5986, -2693, 5691, -3547, 4326, 3105, -1977, 8193, -3232, -949, 1033, -1821, 5689, 7957, 7466, 4930, 1658, -1094, -10132, 8170, -7512, 4214, -2208, -5811, -2518, 531, -3300, -6282, 3992, -2252, -2452, 3143, -1163, 2244, 3176, 4366, -4203, -3051, 2789, 4794, 4716, -1912, 1330, 4357, -2449, 6691, -2004, -4533, -1600, -744, 8049, -440, 5584, -2055, 7133, -3020, -7083, 118, 4000, -1697, 240, -3348, -4419, 8011, 3834, 500, -8400, -8814, -4208, -6434, -288, 6969, -5034, 360, 264, 1980, -1278, 4097, 1553, -6791, 6487, -3289, 12756, 0, 3939, 4590, -7706, 4170, -5557, 6364, 3009, 8127, -1860, 6230, -6948, 4911, 142, -2966, -8943, 4336, -2290, 5013, 941, -697, 126, -3337, 1977, -5362, -1794, -760, 4591, -1025, 5050, -3409, 3685, -680, 3819, 6326, 6015, 1765, 7810, -3428, 3620, 4300, 5299, -1975, -2313, 4566, 5736, 1837, -1627, 3096, 2628, -4562, -4400, 2063, -886, -1768, -2230, 986, -2524, 3887, 4800, -3648, 3447, -6868, 1084, 1297, -1270, 2831, 3382, -5290, 31, -175, -2383, -5106, 4501, -8175, 1859, 1051, 866, 3761, 9980, -113, 3195, 10498, 3022, -2388, -743, -4714, 2000, 7509, 4980, 6181, -1145, -4691, -6946, 8779, -4678, 3278, 5975, 3430, -7451, -3818, -3300, -4398, 2666, 1668, -1134, 2122, 2654, -1606, 5511, 1607, 7790, -8849, 6655, 2395, -315, 1782, 587, 6648, -573, -4331, -8696, -4385, -669, -1692, 789, 2834, 7391, -657, -1861, 772, 3968, -614, -1369, -8592, 3230, -481, -208, -2578, -5313, 339, 2453, -1962, 11293, 6623, -1541, -8362, 6485, 4180, 705, -1182, -1136, -7912, 6425, -15273, -9484, 10480, -7521, -487, 184, -12689, 2477, -4895, -1747, 2650, -9466, -9925, -5896, -7054, 1006, -3233, -517, 4377, 1606, -1321, 5366, 8020, 1906, -10623, -1869, -8856, -254, -6967, -6883, -143, 1446, -1940, 2353, 3890, -1948, -8239, -10794, -1890, -1542, -4083, 1378, -1959, 6449, 224, -432, -7400, 2243, -207, -5532, -8390, -6383, 8588, 1206, 997, -6231, 5913, -2691, -5290, 517, 1153, -4208, 1391, -2912, 7632, -516, 5861, 6925, -2719, 5559, 4200, 567, 6499, -4198, -5527, 2026, -3072, -6377, 2259, 6734, 3616, -5624, 923, 3560, 1799, -198, -1926, -3124, 7412, 1676, 2206, 4115, 9060, 4434, -8227, -193, 10308, 290, -2896, 5820, 1220, -8920, 7287, 4366, 213, -3574, -8037, 2805, -2841, -1953, 4400, 3426, -1285, 2683, 1320, 1931, -7388, 6758, 3994, -202, 5932, -8046, 8129, -1226, -1138, -8974, 6266, -4104, 1571, 2391, -4645, -4142, 6376, -3288, 2465, -1846, 1245, -3981, -4495, -259, -1563, -1516, 1547, -2349, 3367, -10058, -2874, -6714, -6221, -819, -2020, 3605, 8627, -3587, 6513, 56, -1029, 1767, -5210, 8128, 3257, 5411, -5626, -3674, -1156, 4273, 4777, 4184, -6093, -3533, -2405, -5428, 212, 3859, 3145, -807, 4421, -3870, 3051, -2450, -5884, -8020, -18101, -4742, -1035, -7458, -4062, 2757, 602, 4192, -1187, 2145, -9152, -11508, 1833, -1035, 3400, 2281, 1135, 1417, -1200, 3144, 1714, -3808, 3498, 6304, -2829, -4609, -8480, 6390, -4986, -5811, 2964, 4702, 10395, 927, -1188, -8625, -4745, 2554, -7614, -5515, 2010, -4646, -2605, 3054, -4020, -7554, -2545, 3484, -2516, -1416, -10231, 3171, 7533, -631, 1541, -1413, -8824, -5470, 1549, 4037, -5245, -2647, -1600, 590, 10085, -822, -2586, -2323, 4836, -6388, -9914, -4605, 8768, 1251, 2170, 1777, 5492, 8955, -8812, 5291, 5966, 6033, 168, 9245, 9785, 5957, 1393, 1415, -4731, 7102, 5305, 12432, -1209, -10415, 554, -7837, 6877, 1763, -8652, 6394, 2639, -4108, 7068, 3338, -2284, -2606, 602, -11871, -4498, 7480, 8531, -1061, -2950, 1651, 5759, 1440, -1546, -1499, -7620, -10690, -9356, -542, 5184, -4681, -1322, 3575, 446, 2076, 4674, 671, 2970, 1162, 2175, -8131, 298, 3398, 3703, -2398, -533, -1038, -8041, 4563, -3392, 896, 2794, 1495, 2803, -2855, 3553, 1777, 2522, -4781, -5058, -300, 964, -5005, 2065, 6692, 1594, 2701, -2703, -6937, -4119, 2836, 4186, -3776, -3793, 1724, 33, 626, -238, 3988, -118, -3352, -592, 5006, 6682, -5063, 3539, 3275, 535, 3721, -3259, 178, 2686, 2319, -3546, -7467, -3489, -9809, 4165, 3598, 2544, 7261, 6294, -1815, 2217, 1440, -2390, -2503, -2078, 5313, -3287, 678, 3723, 2874, 3338, -3438, -5602, 9349, 2572, -2669, 3176, -3767, -3143, 1247, -4661, -3485, 1885, 2081, 3785, -2783, 5537, 585, -4333, -111, -4996, 530, -5963, -4141, -485, 2637, -1774, 7044, 8804, 1437, -510, -6233, 6109, 6625, -4736, -6006, -6892, -6167, -9949, -10660, -5627, 8289, -7692, 1225, -454, -6719, -2967, -2787, 4624, -5398, -3409, -10672, -374, 426, 35, 7492, 616, 1686, 2073, 817, -8187, 459, 4941, 8963, -1533, -2948, 7120, -2504, 2579, -4877, -3227, -2777, 1502, 5122, 4326, 3324, -4368, -7072, 3720, -3124, -4795, 1935, -6154, -69, 7249, 25, 2629, 333, -1785, 8719, -6032, -8260, 10661, -5504, -1529, -3242, 4097, 1051, -736, -145, -1908, 261, 6795, 4408, 321, -7406, -7426, -7971, -1278, -8581, -1825, -42, 7586, -4184, -9247, 2275, 3619, 3884, -998, 1565, 2665, 757, -3419, -4881, 1007, 5132, -461, 1054, 868, 258, -4591, 8014, 2302, 1268, 5539, -3426, 5395, -2840, 2258, -2127, 9215, -1427, -4767, 3679, -2997, 4859, -2867, -121, 2043, -3936, 152, -6331, 4726, -8743, -5569, -772, 8051, -471, 142, -7006, -5932, 1596, -4602, -222, -1176, -7868, 1306, -1091, -3954, -187, -1646, -38, 8517, -2711, -2106, -4183, -4029, -4457, 1073, -4402, 3437, 289, -5588, 706, 3827, -3828, -9832, 3819, 6716, 1941, -6223, -1261, -728, 4663, 1361, -9130, 7237, 5090, -3305, 4204, 5857, -1518, 614, -2326, -3869, -5271, -1454, 2162, -4367, -7138, -1193, 4988, 9070, -2879, 1186, 156, -574, -2669, -1109, 12791, 11001, 283, -5024, 2568, -281, 1616, 10354, -3967, 7735, -2070, 4122, 4807, 8426, -2012, -259, 7803, 130, 8480, -998, 1356, -2776, 9261, -734, -6255, -2372, -15789, 6534, 5090, 2627, 5167, -10468, 4362, 2448, -1761, -9311, 5279, 9124, -4777, -303, 8743, 6843, 9901, 5274, 4296, -7508, 973, -3855, -190, 9962, 197, -4378, 340, -223, -1994, 567, -2494, 1432, -1106, 10643, 1906, 6991, 6106, 2610, 1781, -7149, 4826, -4686, 3916, 5045, -1751, 7652, -10501, 2821, -7343, -6414, -4693, -6573, 4176, -649, -6027, -1957, -1532, -2632, -1387, 3671, 1349, -1548, -1292, -1800, -1824, 3108, 4474, 3108, -8209, -2627, 5224, -2846, 3570, 1487, 5083, 363, -4772, 1309, -357, -6289, 1169, 3024, -6291, -1065, -1086, -6514, 1809, -4954, 6943, -4787, 3056, 4676, -42, 3163, -6725, 5074, -2846, 3706, 601, -6365, -989, 1116, 2755, 1180, -1507, 5671, -5954, 1236, -4827, 915, 3554, 3395, -329, 191, 658, 1352, -4295, -6557, 2837, -2501, 3133, -3287, -3919, 5029, 1153, 5572, -4841, -6584, -981, -2171, -1177, 10927, -5720, 10050, -3841, -2936, -3088, 917, 6567, 597, 6086, 4312, 25, -180, 3582, -7391, 4043, 360, -2259, 848, 3724, 4606, 1062, -1609, 5131, -6808, -882, -6907, 2276, 2254, -8049, -2278, 845, 3438, -3042, -5432, -3017, -5918, -6816, 627, -3954, -6631, 1653, -779, -938, 3342, -5631, 5012, 1770, -292, -5328, 4435, 916, 3285, -312, -5904, 4959, 3517, -284, -367, -2878, -3072, -5872, -3982, -3473, -2142, 4275, -2096, -2974, 938, -2629, -2330, 5299, -888, 3304, 719, 161, -7353, 1095, 1235, 4798, 628, 1400, -3501, 4116, -2000, -3992, -2409, -2659, 3483, 1579, 2915, -5872, 1889, 4488, -695, 1665, 1988, -4253, -415, -1879, 977, 2980, -2450, 4125, 4015, -10197, 3705, -1613, 875, 1540, 2893, 1755, 5722, 6404, -4794, -4023, 3258, -831, 2554, 7207, 3648, 10105, 241, -1637, -8348, 4359, -1175, 3930, 641, -2534, 5001, 6179, -8990, 274, -4179, -1534, -7663, 2925, 4551, -3663, 2926, 1463, 3585, -2926, 1201, -6813, -127, 5328, -1546, 4826, 3882, -3555, -1632, -6081, -2563, -2991, 2761, 1282, 1705, -4038, 819, -9333, -3019, -431, -5503, -46, 1661, -7255, 1603, 1468, -1551, -5250, -2793, 1069, 766, -848, 6484, 2777, -11809, 3841, 52, -1026, 2022, -7912, 3187, -3653, -111, 4181, 5981, 12978, 482, 3876, -793, -7806, 8287, -3038, -2541, 591, 4196, 406, 3764, -692, -11952, -1873, 6596, 2226, 5394, -3219, -113, 3234, -5153, -8983, 4927, -2030, -3230, 11906, 1842, -4105, -2462, -3695, -828, -1277, -2960, -10065, -2266, -7856, 3945, -4831, -1131, -2045, -1062, -1626, -1002, -126, 2052, -2635, -6700, 3266, 1757, 5151, 1399, -813, 4039, 5003, -5544, 4723, 2736, 530, 2552, -4889, -3036, -2540, -2899, 6804, -4544, 2517, -6604, 865, -5, -6836, 415, -5247, -12807, 2880, 2851, -4549, 2477, -572, -6573, -7871, -445, -7445, 2884, -2156, 6920, -6090, 275, -4317, 1572, 3717, 839, 5104, -1045, 386, 5280, 3132, 7641, -3319, -16184, -3697, 10524, 1848, -4308, -691, 2908, 1625, -17756, 7969, -1582, -2376, -121, 1567, -2210, -260, 8548, -2, 6403, 865, 8099, -2141, 2953, -2429, -6520, 4349, 5342, -1150, 1670, -2332, -1709, -4093, 2979, 1415, 3583, 8247, 4657, 3628, -5203, -1777, -1790, 10247, 1238, -11563, 1622, -3654, 594, -5746, 4995, -2435, -4186, 1210, 8907, 2147, -10211, 6436, -230, 11210, -1579, -7690, 4166, -2874, -11417, -7267, 3709, 12168, 2637, -10444, -3115, -9439, 878, -5292, 3193, -8233, 1985, 6056, -6017, -135, 4415, -8089, -5714, -6444, 637, 1705, -1731, 1872, 105, 5369, 3860, -5421, 3234, 5806, -3015, 4448, -3776, -5592, 1843, 1159, -2326, -5763, -7960, -5683, -1722, 311, 688, 925, 5206, 5714, 2854, -4507, -103, 1803, -4238, -4598, 2816, 6431, 991, -87, -1186, 920, 1572, 594, -2550, -1348, -5458, 4552, -1943, -2958, 5736, -4267, 3464, -1260, -2106, -2026, -3868, 2291, 588, -6128, -2169, 3462, -7037, 2107, -6375, -4682, 13529, 730, 7283, 3007, 15018, -9980, 9540, 4827, 2907, 4112, -8494, 8988, 2279, 10323, -6842, 4512, -8737, 7010, 11498, 4016, -1180, 960, -4027, 2651, -8405, -5457, -4803, -3949, 9793, -1474, 5101, 6233, 2470, -873, -11317, -128, 6160, 196, 5168, -5952, -13691, 8434, 5179, -10818, -7962, -8779, -8928, 4941, -4329, -1803, 1166, -8159, 5044, 7802, -3011, 10379, 9491, -5586, 6774, -8319, 6562, 3514, 6768, 1011, 4609, -4880, -2481, -5351, 6551, -1080, -2445, -56, -9005, 3924, -4034, 300, -3608, 9416, -3916, 7911, 7537, 1181, -1862, -4029, 9587, 4992, -3092, -9222, 6386, -1896, -5574, -4228, -14451, 8204, -8534, 876, 2397, 4293, -9412, -6984, 6491, 4107, -8267, -1256, 1237, -5246, -4809, -4232, -5132, -8731, 2991, 5044, -5858, -12446, -101, -2609, -7624, -7984, 12298, -117, 1863, 6401, 4040, -2687, -427, -4291, 6180, -4100, 7998, 1021, 2601, -1541, 717, -8579, -2584, 3222, -3661, -2503, -2259, 3598, 288, 7217, -461, -3296, 4636, -5568, 2972, -3423, 4761, -2111, -5755, -3689, 2241, -252, 2352, -4454, -6195, 2364, 1516, -1898, -1383, -3298, -2649, 6552, -1312, -2576, 905, -5397, 1908, 2503, -5866, 2242, 2462, -5030, -5880, 4400, -43, -3976, -4402, 1331, 10156, -6051, -696, -380, 947, -3110, 831, -2980, 567, 5796, -6904, 11891, 5432, -5664, 2768, 1171, -6126, 992, 1170, 4021, -1015, 495, 5197, -6008, -2826, -1138, -540, 3304, -2238, -2877, -480, 2931, -351, -1430, 2739, -10638, -2907, -3372, -5976, 4641, 3237, -2061, 5004, -4886, -1613, -8420, -1413, -1932, 1527, 1344, -3673, 4914, -2904, -2502, 3856, -5592, -5724, -3341, 3547, 5038, -5137, 7427, 8908, 3992, -10520, 1947, -875, 267, 3705, -1557, 5116, -6429, 4165, -2055, -318, -6747, -12048, 3279, -4823, -3190, 3688, 296, -3718, -5119, 569, -5628, -6655, -309, 1808, 1477, -731, 2387, 10801, 1896, 1804, 7701, -4484, 5658, -6220, -4751, -1204, 494, -3971, -7230, 2962, 7015, -542, 2515, -3175, -3944, -7966, -352, 4095, 402, -5098, 3322, -1942, 1330, 3932, 1386, 1330, 5685, -8391, -1095, -4520, -3637, -6414, 7495, -8923, -2479, 1238, 3427, -7702, 109, 7010, -5668, -4817, -9110, 1255, -5879, -10168, -904, 39, -9266, 1760, -2679, -589, 2039, -6432, -1959, 1202, 3362, -5982, 6770, 1523, -5485, -1873, -775, -2599, 1215, -4733, -5858, -1997, -8533, 417, -130, -493, -7590, 795, 7436, 7935, -1540, 367, 1369, 5048, -724, 561, 2853, 3287, -3442, 4277, 770, 3328, 521, 1356, 2624, -2098, 4899, 1903, 4050, 3970, 578, 3478, 3477, -2081, -5097, 4076, 7368, 522, -1318, -58, -2089, -2076, 3764, -6530, 5115, -8024, -1246, -1178, -253, 1507, 1062, -5739, -7345, -6083, -2163, -572, 124, 3276, -6555, 2903, 4124, -6462, 1824, 747, 2064, -5055, 6533, -143, 5757, -3544, 4682, 3082, 3794, -2816, 1370, -4768, -7493, 1065, -3500, 3786, 2017, -6490, -1225, -1743, 7500, 3241, -9393, 7079, -7747, -2880, -782, 2094, 3093, 8753, 7834, 2492, -2904, -4147, -2442, -3292, -5525, 974, 1395, 4035, -5352, -6851, -3172, -1040, 2208, 4216, -7325, -7383, -3085, -2815, -5873, 6906, -7655, 3798, 2112, 436, 679, -3078, 1752, 989, -417, -84, 8660, 4922, 558, 218, -3599, 806, -4258, -1669, 3980, 5213, 3511, -857, -21, 1676, -1877, -5602, 2868, 2418, -4602, -5329, 7508, 13, 5562, -406, -8887, -3011, -4932, 1105, -575, -12882, 2675, -3098, -1446, -565, -5881, 5057, 5492, 2412, -2188, 7909, -4017, -1044, 1259, 3119, -2445, -7168, 6039, -2363, -4264, -4506, -4658, 73, -1895, -9897, 13836, 5092, 3983, 4552, -2786, -2334, 3778, -5052, 1317, 2427, 4697, 823, 5579, -6606, 6292, 1661, 5447, 2071, -6607, -5536, 221, 2292, -10070, -2249, -11480, 9098, -554, 2469, 8602, -7076, -11999, -2252, 2378, -3552, -10626, 9488, 2721, -5423, -136, -6671, 10307, 4530, -5176, 4249, 2065, 4735, -7218, 2016, 5753, 1099, 8019, -5456, -3358, 711, -4755, -3178, -1894, -4545, -9184, 2918, -1751, -3093, 4176, 3747, 484, 2857, 309, -4641, 4327, -8992, 3218, -2910, -1032, -1440, 4841, 296, 2014, -538, 7687, -6420, 937, -1486, 1656, 2241, 3418, -7754, 3613, -2766, 2377, -4065, 1770, -11768, 97, 2261, 712, -1561, 4468, 662, -2346, 502, -4810, 1135, -152, 1141, -756, -456, -3578, -334, -2893, -3496, 256, -1793, 948, 786, -421, -229, -3223, 4583, 3789, 3363, 522, -3816, 4663, 6172, 4821, -9933, -323, -1650, -8665, -2944, -1367, -11603, -1943, -506, 4458, 2483, -2798, -3660, -5850, 1524, -2172, -4622, -12654, -180, -10270, 7585, -6116, -961, -7645, -3359, 8615, 5256, 218, 6255, 1974, -5438, -7911, -9732, 6216, 4536, -1025, 4443, -7294, 1577, -2138, 2715, 995, -5568, -1858, 4023, 1054, -7850, 2371, 3460, -1787, -1394, -1715, 10542, -1120, -2797, -2658, 5309, 2195, -2827, -5639, 9909, -1199, -2233, -6677, -3388, -463, 528, 6845, 4879, 647, -1595, 3015, -3223, -2365, -1592, 5259, 1486, -1759, 464, -1978, 3041, -2557, -9197, 2153, -4888, 8002, -1112, -3069, 1338, -1364, 4897, 1947, -1245, -720, -1030, -1060, -3886, 1264, 5502, 200, -1634, -2589, -5029, -2276, -8181, -3850, 3640, -7595, 1975, -1826, 2467, -1658, 804, -4686, -1021, 1171, 2531, -3662, 5196, -1345, -5630, 5517, 13786, -2182, -2508, -6498, 3420, 1620, -1053, -2070, -5793, 6010, 1883, 6387, -3324, 3189, 2154, -7087, 1676, 55, -4071, 2387, -5433, -4387, -3586, 2351, -1167, -7626, -4903, -5361, -10174, -1934, 1082, 2216, -755, 2450, -1223, 2377, -3081, 3214, -5569, 4874, -5658, 9185, -2792, 3932, 5703, -2489, -403, -3544, -5180, 4641, 2545, -3491, 36, -1618, 2120, -1349, -10285, 767, -8247, -9793, -9111, 4172, -1318, -1792, -3598, -4047, -2871, 2933, -2628, 3244, 358, -2663, 4377, 2730, -3846, -1512, 2963, 3952, 1199, 2298, 3294, -4027, 8472, -1415, 6996, 2626, 3207, 736, -8080, -8943, -796, 5440, -7798, 4381, -105, -896, -5982, 9966, 3469, -1327, -3924, -7793, -6767, -1573, 3833, -1122, -8460, -7189, -2071, 2207, -3023, -1699, 1870, -3956, 2855, 389, 4020, 387, 1345, 986, 9171, -2089, 4910, 9242, -3867, 5485, -179, 6057, 5991, -3615, 9531, -76, 4472, 7876, 660, 3591, 13170, -3711, 7975, 8477, -4767, 8706, -553, -386, 1110, -656, -2643, 8509, 6753, -242, -7328, 4720, 624, 3134, 1183, 4557, 6172, 938, 1413, -7379, -3400, 3459, 2829, 482, 4805, -1668, 2410, 4988, 2438, 1883, 5292, -1767, 4907, 3915, -2470, -10055, -4512, -2567, -5407, 5584, -11229, 2611, 4462, -4048, 4227, 3658, 4549, -5584, 4307, -4500, 1987, -700, -8712, 688, -3847, -11714, -11078, -3502, 3553, 1324, -5388, 11056, -2114, 5828, -5718, -4071, -892, 3614, 1810, 544, 6646, 16888, -3564, -1640, 1108, -7993, 2151, 1607, -7835, -391, -333, -5924, 3611, 4391, -428, -4590, 441, -336, -1876, 1608, -5184, 882, -9475, 1705, 4895, -11149, -3776, -11882, -3705, 1272, 1800, -6928, 2311, -4534, 7682, -5221, 6167, 6635, -7272, 963, -1749, -3322, 791, -3726, 2429, 3668, 5144, -3393, 1306, 1684, -2160, 1130, -4414, 4217, 6722, 1067, -2910, -549, -10494, -226, -4554, 249, -3902, -623, 5585, -1687, -7057, 7141, -1886, 3255, -2011, -948, 2489, 7369, 4199, -10269, 6275, 6210, -1086, 6782, -5521, -3621, 272, 21, -4310, 1693, 424, 9566, -7566, -7043, 2586, 2782, -607, -1021, -831, -2010, 1993, 9236, -984, 1816, 5228, 283, 6007, -1935, -2040, 1766, 949, 3235, -4352, 5646, -6224, -2916, -3065, 757, 6984, 2437, 3193, -5541, -407, 1316, 2262, -6181, 5414, 3950, 1004, 1874, 5947, 4486, -4662, -3709, -875, -8577, -15368, 4490, 5455, 6518, 790, -9416, -930, 12411, -5713, -5667, 484, -306, -4459, 9573, -6871, 1658, 9999, -3383, 3813, 2359, -3551, 4781, -6272, -4067, 3017, -3755, 251, -128, -5854, 10249, -3731, -3178, 7368, -3127, -5009, -8525, 4449, 6058, -5236, 5065, -3388, 8125, 1843, -8653, 4898, -2957, -2200, -615, 8153, -2827, -2705, 4362, -3400, 243, 4870, -3105, -6574, 1147, -323, 1238, 3888, 1284, -3431, 7377, -4134, -468, 4341, -3104, 11143, -17315, -9366, 105, -3430, 3862, 7678, -465, -716, 402, 1274, 1600, 1977, -4453, -2414, 5569, 4274, -3222, 4191, -6098, -327, -3630, -2933, -1863, -9116, 3098, -2716, -6207, 6585, 5629, 178, -4274, 4991, 3851, 3073, 2381, -7759, 5158, -504, 3150, -620, 4785, -9004, -5023, -297, 1457, -4328, -3366, 803, -3209, 1917, -7091, -4675, -1611, -197, -1296, -7926, 2163, 1428, 923, 2926, -6806, 5025, -5162, 4495, -14314, 944, 2932, -2856, 4483, 2474, -2081, -1082, -925, -3631, 1957, -1138, -6983, 3827, 255, 102, 473, 4210, -6425, 3437, 291, 1527, 1741, 3614, -74, -2070, 316, -1038, 2052, 3717, -1161, 8413, -3962, -1404, -580, 3538, 1202, 6993, -4221, 3280, 3463, 10770, 66, -1374, -12931, -5853, -14937, 1530, 4081, 821, 331, -2697, -5046, 2535, -10659, 5801, 4292, 5223, 8430, 5595, -646, -2029, 2319, -2406, -686, 3848, -7719, 1578, -4484, -2878, -2153, -1645, 1694, 681, 6605, 1211, 7964, -3426, 8612, 1000, 335, -1934, 8150, 400, -2475, 939, 955, -3430, 3631, -8839, -1360, -10120, 2380, -3072, 3127, 6510, 709, -2351, 1140, 3515, 3960, -4633, 3699, -2850, 1766, -7158, -2341, -689, -7225, 7485, 4848, -6861, 6094, -3210, -1187, -5608, 849, -2249, -527, -2573, 11348, -863, 4289, -278, 5410, 11231, 841, -4675, 3593, -8098, 1796, -1645, 3500, 1708, -2640, 4638, 749, 984, 6106, -5417, -7257, 6080, -1055, 5441, 3770, -2772, -622, 870, -1078, -5959, 1627, -6974, -2340, 1491, -8011, -701, 252, -88, -7046, 3682, -2256, -8673, -148, 1076, 1819, -8633, 1134, 2890, -7059, -1607, 3613, 6039, -3836, 5994, 790, -2172, 5958, 2635, 7580, -4785, 2040, -211, -2433, -8617, -3143, 4656, -9105, -9959, 2755, 4189, -3230, 2813, 5583, 168, 6985, 4937, -1192, 3627, 4741, -5351, -1037, 1305, -3599, -1401, 1402, 1627, -6706, 37, 2960, -13071, 388, -900, -2715, -1027, 654, -10789, -3492, 8287, 4399, -1066, -5698, 4496, -3125, -2225, -5296, -1111, -5261, 790, 171, -832, -1060, -5245, -120, -1332, -4290, 5942, -4839, 3752, 4576, -2484, -2615, -4878, -2391, -39, 2674, -6973, -3810, -2568, 1951, -4107, -4119, -2039, 8550, -3105, -6988, 2098, 250, -10326, 4783, 4172, 6306, 6265, 1922, -2185, -506, 1912, -1421, -12630, 6118, 1689, -10533, -4483, -4810, -1165, -4315, 2987, 647, -3485, 1862, 2107, -282, -4992, 5177, 4697, -4852, 667, 4707, -3218, 2642, -1053, -3441, -1298, 4238, 4963, -2798, -1418, -803, -2986, -146, 6241, 11023, 6120, 4673, 1182, 3727, 9884, -538, -2039, -11535, -6884, -2062, -8470, -7344, -2290, -5397, 1443, -13, -4338, -1975, 8892, -2525, 1615, -3859, 73, -2593, -1125, -3135, 2039, 563, -2736, -1453, 753, 1729, -2580, 6256, 586, 3409, -2603, 5001, -3291, -1909, 2902, 1538, -5535, 6161, -3046, -4900, 6603, 4893, -5512, 649, -55, 3597, -3440, -2323, 4192, -147, -1940, 718, 4343, 7308, -2771, 1829, -4071, 3016, 6138, -5835, 900, -51, -4581, -181, 3439, 1391, 2638, 4901, 2571, 1963, -2618, -1622, -8358, 3121, -7247, 3143, 10296, -603, -5537, -3737, -7897, 171, 1180, 1432, -1249, 2215, 7645, 12907, 4408, -2533, -2354, -347, 3350, 4555, 6322, 1114, 5763, -1057, -4821, 252, -2265, 7444, -8356, -3580, -1381, 3666, -2778, -487, -125, -7259, -2244, -3278, 643, -2047, -7904, -1951, 7410, -5617, 2527, 2429, -1979, -839, -8033, -7961, 8051, 5937, -4275, -6482, 5903, -9719, 5433, -2545, -12717, 575, -8416, -6808, 5208, -2350, 664, -8337, -4149, -5841, 395, -2245, -3089, 4258, 1904, -13456, 10024, 801, 2902, -4455, -3064, 14264, -12382, 176, -3579, 3142, 13672, -406, 7984, -4403, -1999, 4200, -5185, 6427, 5426, 2017, 3223, -9280, -5297, 3285, 4347, -299, -4638, 1059, 1855, 3229, 2726, -1458, -6912, 8141, -267, 851, -3804, -4488, -2634, -7261, 181, 3448, -3828, -5400, 4885, 6589, -5947, 5249, 4244, -3553, -2743, 4536, -4526, -1273, -11086, -1692, 1651, -2071, 9554, 1404, 4320, -4908, -1639, -11259, 861, -7501, -2746, 1154, -4332, 11250, -737, -1946, -3236, -6553, -5343, -2581, 2502, 2806, -4865, -7522, 8688, -13215, -2343, -13808, -8, -222, -5287, 1386, 8067, -1407, 3045, 6502, 7535, 2008, -8377, 3665, -6376, -9694, 1690, -2573, -1837, 1959, 511, -1699, 1192, 405, -5305, -8233, -2137, -4038, 6838, 3539, 1756, 4295, -8523, -5087, 1536, -414, 5911, 5312, -2061, -1034, 4486, -1326, -8437, 2604, 3848, 5970, -5536, 1404, -737, 7479, 2340, 384, -4190, 1829, 4764, -7668, 1561, 5294, -4616, -3123, 1148, 31, -6960, 2865, -4009, 2836, 1918, -8827, 4096, -2566, 5038, 1581, -2140, 2104, -2750, 120, -4663, -1795, 112, -4356, -5362, -2809, 10553, -5372, -11237, 4433, 5442, 6653, 5425, 2171, -1897, 6946, 4671, -8298, -1094, -4276, -3798, 3162, -7000, 708, -7254, -4828, 1813, -2260, 3329, -7184, 2316, -10062, 5420, -1468, 909, -1955, -2801, 2592, -367, 5297, -3478, 6124, -2242, -4716, -289, -648, 6118, 13, -2277, -6393, 32, 6194, 4686, 6018, 3855, 375, -2730, -3738, 3040, 3898, -653, 916, 5007, 3123, -5027, 6035, 8606, -2558, 269, 1931, 3823, 1968, 1459, -7999, 12553, 3668, -1838, 3066, -3243, -6884, -5621, -5722, -1068, -2560, 220, -1936, 7237, -10745, -1133, -11192, -1432, 1967, -5772, -11534, -7785, 4207, 8126, -6156, -2457, 2339, -1934, -6686, -3181, -3962, 8242, -1783, -1236, -619, 2714, 5083, -11320, -4701, -6256, -6798, -372, -3530, 2108, 6293, -178, 1372, -1263, 805, -3085, 2737, -327, -1193, 4535, 5077, 4713, -317, -6528, 1759, 4745, 7219, -3625, 2408, -1754, -5811, -9019, 2850, -3606, -3031, -296, 1651, -5503, 2954, -3632, -3592, 4612, -2181, -1595, 1187, 5879, -3034, 4045, 222, 2681, 671, -130, -3596, -2609, 5587, -111, 7397, 8757, 1616, 4132, 1795, -5063, 6577, -2233, -139, 4090, -230, 1302, 3217, 5570, 1111, -3030, -2479, 1653, 2757, 3076, 5205, 6360, 977, -2186, 5054, 3363, -2632, -5669, -3699, -1331, 5481, 533, -5943, -1584, 7017, -2260, -2495, -4941, -876, 9791, -2833, 3360, 1097, -1936, -3661, 5258, -6920, -5030, 272, 5679, 42, -2958, 5749, -5250, -1518, -3713, -3602, 5589, -68, -5396, 3877, 541, 7004, 1089, 6974, -2967, -11222, 16645, -1323, 7894, 4914, 451, 5466, 6445, 9509, 1341, -1358, -8405, -72, -2554, 11333, 727, -11652, -2285, -3498, -5902, -6646, -15484, -4055, -5261, 2773, 5406, 2889, 5328, -152, -6790, 1752, -3553, 3627, 1171, -5003, 567, 1198, 954, 1624, 1943, 390, 668, 1584, -4698, -612, -3885, -270, 1238, 1389, -3764, -4922, -4110, -1303, -6355, 1628, 4752, 583, 5815, -1388, -980, 4493, 4714, 1411, -2844, 2313, 6158, -4769, 188, 535, -4365, 2172, 430, 1884, -890, -2065, -755, 2917, -5448, 3171, -4418, 814, -3112, -8597, -3141, -5861, -104, -964, -719, 3015, 4245, 2395, 3824, 1118, 2739, 1222, 742, 7859, 7753, -1142, 1248, -11992, 5412, 6509, 5715, -3928, 2621, 626, 798, -5738, -4959, -2517, -6836, -3760, 3983, -2066, -273, 9242, -6475, 4039, 2846, 12285, 1197, 5626, -4074, 14469, 11420, 1885, -2158, 5600, -10043, -7783, 1692, -3256, -12154, -2300, 4967, 1728, 7303, 1883, -5221, -982, -13502, 10240, 1157, -5900, -5155, 3671, -4667, -3771, -570, -6776, -1792, -2763, -6297, -1291, 9667, -4479, 2797, 5380, -731, 5376, -3357, 2012, -1051, 1673, -14827, 5216, 359, -2149, 190, 3324, 2461, -3252, -7967, -1707, -2385, -2705, 1269, 429, 9197, 6050, 6759, -4538, 2448, -7852, 4231, -7018, 5133, -3953, 4218, 1920, 7070, -4740, -661, 7741, -825, -3252, 9891, -1726, -2823, -422, -111, -8487, 7473, -5116, -8800, -8142, 4751, 2183, -5722, 1209, -2383, -2578, 1643, -2556, 328, -5882, -6880, -2529, -5689, 4161, 8739, 8941, 2016, -5873, 6499, -7517, 4672, 11647, -4839, -780, -7223, 8960, -10372, 5465, -2444, 1790, -6902, 13526, 8144, 2664, 1811, 467, 7488, -4480, 15188, -4206, 984, -8546, 2838, 3748, 4233, 1971, 5440, -5731, -5186, -8014, -15974, 7880, -5292, 354, 5079, 739, 3700, -7321, 3232, 1604, -6354, 4973, 1930, -2297, 10143, -5790, 8611, 1594, 7112, 3038, 5329, -5091, -5256, -740, 11121, 954, 660, -4035, -3308, -1124, -860, -1303, -8550, 1983, 2669, 847, -5454, 1815, 2275, 4050, 4071, -3729, -600, 978, 10347, -2546, -1283, 4484, -3307, -207, -417, -1237, -8496, 3629, 4351, 859, 2224, -1533, 3898, 6707, -3835, -2297, 483, -3096, -3558, -5361, -315, 3148, -920, -8111, 14, -1749, 326, -81, -2743, -2834, -2402, 3264, 5740, -8153, 1832, -969, -1007, 2434, -3516, -691, 2682, 3229, -2180, 4550, 6110, -1798, 158, -72, 4375, 7664, -1459, 7980, -2269, 2707, -1223, 6414, -4094, -9680, 2274, -429, 1879, 672, 3379, -6610, 1301, 12959, 794, -1189, -11597, -4165, -9457, -4129, -6429, -3484, -2616, 7501, 980, -2790, -6321, -3462, -6348, 4253, 177, -4087, -3477, -10819, -3437, 4029, -359, 573, -3514, -1024, 4050, -5466, 7755, -2040, -6689, 1643, -307, 1442, 1058, 5855, -3223, 8914, -1300, -7414, -6147, -214, 3996, -8999, -5423, 5099, 530, 2360, 4078, -912, -4493, -1145, 2701, -9157, 3232, 4154, -2416, 1959, -59, 4141, 6272, 920, 1850, -1184, -9716, 3351, -1804, -3872, -1860, -3121, -508, 3773, 309, 2814, 429, 7816, 3956, -2502, 5468, 4833, -1883, 2937, -1834, 4476, 3332, -3738, -1546, -4160, -2802, -4052, 654, 1449, 1575, 6650, -4400, 1204, -2396, 593, 4982, -2417, 3073, 964, 7131, -3094, 3579, 2400, 8032, -3340, 3105, -4396};

const static dl_matrix3dq_t conv_ds_3_pw_conv_weights_0 = {
	.w = 1,
	.h = 1,
	.c = 64,
	.n = 64,
	.stride = 64,
	.exponent = -14,
	.item = (qtp_t *)(& conv_ds_3_pw_conv_weights_0_item_array[0])
};

const static qtp_t conv_ds_3_pw_conv_biases_0_item_array[] = {1270, 950, -7530, -5379, -10025, 18006, -6376, 2386, 14693, -7429, -3133, 3872, 1675, 3452, -7689, -6952, -843, 1185, 1667, 1785, -2022, 3901, 1871, 272, -9092, 4771, 4693, 7280, 12495, -1505, 5623, 2702, 2371, -1228, 9276, 1597, 5520, -7010, -10114, 4118, -4446, 990, -601, 4688, -3921, 4870, 4523, 5409, -868, -1505, 3299, 9547, 1368, -3870, 10357, -6721, -2533, 1202, -5788, 2657, -11724, 719, 8932, -7010};

const static dl_matrix3dq_t conv_ds_3_pw_conv_biases_0 = {
	.w = 1,
	.h = 1,
	.c = 64,
	.n = 1,
	.stride = 64,
	.exponent = -13,
	.item = (qtp_t *)(& conv_ds_3_pw_conv_biases_0_item_array[0])
};

const static qtp_t conv_ds_4_dw_conv_depthwise_weights_0_item_array[] = {-2317, 20878, -14925, -8548, 144, 5867, -11704, -12659, 5269, -4849, 5407, -4447, -10789, -15377, -5793, 5063, 4150, 2676, 339, 8065, -12710, 3543, 6295, -3042, 3686, 5912, -13680, 1651, 5885, -7141, 5435, 2966, -6096, -4639, 6229, -14662, 4918, -177, 2652, -14293, 5433, 5096, 689, 4173, 5676, 3377, 1936, 9553, 1487, 11094, 6068, 3892, 7068, 4179, -7936, -2792, -9147, -13441, -9033, -5720, -2327, 14276, -5886, -6316, -2686, -1445, -13384, -412, 163, 5506, -6031, -2484, 5790, -3186, 6337, -8446, 1963, -3490, -3966, -6772, 3592, 6638, -6116, 5903, -13072, 3930, 5389, -2723, 4356, 5826, -6515, -8466, 5972, 1339, 2950, 3756, -4884, -1043, 9225, 6510, 7233, -14419, 3627, 1061, 5127, 4209, 2436, 4204, 4244, -1748, -10221, 4795, -4667, 896, 4661, -6099, 7462, 3836, -7162, -1323, -182, -84, 3180, -4543, 1317, -3995, -5242, -3281, -4140, -316, -9383, 145, -3330, 5196, -3335, -8042, 6198, -1969, 6670, -8764, 1906, 6528, -4667, -4095, -14414, 8301, -5859, -12071, -14660, 5288, 6177, -2923, 4864, 4963, -8153, 79, 6463, -25830, 3338, -3412, -2133, 5791, 11081, 5105, 7431, 2242, 3697, 1454, 6092, 3866, -16906, 2839, 3538, -4925, -990, 5599, -3117, 2981, 2545, -3213, 5438, 2985, -8848, -5429, 3252, 23910, 5478, -799, 5257, -3557, -2174, -5609, -4247, 16546, -3172, -4446, -9447, 3321, -3460, -4263, 6828, -5814, 6062, -7175, -9853, 667, -8649, 3830, 8383, 9005, 995, 8569, -976, 5786, 4602, -5365, 6163, 6082, -12295, -101, 6193, -3949, 8641, 4779, -2556, -15140, 8920, -11253, 6570, -7998, 4911, -10876, 5325, 4588, 1483, 6096, 7561, 3323, 2937, -6306, 3713, 14322, 5036, 2743, 8215, 3943, -2615, -9051, -9703, -3, -5870, -4813, -2886, 13565, -3950, -10551, -3890, -4116, -3174, -270, -9878, 4055, -5040, -425, 5936, -6505, 4998, -2352, 2571, -1728, -7103, -1958, 5891, 6457, -7510, 7507, -2378, 4941, 3908, -5504, 5067, 6121, -3621, -8143, 5811, 415, 7348, 4827, -6088, -1025, 9959, 5808, 7270, -712, 5637, 1743, 3259, 5777, 3304, 6605, 8186, -835, -7747, 6121, -1808, 954, 6415, -4738, 4847, 3751, -4263, -4228, -399, 16, 3808, -4136, 3192, -3664, -3063, -9223, -5671, -11135, -2203, -652, -3472, 4948, -4170, -4463, 6655, -5412, 4467, -7003, -9033, 3739, -5346, -4766, 5488, 6365, -8797, 6353, -158, 2818, 2910, -5484, 4192, 6111, -4774, -4295, 5933, -14884, 5283, -2090, -4199, 1299, 10434, 4854, 5762, 4075, 6415, 1601, -5387, 5197, -1910, 1692, 7516, -4600, 7648, 7534, -245, -5873, 6063, 2619, 4980, 4246, -3285, -10685, 2687, 15561, -8553, -3145, 5280, -6178, -3674, -5068, -3809, 15325, -1473, -5083, -1435, 5221, -604, -16606, 6211, -7466, 5891, -4783, -11734, 719, -3198, 4126, -6534, 6237, 7169, 500, 59, 7121, 5742, -5587, 6364, 4280, -8910, -703, 8132, 1570, 5577, 3106, -828, -2545, 5880, -10518, 7256, -8209, 5139, -11184, 4988, 4219, 780, 5558, 3425, 3841, 3482, 6927, 3749, 11920, 3689, 3018, 9362, 5028, -4965, -2723, -8591, 1971, 2494, -6152, -15642, 11846, -8016, -6004, -3558, -5762, -2282, -727, -1326, 4560, -2944, 139, 5106, -2387, 4530, 202, 3129, -505, -4154, -9038, 7856, 6274, -3588, 1225, 543, 3434, 5942, -5289, 4457, 4528, -3141, -1818, 6008, -1551, 3849, 3656, -1858, -298, 4171, 6830, 5928, 4452, 4030, 1834, 2418, 5178, 2442, 1568, 5326, 237, 4297, 3029, -6410, 1200, 5956, -8898, 4814, 4652, -5576, -3724, 359, 793, -10211, -7435, 2331, -4534, -6705, -3622, -2992, -6052, -2883, 625, -1319, 5591, -3630, -1772, 3888, -2929, 5283, 859, -8111, 8846, -3844, -1572, 13814, 5692, -2159, 3372, 2698, 3890, 4298, -5334, 2919, 7221, -3627, 2647, 6620, -16180, 4800, -14325, -2912, 5428, 3042, 5861, 5931, 2477, 3847, 1236, -12475, 3857, -9739, -3577, 9809, -5210, -20739, 7603, -410, -9490, 5916, 5171, 4109, 4456, -2272, -10228, 3412, 21343, -19541, -13253, 3161, -3252, -3729, -4457};

const static dl_matrix3dq_t conv_ds_4_dw_conv_depthwise_weights_0 = {
	.w = 3,
	.h = 3,
	.c = 64,
	.n = 1,
	.stride = 192,
	.exponent = -13,
	.item = (qtp_t *)(& conv_ds_4_dw_conv_depthwise_weights_0_item_array[0])
};

const static qtp_t conv_ds_4_dw_conv_biases_0_item_array[] = {13977, 3747, 15114, 10719, 12658, -21032, 13822, 11749, -13991, 11622, -26449, 13488, 3588, 7516, 18917, 5742, -12666, -23177, 22396, -13464, 11448, -16817, -14983, 18123, -11119, -16714, 23411, 10045, -26500, 6438, -24411, -9228, 15001, 78, -22710, -12515, -7627, 221, -14853, 2207, -343, -16195, -2328, -13433, -20391, 5153, -157, -20508, 1231, 4527, -10270, -219, -10886, -14489, 17789, 17378, 8006, 6078, 2320, 13597, -1399, 14183, 18975, 23799};

const static dl_matrix3dq_t conv_ds_4_dw_conv_biases_0 = {
	.w = 1,
	.h = 1,
	.c = 64,
	.n = 1,
	.stride = 64,
	.exponent = -14,
	.item = (qtp_t *)(& conv_ds_4_dw_conv_biases_0_item_array[0])
};

const static qtp_t conv_ds_4_pw_conv_weights_0_item_array[] = {108, 2071, 6468, 11804, 9749, 2514, -7319, -1780, 547, 3324, 4163, 2656, 7131, 1091, 3317, 11798, 3715, -1991, 752, 8007, -2582, -4323, -8231, 5235, 5829, -6880, -430, -17015, 5595, -10073, 1616, 4537, 11551, -2301, -5435, 2963, -4799, -7189, -9541, 5043, -1675, 2668, 3019, 3255, 6118, -7996, 6615, 609, 1264, 8680, -4918, -12179, -2033, 5672, -3639, -5763, 410, 11777, -202, -2405, 3279, 2814, -19065, -363, -6520, 7058, 6938, 17299, -10821, -2487, 5053, 444, 12453, 1811, 5930, -10939, 2102, 13406, 712, 6126, 6494, -6357, -5935, 5841, -4215, -1986, -6475, 1776, 14706, -9339, -6257, -8091, 1139, -888, 3132, -3437, 4161, -1894, 2256, -6219, -1037, -16134, -7574, -4609, -3817, 1916, -5534, -6096, 2387, 8269, -6502, -2688, -2249, 3270, 2534, -5461, -2104, 150, 660, 3888, -13272, 13336, -3864, 1425, -1743, -8064, -10593, 2274, 3893, -2545, -7973, -2507, 465, -5916, 3065, -4213, 12853, 8950, -3422, 4812, -5520, 17518, 9379, -8761, -2480, 8666, 12992, 2438, 1699, -4426, -2953, -13774, -2898, 8139, -7849, 424, -1036, 7515, -1683, 9851, -16110, -1362, -2462, 10756, -2372, 7776, -2709, -3330, 10286, 6186, 3795, 594, -3655, -6193, 7765, 307, 3743, -1804, 5994, 1322, -8644, -2076, 12372, 3267, 12049, -18104, -5684, -8119, 2182, -223, 14697, 7373, 1320, 5462, 14954, 1803, 6594, -9332, -8338, -53, 1376, -5827, 7343, -478, -11244, 8272, -6598, -4839, 5270, -8125, -7000, 3501, -568, 1614, -3461, 7868, 9742, -6188, -2603, 959, 2910, -9758, -893, 1744, 4623, -1542, 3974, 7338, -3437, -1920, 1676, 8441, 3738, 725, -8814, -991, -1485, -2177, -11862, -10700, 4263, 1642, -3036, -1732, 13685, 7364, -7853, -2002, -3837, 13753, -3799, 3293, -5258, 4126, -7769, -1713, -712, 8602, -7633, -6732, 1091, -5823, -16723, -7373, 3321, 7662, 2717, 16521, -5644, 2319, -2177, -13977, -12592, 767, 6353, -4083, 6749, -2436, 7222, 1576, -3342, 2804, 9191, 10904, 5910, -6376, -7078, -11204, -14473, -1475, -122, 809, 398, 7294, 8690, -8084, 14200, 2481, 3649, -2383, 5024, 3571, 14144, 599, -13241, -6030, 869, -17661, 887, 1404, -16572, -3129, -8946, -5473, 2505, -9883, -3052, 12774, 9607, 12281, 1885, 6090, 20299, 8766, -1926, 3726, 4738, 10969, -2171, -961, 11899, -139, -4467, -6376, -5753, -6347, 2951, -1229, -2757, 407, 1948, -5326, -198, -3655, -11635, -2654, -3978, 9131, 7234, -14462, -2025, 2432, -6594, -4179, -12469, -12356, -11872, -1143, -3756, -946, 5016, -11505, -7013, -6967, -2831, 9600, 17, 3003, 2295, -6501, -5942, -6677, -9480, 6836, -3220, -6112, 766, -920, 18207, 4391, 5845, -4348, -10446, -13969, -4092, 8644, -4388, -18657, 18337, -65, -5125, 7962, -2899, -6220, -2124, 1015, 1039, -6627, 14387, 11880, 9781, -705, -5934, -573, 5869, 12073, 7577, 8, -2843, -1016, 7950, -717, -590, -3341, -3061, 11003, 8585, 1517, -3282, -420, -4919, 9095, -3592, 4404, -4382, -5406, -7460, 10750, 9275, -5463, -8694, -6574, 10772, -12655, -4300, -2571, 4040, 11031, 3532, 54, 17588, -4842, 4423, 8713, 4533, 11375, -9349, -122, -10199, 3299, -7429, -4150, -1157, -8776, 1474, -15071, 1506, 6294, -16433, -1574, 2899, 7530, 5163, 5543, -1897, 5278, -5608, -1161, 3611, 182, 5851, 1429, 2919, 1916, 4875, -1193, 7116, 105, -10262, -9962, 10233, 5712, 3833, 2577, 664, 11148, 6018, 3491, 6615, 5387, 8892, 13483, 4232, -11066, -10201, 1845, 738, 8329, 3179, -2292, -3994, 6881, 302, 1349, 843, -9317, -5965, -5239, -5474, -11130, -4213, 2216, 2861, -5428, -6498, -2654, -9278, 7623, 7119, 2288, -6922, -7131, 3121, -6421, 3820, -913, -6994, -4570, -8985, -1351, 776, 487, -7227, -1221, -693, 8041, -789, 5979, 235, -1618, 2475, 15537, 1336, 540, 10201, -1014, -8379, 3427, -4798, -6958, 658, 16131, -6153, 36, 2506, -4378, -3210, -3944, 9807, 2107, 343, 4963, 680, -6865, -7541, -2141, -12385, 12272, -1394, -159, -1368, -23677, -6441, -4186, -9649, 174, 2822, -1719, -9011, -653, -6227, -3220, 986, -16848, 1596, 19535, -8596, -2960, -20495, 757, 6627, 165, -1332, 13277, 7789, -1576, 17815, 1579, 2448, -13975, 590, 6253, -2843, 450, 5328, 4684, -7255, 1102, 8730, -4466, 1589, 4843, 12228, 8605, 724, -17098, 12628, 5568, 4518, 2099, -4638, -6305, 6042, 3218, -1262, -3774, -1461, -7282, -5538, 6647, 16530, -6143, -1893, -7209, -4615, 1661, -11141, -15761, 2598, 8145, 1046, -1110, -16487, -9707, -5256, 13559, -16509, -4342, -1939, 4784, -3442, -1271, -2447, -3876, -8703, 4659, -1459, 7116, 5398, -3492, -13737, -8168, -4051, 8609, 1864, 1099, 579, -2757, -2560, -7515, 1397, -3911, 6243, -5630, -3630, -1173, 6876, 3280, -3246, -5433, -5462, -2548, 13479, 1863, -3249, 7209, 12478, 3285, -5496, -6770, -7102, -13377, 1963, 11209, 2632, -872, -8049, 11203, -5592, 465, 3572, 4471, 8209, 9609, 8267, 11474, 9123, 17909, -7949, 400, -4063, -8623, 11231, 8579, -1212, -10376, -7817, 7991, -11789, -2091, 4967, -6129, -8295, 2635, -491, -2280, 4730, -7033, 3558, -2499, -2558, -6082, 7, -5224, -14181, -7715, 4728, 4154, -7464, -6375, -1540, -5048, -413, -10259, 6791, 3966, 1600, -8386, -6115, -7947, -14102, -5214, 2246, 9510, -4040, 955, -4261, 3801, 7991, 2779, -12781, 6770, -8964, 6418, -6374, -16675, -15665, -13891, -8184, -4451, 4338, 2601, 6596, 1463, -3857, 10208, 8982, 5145, -1808, 4978, 913, -17887, -7216, -10507, -1833, 1816, -2510, 4281, 347, -2815, -9738, -2834, -8098, 1072, 1291, -7677, 3904, -15386, 523, -8255, 4300, -3360, -10382, -11684, 2936, 19365, 6347, 11847, -2593, 5027, 1285, -2596, -693, 9619, -11803, 10996, 17034, -14141, -2116, 9074, -4214, 5433, -13162, -8033, -17856, 5183, 9199, 4134, -7253, -4706, 1174, 6574, -13941, 7824, 3779, -9512, 4311, 1275, 1469, -4254, -1001, 3483, 418, -9573, 1411, -2618, -367, 22782, 2168, 5112, 3415, -4468, 10221, 5448, 6557, 1312, 3768, 9808, 6691, 10500, -2376, -6319, -11774, -7123, 5305, 862, -260, -13331, 1352, 2555, 1808, -14821, 1094, -3714, -518, 3765, 9966, -7556, 2878, -299, -9345, -2483, 1927, -4647, -1365, 6666, 9479, -9808, -1780, 4440, 4334, 5821, 1701, -10106, -1674, 5532, -8286, -1882, 9523, -9000, 1219, -1197, 5211, 3960, 4557, -7374, -1863, -10, 3034, -4263, 9709, 3972, -2420, 993, -466, -7625, 2291, 7419, -11304, 4888, 1448, 9779, -540, 13258, -5764, -15423, 5665, 4890, -1256, -11868, 6142, -5635, -5423, 8516, -810, 3640, 2897, 3848, -4273, -277, 5487, 2366, -573, 7044, -5306, -8971, 6955, -2894, -9963, -1733, 2225, 4875, 7731, -1684, 19660, -2412, -5497, 1357, 2987, 1741, -11774, -2907, 5641, -7909, -6208, 7346, 3128, -1347, -3671, -11242, 2937, -9340, -5074, -2655, 1981, -824, -8340, 2616, 4577, 2145, 13921, 9375, -1821, -970, -6904, 11321, -10856, 20914, 7610, 2455, -1832, 4059, 9650, -7397, 4683, -13995, 7038, 3512, -8549, 3360, -592, 567, -12700, -4138, 2079, -9182, 1442, 8872, 7571, -9842, -3033, -5214, -8412, -101, 13461, 3544, 341, -7498, 6494, -3144, -3294, -7968, 2951, 14062, -5772, -10439, -3153, -3899, -6585, -2115, 1716, 6511, 6815, -9769, 2878, -1715, 13056, 960, -3130, -2914, -2990, -1352, 3896, -3750, -8609, -3845, -4076, 3565, 6009, 504, 7077, -3917, -11221, 4595, 766, 6178, -11839, 6443, -974, 6780, -2362, 566, 2918, 9220, 2730, -7750, 3182, 8290, -2201, 7996, -3406, 902, -3742, -2240, 13505, 11689, -1445, -5700, -2859, 10032, 2555, -1058, 1405, 3083, 6836, 3266, 8240, -16787, -15055, 10622, 1445, 13898, -3409, 2119, -5937, 14125, -3745, -305, -6034, -14474, -2372, -5559, 2462, 2271, 6036, -5077, 251, -997, 10820, 589, 9496, -7531, 4545, 345, -15364, -7988, -5270, 5228, -1777, -4545, 14188, -5168, 288, -8950, 6977, -10708, -839, -16945, -2936, -4303, 147, -3732, 911, -7064, -4560, 8195, 9061, -816, 3264, -314, -550, 5257, 5884, 921, -2231, -3969, -1917, 19883, 6948, -11995, -8501, 5953, -9054, 4616, 1200, -9494, 7713, 4788, -8717, -5460, 7147, -16054, 3835, 19780, 13293, 528, 4211, -2987, -780, -2538, 2810, 295, -13470, -6668, -4290, 13910, -6291, -8544, -747, -2482, -8635, -3488, 11536, 3993, -5906, 1182, 5051, -3215, 3406, -339, 2637, 13314, -8488, 1729, 4442, 3919, 1916, 12184, 4999, -5443, -15412, 6088, -3617, 5552, 14235, -9922, -15537, -4341, -2042, 13804, -1180, 13430, 6688, 9818, 13340, 4793, -8132, -6383, 3080, -7080, -3965, -2572, 17928, -29, -1875, 2220, -7092, -9966, -5983, 2067, 11104, -20934, -9598, 7634, 5102, 2637, 16444, 4645, 1262, -12141, 1424, 9286, -9361, 17762, 5669, 18233, -333, 2784, 2779, -2784, 4699, 1332, -572, 5942, -1458, -3592, 10655, 5153, -10935, 1122, 783, -19422, 5737, 4667, 6457, -5328, 5363, 625, -8531, -2199, 13015, 14960, 10272, -25016, 8249, -19358, 2146, -9385, -5227, 10548, -6644, 5595, -2690, -9679, -2809, 7093, 898, 2971, -2425, -1005, -6863, 4382, -1505, -3253, 2835, 14231, -1294, 5798, -8309, 1046, 6243, 10375, 1957, -4954, 10841, 8105, 5108, 3002, 7130, -3570, -2129, -2422, 10617, -3088, 6925, -5212, 1957, 6203, -5091, -10394, -4622, 769, -2940, 4229, 6910, -1476, -434, -3133, 4505, -16842, 3286, -9041, -3607, 3579, -1256, -4654, -11648, 270, -1205, 8935, -494, -8256, -5649, 15328, -2450, 4681, 8092, -4082, 12539, -910, -1369, 5251, 13724, 1627, 1957, 10317, 3423, -7626, -1195, 3672, 6069, -3055, -16543, -4133, -12957, -2981, -4589, -4213, 240, -4562, 2171, -6075, 6122, -25597, -1806, 3233, -11174, -1278, -7472, -5368, -10982, 4776, -5580, 9197, -1991, 1318, -398, 541, 7316, 13871, -11711, -2004, 1892, -8523, -5427, -1121, -1421, 5314, -3073, -11500, -9743, 12458, 8019, 15953, 1105, -3579, 2320, -1913, -1889, 3400, 3649, -19474, 18676, -4938, -15819, -5919, 1676, 557, -6258, 16438, -10792, 7080, 14976, -15106, -7631, 825, 16729, -1266, -4559, 2379, 3383, 3453, -4623, -1739, -2570, -2162, 2309, -2321, 5242, 7912, -10422, -3451, 8075, 601, 9576, 10037, -1949, -713, 14565, 9251, 6081, 3527, 10958, 7205, 4652, -2260, -4496, -7425, -3901, -4204, 5096, -4210, 3706, -7144, 7619, 4407, 7304, 4329, 5074, 18056, 10958, 22861, -3453, -10993, 12284, -12244, 7370, 315, 13153, -605, -1248, 3010, 393, -10630, -707, -4812, 12735, -890, -3040, 4833, -2449, -6641, 9392, -6128, -9139, 7356, 453, 6046, 3572, 9557, -3068, 878, 7083, 214, -2417, -1504, 4232, 4447, -7090, 7658, 2613, 5842, 333, -5435, -3484, 5353, 26, -5572, 5848, 6313, 436, -283, 11202, 2872, -493, -236, 3601, 4165, 6917, -10912, 9599, -9912, 3077, 1605, -8430, -10601, 2489, 12920, 9784, 2119, 14225, 841, 8548, 8204, -7219, -4118, 5639, -1855, 4852, -4846, 2889, 3793, 9883, -1554, -5740, 8269, 56, -4967, 4240, 13236, -7401, -15077, 6380, -8963, 1532, -6302, 4921, 3387, 3098, 6598, -5221, -1830, -4899, -1807, -1786, -3915, 4123, -7772, -2150, -3378, -2475, 1885, 2546, -745, -8301, 2946, 1089, 8357, 8555, 5949, -1025, 124, 4832, 13366, 5005, -2400, 16275, 7595, -17241, -11809, -1099, -8028, 9846, -23277, 3580, 3167, 4602, -3799, 2605, -10131, -8156, 7131, -3983, -2909, -3708, 7421, -5175, 899, -5769, -10339, 1953, 5767, -10196, -3482, 15643, 9561, 8882, 9352, -9592, -13658, 7234, 3489, -6050, -6533, 6604, 1591, 1746, 12214, 458, 4108, -1079, 5506, 3682, 3628, 7412, -2868, -3930, 5179, 925, -6335, 3594, 4393, 916, -5648, -3691, -2342, 11283, -7804, 10074, 6357, -2720, 4359, 10382, -6723, -9395, 3981, 530, -15908, 7411, 7209, -7893, -1384, -3922, -2638, 4179, 4562, -20445, -3994, 3903, 5076, -1351, -2255, -1865, -5657, -2949, 884, -2268, 4708, 5023, -2766, -2633, 4616, 4826, 9465, 6165, 16989, 1310, -20126, -2032, -10442, -4062, 5604, -3804, 1736, 5940, 6908, -549, -4845, -5202, 1879, -5792, -1187, 2881, -340, -3880, -9204, -13915, -2918, -5502, -6733, 572, 5675, 12814, 4501, 13902, 10101, 1332, 11267, 7148, 1471, -6259, -6784, 13780, 10006, 14268, -3530, -6308, 6774, 6936, -3528, 15855, 102, 10989, 9414, 954, 5259, 1739, -1837, -344, -12046, -247, 5232, -10853, -6120, -3017, -9957, -8735, 165, 6298, 11112, 11216, 4931, -196, 4817, -548, -14276, 4049, 2629, -6196, -5845, 999, 316, -9952, -15570, 19480, -3016, -3027, 15978, 2598, 1711, 6671, -1003, -793, -9359, 18204, 3272, -10578, -10474, 18358, 9248, -3458, -10387, 2929, -15113, 6982, -9364, -4415, -1583, 3307, 7544, 6990, -8315, 664, -1874, 3703, -3505, 7280, -1944, -6914, 2941, 768, -260, 4305, 2429, -14078, 5635, -1131, 7007, -3281, 10512, 466, -5266, 5761, 4112, 3524, -9234, 3402, -3386, -4831, 15041, 1234, 16530, 2343, 533, 1539, -643, -3157, -5342, -2382, 6178, 9076, -11147, 7671, 7638, -9087, -1448, -4696, 7547, 3927, 1086, 13311, -11478, -2525, -1302, -6139, -5306, 9882, 406, -14326, -2921, 6335, -5889, 11607, 17925, 5172, 5912, -1759, -1350, 5154, 5577, 17084, -9054, 4497, -6905, 1428, -5669, -5627, 3744, 9707, -19598, -2587, -7902, -7581, 4200, -4730, 656, -6429, 14813, -13957, -704, 3051, 5845, -2290, -2624, -5314, -5261, -599, 759, -9183, 536, -525, -64, -959, -4055, 4360, -3158, -367, 15867, -155, -3096, 21184, 4092, 20551, -10695, 2399, 2420, 11021, -8612, -2259, -1478, -3912, 10206, -3747, 6484, -13142, -8733, -762, -11898, 8273, -3081, -7765, -5840, 7402, 3793, -6354, 1054, -6753, 6816, 298, -1653, -2898, 4658, 3143, -3323, 8909, 6702, 8698, 1680, 3755, 4112, -13842, -8702, -8146, 7927, -2118, -1878, -10222, -2257, 11325, 292, 6346, 2120, -440, 5296, -3261, -4498, -1000, -321, -12485, 7021, 8792, -10067, -10594, 881, -2936, 10697, -14173, -1149, -2695, -3922, -6738, -9042, 697, -5389, -14499, -1777, 4688, 12177, -9017, 2705, -6249, 6575, -679, -7963, -967, -4953, -2405, 1268, 5018, -7720, 1607, -6290, 4354, 182, 8521, 190, 426, -3589, 11001, 3190, -18714, 3499, 836, 6152, 8352, -1929, 10065, -10393, 7952, -7984, 2928, -10087, -7186, -13914, -5763, 1380, -3106, -9558, 3913, 115, -4183, 6712, 9471, -6124, 6164, -1481, -4441, 1057, 3778, 8257, -595, -5064, 2037, 9697, 1110, 2836, 407, 9798, -2732, 3137, 4051, 4649, -17348, 341, -12851, -512, -8927, -1851, 5010, -8554, -8761, -1180, -11315, -808, -8696, 3175, 5280, -3232, 21978, -1158, -186, -2879, 8296, 14195, -3083, 14383, 6928, -7882, -4789, -7309, -13583, 6160, -2518, -8521, -4600, -1998, 8810, -7739, 6703, -10492, -10563, 3132, 2175, 6364, 2142, 3307, 1344, -10459, 1328, -16425, 374, 5011, -3147, 14229, -13330, -1887, 3946, -3144, -10183, 729, 221, 2523, -6362, -4903, -4174, -1757, -5599, -2858, 3950, -21037, 1535, 15608, -3602, -4965, -8289, 6112, 5734, 5814, -7417, 18048, 6204, -2403, 11835, -4409, -150, -5462, 2098, 9533, -1045, -3639, 1610, 8060, -4554, -2081, 4750, 1693, -1652, 6946, 6333, 1815, 7912, -618, 5433, 2727, 4865, 7073, -8618, -7585, 6260, 3810, 1955, 7176, 4979, -11178, -4352, 4820, 848, -5446, -5135, -5055, -11826, 83, -8901, -6510, 3242, 2880, 17434, -454, -13548, -10382, -21860, 1822, -13358, 8834, 574, -14969, 5295, -4309, 3040, -4959, -11048, -141, 221, -2700, 2239, -11091, -10249, 2068, -2712, -1001, 2556, -315, 6944, 9888, 4276, -7305, -7466, -7091, -16814, -1036, -722, -417, -2115, -2046, 7568, 8485, -4919, -6609, -10511, -48, -6242, 10416, 4718, -541, -13422, -1010, 5180, -2684, -14292, 631, -132, 22437, -6209, 1318, -265, 1353, -6336, -2175, 9361, -17933, 6381, 2985, 7439, 9175, 5675, 4508, 8067, 2922, -5997, 1663, 2520, 9493, 7614, -24875, -11049, 18990, 12849, 9986, 2797, 6646, -2537, -14825, -5463, 5656, -6034, -5536, 9737, -22541, -4219, -13677, 9745, -4744, 6145, 5099, -7417, -7693, 7293, -8957, -1460, -9934, -5423, -5689, 7632, -2419, 2948, 10663, 6605, 4732, -5278, 4558, 1129, 2322, 5842, -1960, -10770, -20013, 8872, 11952, 529, 14608, 5315, 48, 2393, -9741, -1648, 16063, 8696, 8329, -1347, 46, -18713, 7796, -4344, -21341, -1845, 2864, 2101, -3400, -12361, 8518, 6808, -2525, -5882, -133, -6827, -2281, -1040, 16237, 9658, -7039, 13856, -10264, -2772, 5320, -2841, -2312, -7622, 2477, -668, -4352, -7406, -7739, 11362, -739, -3200, 4076, -2139, -2343, -6230, 6879, -2977, -11335, -1390, 7233, 6065, 5328, 2654, -851, -15022, 6592, 7920, 527, -5269, 5276, 6960, 8098, -4946, -11229, -9025, 1244, -2875, -11315, 13127, 1637, 5239, -9673, 5967, 4746, -3082, 6843, 959, 2746, 21104, 2429, 771, -163, 13506, -3132, 5155, -462, -3947, -4605, -6185, -715, -6806, 2945, -4455, -15617, 4329, 13711, 2124, -3791, 7944, -5533, 7560, 10163, -8546, -6319, 11048, 5195, 4554, 3990, 5556, 188, 10716, 6270, -8049, -4720, -1953, -1455, 2892, -2587, 14518, -7199, 13437, 162, 6309, -3008, 9711, 8423, 4876, 10540, -14048, 12212, -3739, 11777, 3887, 8244, 1480, 4975, -1452, -11079, -7114, 1267, 14398, -5276, -7158, 19026, 7110, -5, -10689, 5713, -4956, -4576, 880, 13322, -825, -57, 5804, -7632, 245, -13838, 2197, -12543, 1458, 8618, -2334, -9455, -2952, -2869, 3059, -135, -8695, -799, -456, -1459, 10599, 14032, 6498, 3479, -5198, 572, 3093, 1265, 5091, 4239, -13776, 924, -6415, 15195, 1374, 3739, -600, 6777, -3808, 7075, 3632, -5617, -5578, 2403, -5478, 2690, 13705, -1465, 6932, 9982, -4824, 4719, 7797, 3348, -512, 1263, 6018, 2435, 8559, 640, -8553, -17281, -2405, -15479, -6487, 1913, 499, -15708, -2708, 9204, 2541, -1070, -3352, 10908, -6778, 7174, 934, -12225, -10322, -4454, 2428, 422, 5584, -3909, -5144, 2687, 5070, -2389, -6354, 9496, 7481, 8039, 214, 2485, 9691, -402, -3712, 6702, -8143, 6300, 1300, -4670, 3292, -7307, -12596, -1717, 10805, -5379, 394, 5572, 19326, -3466, 4375, -8662, 6075, -10777, 1164, 658, 2299, 5358, 813, -2468, -115, -818, 7501, 6010, -5736, 7152, 10748, 864, -8279, 6225, -9428, -5267, -537, -3504, 5016, -1831, 10394, -5197, 1383, 3950, -10858, 3524, -10917, -1810, -4050, 4487, 256, -10417, -68, 5160, 3342, 6214, 3895, 3290, 8850, -4081, 3521, -8778, -656, -2366, -5661, 5911, -997, -5185, 4754, 631, -55, 4378, 289, 90, -3275, 4490, 6017, 6939, 6232, -1972, 6146, -18548, 13556, 949, 2423, 7652, 3196, -4640, -2557, 6298, -343, 7794, -1577, 7093, 950, -8844, -6905, -13671, -5987, -407, -3077, 3077, 20456, 1117, 918, -1767, 7671, -8745, -12615, 5862, -9824, -1010, 5573, -5346, -4224, -1694, -5721, 1341, -2019, -260, 2857, 3118, 12886, -4710, 3952, -1612, -1871, 9139, -4009, 619, 1131, -2600, -8845, 2935, 2733, -7249, -7970, -2494, 895, 1320, -1237, 6085, 1902, -5567, 432, -2532, 9428, 7187, 3872, -9045, 7626, -368, 9244, 10602, 1829, -6016, -4457, 750, 2592, -5561, -10579, -13380, -5872, 17432, 2628, 437, 3091, 5570, -7725, 7200, 439, 4517, -2359, 6971, -5371, 5349, -2892, 2566, -6267, -2005, -8854, 9041, 14727, 207, 6387, 12237, 2677, -1651, -7252, -4872, 717, -2915, -10354, -6854, -3423, -8052, 7622, 3849, -7348, 567, 7032, 4199, -4202, -730, -8442, -21024, 601, 16405, -7417, -5567, -11837, 1584, -4476, 14584, 726, 12861, 4510, 416, 9001, -4729, -2719, -10444, 13445, 8551, -2006, -8214, 2458, -3068, -5395, -3080, 3261, -1754, -2463, -10002, 4088, 2163, 2412, -3248, 3151, 6078, 965, 1462, 598, -3830, -8076, 4699, 9672, 3769, 2024, -5016, -5055, 4361, 2528, -5179, -10940, -1251, -8578, 7194, -4641, -15733, -4734, 5614, 30486, 7005, 10551, 10357, -16559, -1139, -1962, 8991, -14138, -7617, 7538, 2346, -12209, -14844, -17520, -17495, -231, 6016, 2056, -2297, 7157, 4579, 5916, -4035, 634, 2258, -764, 17233, 10758, -11777, -7606, -10072, -11000, -2659, -7510, -356, -5875, -2173, 5530, -4096, 8576, -11560, -9110, -9851, -4494, 8251, 1115, 1104, 128, -9835, -3815, -4782, -8320, -3925, -6057, 3797, -1906, -5054, 6527, 2523, -7439, -3342, 3946, -12509, -2573, 4387, -4563, -1099, 10549, -10046, -15623, 5796, 13901, 410, 1488, 12793, -3925, 12453, -1754, -9879, 1395, -18290, -2288, 1085, -8521, 5514, 3626, -2086, -3662, -11995, 6479, -5592, 891, -9637, -8016, -835, -9792, 10708, -2088, 2152, 10279, 13201, -5842, -3592, 16162, 6892, 6371, 1842, 6858, 11552, -8545, -10497, -3556, -8244, -10974, 6679, 7209, 4966, 327, -376, -2183, 6748, 5878, -301, 569, 1248, 847, 2447, 3523, 5087, 3735, -5248, -3868, 4575, -2648, 17684, -3716, -6466, 11105, -4313, -12065, -12553, 2525, -2898, -5721, -6952, -6817, -1258, 1068, 8053, 853, 1432, -12380, -862, -1643, 13854, 12076, -14249, -3781, 967, 9827, -7363, -3677, -15496, -5670, 9427, 1769, 10758, 8842, -8430, -16238, -4825, -5253, 6132, -10205, 3255, 6707, -13313, -7556, -3022, -1289, 7851, -1057, -3298, -7135, 8211, 23292, 5300, 1971, -1555, -6898, -9669, -7128, 12818, 4980, -7570, 19434, 8214, 7206, -12395, -1868, -9903, 4731, -3047, 16272, 6493, 9888, 21940, 2982, 6, -379, -955, 5997, -10360, 3231, 5461, -5205, -5946, -4878, -5159, -11269, -320, 5409, 5328, 6111, 8552, 513, -3711, -703, -2960, 5396, 4417, -9581, -1782, -1534, 7695, -3102, -10171, 1829, -4418, -6820, 19953, 1484, 12492, 11755, -6167, -218, -4900, 9586, 3591, -9543, 4828, 14941, -4360, -8009, -11727, -1275, -752, -9443, -1366, -8075, -7818, -14171, 4379, 7596, 7269, -9628, 7327, 8046, 2724, -6419, -7161, -1901, -4781, 7360, 5998, -5963, 549, 2035, 4666, -1638, -4057, 9848, -20528, 1299, 11997, -5146, -12405, -1952, 12953, 291, 4309, 9448, 4979, 3376, -187, 1960, 15550, 15391, -1071, 5558, 3877, -3549, 1144, 1797, -1805, 447, 5156, 3120, -8171, -3519, -6948, -10820, -538, -2859, -1907, -2280, -6004, 6206, 9791, 3199, -2198, 8074, 1936, -13912, 12453, -1990, -3576, -1301, -796, 8605, -11486, -15960, -3305, -8382, -633, -6988, 2248, -327, -2235, 4088, 10304, -5153, 5900, 11411, 4372, 2352, 15864, 9812, -7749, -2958, -3316, 5217, -12112, 7337, -9761, 2733, 890, -639, 1627, -8242, -1197, -11285, -4269, -3160, -10273, -10822, -986, 8085, -1462, -6808, -8641, 3412, -1669, 1154, -3704, -19020, 13058, -3488, -7389, -10364, -9355, -2558, 3823, 3100, -65, 5187, 17225, -5786, -3223, 5889, 11490, -11485, -16768, 5655, 2569, -2990, -10451, -5224, -6835, 3566, 184, 3908, 13532, 10935, -5316, -129, 8360, 598, -1047, -6740, 1147, -268, 12571, 11050, -5527, 1663, 4757, 1529, 1316, -2166, -5324, 2387, 7521, 2935, -2306, 2053, -9351, -5820, 5360, -7780, 7777, 9128, 1537, 7777, 20239, 8665, -6635, -9611, 3808, 5008, -569, 5766, 6833, 1759, 7061, 4793, -2374, 5218, 2040, -2553, 10902, -4968, -914, 5355, 2981, 1664, -7106, 4436, -3558, 7141, 4062, -1153, -11127, -1644, -13175, 6784, 1436, -366, 5734, 8272, -17263, 4578, -2657, -10897, 2183, -6671, 18632, 286, 6170, -12969, -3257, 5842, 13304, -9706, -7619, -760, 316, -3473, -2424, -3840, -3105, -3010, -10510, 5205, 202, -448, 9098, 4661, 14220, -1807, -15415, 12586, 21188, 11401, -14007, -1535, -14054, 8662, -1442, 2291, -1565, -6483, 829, 2138, -4416, 14511, -4674, -2827, -13669, 9726, 677, -7571, 2010, 18192, 64, -912, 14554, 2980, -5659, -12451, -1980, -18422, -488, 1483, 3489, 3916, -1203, 12447, -12142, -5005, -3055, -4645, 5869, 6392, 13270, 446, -4940, -5995, -5764, 5060, 1264, -483, 404, 7886, 10253, -1116, -7925, -4997, -10769, -13044, 18579, 1307, 9609, 571, -3544, 5134, -2148, 3000, 11150, -6741, -1083, 14093, -5227, -643, -6273, -20624, 7051, -5250, 5237, 5581, 7235, 5654, -15553, -1304, 15004, -4127, -232, 15555, 12167, 2196, 22780, 1955, 5919, -2564, 4812, -8748, -10682, -2075, 6997, 1171, -3227, 4288, -11537, 1720, 10056, -564, -3926, 1911, 6404, -1847, -5363, 1839, -12795, -4375, 4589, -3434, 7349, -3384, 5177, -701, -8345, 15322, -10633, -10255, 16653, 4328, -2543, -4812, 7109, -6343, -1849, -3407, 8921, -8880, 120, 4060, -5294, -10454, 9303, -11259, 991, -7896, 4356, 8804, -2994, -9025, -8630, 10200, 721, -8362, 19786, 1040, -1811, 1298, 8802, 5940, 4336, 491, -4946, -12422, -7891, -6579, 5463, 767, -3889, 11584, -20872, -7729, -15432, 7082, -1325, -9135, 2991, -8359, 859, 11487, 8493, 2454, -3869, 314, 10378, 11337, 13840, 10380, 14892, -3454, -280, 157, 402, -3049, -1343, -2562, 786, -13777, -10571, 3279, -2887, -3873, 1839, 414, 1624, 8851, 7636, -11580, 3348, 8543, -8504, 11587, 2708, -6732, -1465, 9615, -7311, 9137, 12653, 323, 3187, 10224, -1134, 2926, -11077, -5041, -3147, -13958, -1686, 5105, 4148, -9010, -10782, 5759, 3759, 2453, -19723, -297, 7450, -11445, 923, -511, 672, -1395, 8335, -9282, 4575, 6482, -4340, -2492, 5159, 9921, 4920, 1764, -7353, -6467, -6982, -14827, -4252, 1814, 2933, 602, -3217, 188, 5347, 11563, -104, 4809, 12661, 2548, 3211, 11601, -3062, -10600, 5011, 5705, 5217, 3217, 2116, -4973, 4025, -7917, -3500, 7573, -4577, -6197, 3102, 3204, 9075, -1309, -720, 1206, 165, 6863, -4741, -4997, -108, -4079, -7539, -7231, 8685, -8625, 3010, 1480, 2972, -5241, 5669, -1992, -8568, -2508, -4142, -10032, 1253, 2915, 3808, 1189, -10354, 1344, 2301, 8852, 5683, 10223, 7678, 12601, -2081, 7952, 6568, 16678, -6401, -11639, 3170, -1588, -1534, -6688, -3241, 16278, -806, -7599, 19362, -7190, -1826, 7544, -2450, 2588, -1526, -941, 804, -6936, 1755, -16346, -2499, -274, 3330, 11255, 7635, 5480, -4935, 1205, -2283, -5399, -4992, -2069, -13355, 1256, 18544, -5394, -5093, -988, 5842, -10062, 2465, 2191, -4046, 3476, -7376, 7373, 2213, 18988, -11529, -10934, -4247, -5830, 4890, 638, 9763, 111, 13299, 1032, 2346, -995, -5826, -10335, 4747, -10888, 1908, -7540, -9382, 8590, -8950, 15730, 11479, -2598, 3050, -10539, -6231, -11526, 9312, 5463, -7636, 3139, -5545, 2823, 4071, -7997, -9028, 4688, -8396, -3704, -8490, -1034, 5769, 1963, -10253, 15523, -3175, -8373, 8571, -2997, -6831, -2495, 1450, -20900, -5705, 5706, 8517, -3261, -9941, -2229, -6218, -9641, -1275, -9483, -5049, 3818, 5045, -1678, -2692, -3495, -1193, 5535, 734, -2105, -3446, 6759, 12218, -2094, 360, -6555, 5633, 2813, 3292, 5317, -5616, 3860, -6114, 4384, -24411, 9752, 4417, 1436, 1277, -4761, -10342, -1407, 3837, -8406, -11015, 2811, 2127, -5253, 7225, -3748, -10486, 8366, 10790, -1967, 9752, 1356, 6886, 11236, 12536, 2932, -16162, -846, -9134, 2847, -1353, 4666, -8112, 11100, 16110, 6518, -3523, 10537, -2186, -10022, 5464, 6535, -3450, -2007, 3724, -2590, -12273, -2368, 3694, 3190, -2503, 1171, -12062, 3167, -4053, 7734, 2892, -7972, 419, 13518, -1559, 5826, 3401, 5445, -11882, 6206, 4800, 3725, -4792, -1300, -16559, 6903, 1603, 11872, -481, 5432, 10381, 4855, 3546, 2645, -2517, 755, -7420, -3178, 4999, 2722, -7255, -7175, -5671, -9289, -4252, 8631, 2048, -172, -325, 305, 2279, 1478, -1438, 2338, 5154, -12696, -1884, 3045, -201, -5296, 866, -3447, -567, -5582, 15935, 371, 19395, 15038, -12231, -1548, -12514, 13689, 8425, -10403, 10481, 7521, -2342, 3553, -10319, 9087, -1392, 9743, 9425, 4468, -2175, 5480, -3273, -6716, 9563, 3735, 7587, -9639, 10893, -8183, -15272, -213, 160, 7182, 9785, -2548, 3457, 5465, -1407, 1201, -9445, -10538, 4282, 3215, 27461, 2750, 10549, -2251, -12411, 1489, 13196, -11001, -5610, 9186, 5642, 2257, 7211, 4503, -11308, -11283, -8073, 2293, -4313, 9396, 5543, 2214, 3515, -5073, -11236, -1890, 1906, 11916, -11067, -416, -14119, 1911, 2370, -2491, 8317, -7190, -449, 3737, -4261, 1237, -3182, -4960, -253, 4424, -11871, 865, 8094, 6664, 4063, 6474, -16672, -1125, -4264, 8777, 3005, -10089, -5711, -1694, 6330, -2429, -3673, 4071, 5897, 590, 5269, 2881, 11228, -10263, -7818, 6207, 315, -8328, 7161, -2095, 15054, 4439, 16127, -189, 1642, -1383, 5786, 2775, -7673, -2951, -6390, 4747, -1474, -10252, -8249, -3555, 6120, 9046, -7497, 7457, -6763, 6913, -274, 5182, 8245, -13621, 5175, 9090, -9595, 10111, 4324, -2916, -13476, -277, -3047, 4556, 9179, -12029, 6698, 3293, -4894, -8162, 1704, -6281, -5430, 2360, 2478, -7383, 15982, 8920, 3346, 884, 7378, -2995, -3584, 7619, -1665, -3560, 171, 9767, 4198, 995, 6764, 6162, 9474, 8608, 4452, -11888, 5435, 1615, -8309, -258, -11249, 3590, 2175, 2204, -8735, 14220, -6641, -11891, 2875, -4992, -363, -4246, -11012, -4568, 10710, 4876, 660};

const static dl_matrix3dq_t conv_ds_4_pw_conv_weights_0 = {
	.w = 1,
	.h = 1,
	.c = 64,
	.n = 64,
	.stride = 64,
	.exponent = -14,
	.item = (qtp_t *)(& conv_ds_4_pw_conv_weights_0_item_array[0])
};

const static qtp_t conv_ds_4_pw_conv_biases_0_item_array[] = {657, 10160, -6006, 4186, 9249, 17675, -9790, 2918, 16025, 5580, 13207, 24857, 15298, 2066, -3654, 6096, -101, 9799, -4770, -859, 6435, 13753, -17748, -6383, -8604, 1175, 7467, -10546, -622, -2583, 16172, 5153, 17317, 2110, 25954, 1724, 7211, -14497, 1864, 4512, 83, 1583, 1639, 14723, 22940, 3519, 13052, -8938, 4414, 18732, -9656, 2857, 857, -368, 5784, 1023, 43, 9627, 15845, -498, -3796, -4361, -2400, -2969};

const static dl_matrix3dq_t conv_ds_4_pw_conv_biases_0 = {
	.w = 1,
	.h = 1,
	.c = 64,
	.n = 1,
	.stride = 64,
	.exponent = -13,
	.item = (qtp_t *)(& conv_ds_4_pw_conv_biases_0_item_array[0])
};

const static qtp_t fc1_weights_0_item_array[] = {-8279, -5863, 5874, -4620, 3757, -7264, -1161, 7546, -206, 5596, -4072, -7437, -4456, 8119, 10463, 4857, 8127, -9629, -1712, 7195, -3456, 1491, 2398, 14304, -4870, 12803, -7373, 3542, 10511, -6211, 8998, -9268, 4934, 8949, 1614, -10000, -5438, 8965, -6303, -6882, 9292, -3340, -5914, 3288, -6429, -7196, -4569, 2967, -4839, 1411, -7989, -2210, 4537, 4662, -3089, 1669, -8112, -8583, -7381, 8590, -4762, -2474, 7663, 7060, -8186, -11355, 8575, -8096, 2661, -15819, -11439, 5810, -1926, 11550, 2894, 5621, 9908, -3730, -7228, -6347, 4137, -9048, -3690, -3340, -3454, 27, -919, -9139, -16503, -4435, -4116, -10322, -1472, -8301, 8389, -17377, -5600, 10519, -470, 2291, -80, -8969, -11516, 11514, -12072, -10612, 1759, 10618, -4246, 536, -8608, -6410, 13594, -6244, -3492, -11902, 11619, 4051, 10840, -18925, -1817, 12624, -16342, 3721, -2803, 4339, 4187, -906, -15802, 189, -12228, -5612, -4022, -4538, 7405, -9684, -11720, 3856, -421, -3268, 10882, 7980, 6266, 11145, -13931, 12790, -11869, 3013, 14377, -619, 6159, -1667, 472, 9831, 6147, -14862, 3937, 1960, -18941, 9728, -2389, -3999, -8530, -2948, -9109, 5469, -1393, -16657, 9630, 7741, -4110, 1468, -3772, -618, 13643, -10346, -2592, 7515, 1441, -15011, -16668, -14244, -2468, -5353, -1913, -10448, -8456, 13325, -5406, -18909, -9883, -1395, -9813, -7719, 12440, -17965, 13510, -2331, 3116, -8337, -8125, 5906, 3867, -9554, -9392, -8142, 2220, 1286, -1767, -8920, 7982, 2924, -8773, -2523, 19968, -14456, -18454, 5251, 5804, -7106, -14669, 12252, -3464, -699, -2179, -4680, -982, -19509, -15700, 16017, -18450, 3310, -14781, -13381, -4365, -12801, 1048, 11943, -8802, -14444, 9072, -22577, -20580, 11676, -5486, -9320, 11024, 15155, 1602, -2325, 7480, -9173, -13273, 4679, 10906, -7908, 3745, 7842, 7990, -13188, -20656, 6472, -11906, -13197, 6001, -5995, -21853, -2192, 6492, -22134, 5827, 9409, 3716, 4501, -16825, 18331, 1630, -8080, -10864, 7595, 4165, -13687, -3801, -10744, 12653, 9581, -2162, 9823, -14841, -13398, -6095, -15516, -12296, -5088, -1712, 5379, 644, 5029, 12197, -8490, 156, -5825, 5134, -14678, 2769, -11075, 15037, 16848, -11444, 576, -22352, -12464, -980, 7433, -4174, -18114, -14302, 14584, 10094, -20028, 1342, 2984, 3433, -6390, -15020, -14123, 1655, 4512, 4, 12255, 9087, 4282, -18229, 5348, -12040, 6255, -16336, 10090, -11390, 3371, -1118, -20800, -1438, -1995, -4601, -4029, 1364, 12528, -16102, 6832, -4796, 3603, -7794, 12904, -19061, 1648, -18422, 8642, -13932, 10975, 9533, 7420, 3238, 4649, -14465, -14431, -14332, 9681, -13577, 1514, -6756, 4743, 2770, 10339, -4118, -15699, 11326, 4816, -7462, -9330, 5627, 3648, -17894, -7301, -8444, 4847, -6318, -6176, 12766, 15022, -13424, -2693, 2979, 9441, 7705, 9704, -7743, 6496, -6572, 3842, -10905, 8402, -30697, -930, -181, -8520, -15315, -5754, -1441, -13464, -2693, -6051, -11514, -13182, 9365, 9803, 16804, 6619, 8984, 4426, -4245, -13884, -7574, 3003, -8411, -18886, -22216, 4266, 19234, -8384, 8281, -21688, -4670, 8798, 2602, -8088, -12405, -3731, -18507, -7762, -326, 8691, 5278, -212, -26127, -5650, -14221, -8149, 15347, -14442, -1398, 14670, -4967, -12209, 16963, 9694, 9174, -5366, 12093, -22052, 10233, -11668, -11036, -5140, 9129, -7196, -7605, -1866, 14888, 5544, -7119, -5041, -15722, 8555, -11449, -7774, 5313, -3489, -1733, -14225, 6567, -3765, 4133, 3057, -8843, -15639, 12832, -17618, -5589, 3758, 13456, -9290, 3702, 5773, -13013, -12408, -418, -12361, -7929, -14183, -14572, -6828, 13692, -663, 15456, -16779, 9799, -2401, -15392, -8415, -10724, -1020, 1580, -22455, -15819, -20529, -2234, -1731, 5372, -10722, 17034, -19655, 14234, -14189, 6622, -21615, -3002, 12038, -20875, -19199, 12090, -12411, -7559, 1441, -824, -11410, -11541, -17413, 11879, 11151, 9734, -22955, -13164, -2877, -9813, -3264, 10531, -15458, -2494, 6744, 5145, -20605, -9885, 8758, 1750, -21065, -6508, -10360, 18868, -981, -3915, 6802, -14598, -3518, -1969, 9282, -6554, 15365, -12890, -16072, -24294, -14074, -5634, 110, 13372, -5913, -19747, 10282, 3400, -1845, -15723, -9374, -5023, -1941, -11275, -12460, -9330, 16059, -14614, -524, -8624, -16146, 16407, 1140, -1033, -25087, -10102, 12538, -23612, -11807, -5466, -1736, -29842, -17198, -3463, 16074, 11946, -9969, -16140, -24394, 16317, -17770, -7798, -7470, -13036, 12170, 10266, 11606, -15093, -21082, -201, 8379, -5114, 5801, -3171, 2035, -14680, 14238, 15757, -14019, -7157, 7843, -5414, 4991, 18236, 84, 9614, -26456, -1262, -15216, 9714, 10820, -944, 2098, -16702, 17172, -16259, -28286, -14142, -10483, -2060, -4185, 16154, -24533, 3087, -10662, -8697, -8712, 13102, -19006, -16236, 16734, 7077, 4460, 5119, -4872, -5398, -9352, 2819, -3712, -16832, 1237, -16830, -6600, -14555, 15046, -18521, 10927, 10109, 14759, -232, -5507, 4891, 215, -8868, 3369, 6053, -2767, -18064, -13979, 4403, -19292, -8867, 4852, 12906, 12003, -26958, -3239, -16206, -13717, 5635, -16127, 4811, -11185, -20333, 2364, -18965, -11967, -5044, -21917, -9046, -19892, -5175, -29495, -2436, -19046, -13332, 260, -3259, -14884, 11695, 6873, 15660, -18490, -7498, -22228, 2754, 3287, 8660, 4630, -15909, 13385, -6987, -1516, -4823, 2117, -15821, -14763, 4456, 15377, 9422, -3544, 12841, 5473, 7138, 8226, 2252, -15330, -5933, -15138, -21762, 13185, -1143, -14560, 13536, 7312, 7548, 4485, 555, -13693, 7059, 1591, 2812, 4274, 15313, -7479, -7051, -861, 11536, 8950, -18550, -1199, -54, 10182, 5777, 2984, -23335, -12324, -7558, 16019, -373, 10477, -5275, -19660, -12463, 11258, -13026, -19764, 6958, 10367, -16984, -9294, 11274, -22814, 1511, -3399, -19407, -9341, 6527, -10786, 4859, -12676, -11053, 6415, 12455, -21277, 16981, -15317, -24663, -11683, -6214, 8035, -12552, 8943, -3695, 11546, 2447, -18495, -12077, -15916, 13852, 14688, 11008, 4951, -9293, -3247, -7963, -12449, -12724, -13052, -3481, -10880, -586, -24982, -9124, 9637, 1655, 12799, 8575, -11210, -8061, -4279, -14144, 339, -11530, -1928, -12726, -21625, 173, -12450, -3969, -1655, -21561, -1532, -4237, 8545, 16569, -4552, 5689, 17112, -1767, 4487, -10496, -25836, 2133, -7497, -11622, 6865, 8539, -17347, -18829, -7878, -24520, -20116, -26650, -16670, 14860, 348, 16472, 13348, -19663, -6076, 11588, 2002, 4330, -24418, -13681, 4258, 3083, 3056, -16666, 9677, 12370, 17021, -782, -2662, -7400, 10203, -3981, 13651, 1710, -7214, -12588, -14855, -23168, -8977, -19918, 5104, 4039, -7892, -18227, -9548, -1706, 3041, 324, -9662, -8393, -3864, 218, -6342, -5862, 4041, 81, -15189, -6854, -20788, -3964, 10807, 10981, 1886, -1335, -8719, 12707, -20717, -6258, -26316, 3019, -12765, 4251, 10528, 1005, -10813, -9484, -76, -26083, 10240, 13959, 5148, -4533, -7769, -4382, -12581, -13406, -303, 11831, -8245, 11258, 8247, -6306, 11335, 6247, 15991, -7157, 14542, 12412, -22302, -17742, -5669, -8000, -3085, -6541, 4920, -16386, -10548, -16203, -14698, -8282, -20314, 14270, 780, -2172, -10321, 12853, -24280, 7668, -25787, -524, 2479, -11805, -13983, -2623, -1386, -10221, -2504, -26598, -8074, 1906, 2237, -3466, -10009, -4159, 19206, -20571, -11844, -16967, 13099, -6966, -3446, 7390, 7223, -1997, -7435, 9936, 4727, -10857, 5155, -5846, -73, 80, -12715, -7154, 14127, 8832, 14589, 13598, 12644, -15887, -3027, -13286, 614, -7166, -28904, 6045, -9607, 7514, -5961, -14860, -12882, -1175, -7151, -8086, -18225, 2607, -12844, 8456, 12114, -1194, -9671, -16545, 8977, 15619, -11763, -4457, -23351, -5966, 7236, -8058, -9075, 3918, -5363, 12915, -10997, 418, -13960, -2156, 1564, -4293, 9418, 11830, -25542, -15193, -17994, -14604, 8745, -3063, 5835, 11898, 8694, -7752, -4887, -18269, -25706, 12172, -17288, 6620, 9970, 8639, -8582};

const static dl_matrix3dq_t fc1_weights_0 = {
	.w = 1,
	.h = 1,
	.c = 17,
	.n = 64,
	.stride = 17,
	.exponent = -14,
	.item = (qtp_t *)(& fc1_weights_0_item_array[0])
};

const static qtp_t fc1_biases_0_item_array[] = {-608, 4468, 3130, -2108, -517, 268, 12927, 17120, 1175, -3227, -10155, -4409, -14199, 2245, -10041, -3669, -9692};

const static dl_matrix3dq_t fc1_biases_0 = {
	.w = 1,
	.h = 1,
	.c = 17,
	.n = 1,
	.stride = 17,
	.exponent = -16,
	.item = (qtp_t *)(& fc1_biases_0_item_array[0])
};

