#pragma once
#include "dl_lib_matrix3d.h"
#include "dl_lib_matrix3dq.h"

// please input layer num and stride
const static int dscnn_model_info[5][2] = { {1,1}, {2,2}, {2,2}, {1,1}, {1,1} };
const static qtp_t conv_1_weights_0_item_array[] = {-13408, 1411, 12931, -10661, 4326, 616, 6807, 424, -492, -6770, -4230, 7860, -6837, 6424, 9634, 3716, 9077, -1843, 1831, 12191, 4362, 357, 5648, -3347, -2422, 3590, 3996, 4690, -6462, -11029, 492, -5063, -3352, 2964, 1886, -3386, -6454, 9055, 8259, 8652, 8276, -7738, -11344, 5003, 2921, -4055, -23682, 4242, -5265, 4746, -5757, -8235, 19103, 13399, -1272, -1234, -9601, -8392, 13474, -8475, 2682, -9912, -5079, 7216, -1469, 2407, 4424, 866, 10503, -2145, 2577, 7990};

const static dl_matrix3dq_t conv_1_weights_0 = {
	.w = 3,
	.h = 3,
	.c = 1,
	.n = 8,
	.stride = 3,
	.exponent = -18,
	.item = (qtp_t *)(& conv_1_weights_0_item_array[0])
};

const static qtp_t conv_1_biases_0_item_array[] = {779, 14290, 17221, -13680, 11494, -3606, -14605, 27876};

const static dl_matrix3dq_t conv_1_biases_0 = {
	.w = 1,
	.h = 1,
	.c = 8,
	.n = 1,
	.stride = 8,
	.exponent = -15,
	.item = (qtp_t *)(& conv_1_biases_0_item_array[0])
};

const static qtp_t conv_ds_1_dw_conv_depthwise_weights_0_item_array[] = {-875, 1517, -912, -4276, -7409, 4467, -1709, -22087, 3616, -11788, 16499, 6555, -10293, 4276, -897, 1355, -11700, -4177, -2090, -524, -2056, -3581, 5625, 19757, 7265, 5301, 19, -90, 3156, 1055, 3866, -2801, 1686, -12619, 14826, -959, -14175, 3620, 3930, 3007, -4059, -4114, -1133, 8874, -3479, -7577, 8168, -14040, -536, 6974, 8954, 1061, 7188, 1837, 6777, -5961, 1389, -7486, 7710, 12114, -7176, 7483, -2901, 12531, -4164, -745, 4861, 7565, -6225, -2607, 2341, 7299};

const static dl_matrix3dq_t conv_ds_1_dw_conv_depthwise_weights_0 = {
	.w = 3,
	.h = 3,
	.c = 8,
	.n = 1,
	.stride = 24,
	.exponent = -14,
	.item = (qtp_t *)(& conv_ds_1_dw_conv_depthwise_weights_0_item_array[0])
};

const static qtp_t conv_ds_1_dw_conv_biases_0_item_array[] = {2703, 25934, -28209, -21609, 29212, -3598, -26785, 3112};

const static dl_matrix3dq_t conv_ds_1_dw_conv_biases_0 = {
	.w = 1,
	.h = 1,
	.c = 8,
	.n = 1,
	.stride = 8,
	.exponent = -15,
	.item = (qtp_t *)(& conv_ds_1_dw_conv_biases_0_item_array[0])
};

const static qtp_t conv_ds_1_pw_conv_weights_0_item_array[] = {9393, -11972, 10308, -2937, 4704, 3908, -5369, -2815, 3914, 5787, 7816, -4890, 282, 10407, -5806, 5048, 22993, 7527, 8488, -8668, 16824, -13765, 16998, -17912, 26282, -12062, -11393, 14388, -6709, 11025, -9182, -7718, 695, 7703, -15712, 12206, -12899, 13375, -1133, -17560, -10129, 15072, -5965, 6967, -9209, -697, 1894, -11324, 12353, -3014, 4002, -2933, 6927, 11489, -8754, -7802, -1292, -5782, 1000, -6117, -1015, 4230, -9117, 14308, 26245, 9022, -8914, -28015, 4037, -12336, 9749, 168, 7375, 21464, 11232, -10620, 17311, 3227, -7999, -12615, 5032, -14950, -7459, -754, -1580, 4766, -5923, 17921, 8247, 24397, -14267, -11648, 18306, 854, -788, 812, -3803, 4395, -15481, 16963, -4887, 8035, -10542, -5292, 17602, 13692, 4672, 22889, -21105, -14636, -11260, -64, 3512, -3505, 17778, 4120, -9714, -1545, -5447, -1052, -13994, -7307, -4676, -14662, 13467, 707, -11280, 6512};

const static dl_matrix3dq_t conv_ds_1_pw_conv_weights_0 = {
	.w = 1,
	.h = 1,
	.c = 8,
	.n = 16,
	.stride = 8,
	.exponent = -14,
	.item = (qtp_t *)(& conv_ds_1_pw_conv_weights_0_item_array[0])
};

const static qtp_t conv_ds_1_pw_conv_biases_0_item_array[] = {-1111, -6111, -12375, 5750, 12561, 1423, -1300, 1214, 2275, -13154, 7677, -10624, 4938, -4193, 1184, 16522};

const static dl_matrix3dq_t conv_ds_1_pw_conv_biases_0 = {
	.w = 1,
	.h = 1,
	.c = 16,
	.n = 1,
	.stride = 16,
	.exponent = -14,
	.item = (qtp_t *)(& conv_ds_1_pw_conv_biases_0_item_array[0])
};

const static qtp_t conv_ds_2_dw_conv_depthwise_weights_0_item_array[] = {1750, 4053, 1056, 2054, 2933, 9353, -226, -5501, 4439, 4723, -730, 6447, -8349, 10606, 6751, 2958, 1165, 2331, -1970, 1754, 1707, -8359, -1951, 2868, -8763, -1193, 4973, 6644, 4004, -3542, 4845, -3854, -1731, -1177, -3508, -2997, 3454, -27669, 6152, 4675, 3832, -3419, 2328, 1497, -14112, -8308, 4986, 4433, 4406, 2128, -1206, -163, 1891, 4699, 4247, -4994, 3473, 2450, 3280, 3512, -1890, -500, -1713, -3406, 2421, 6309, -8005, -1019, 1391, -1186, -7765, 1071, -3140, -3958, 1288, 4562, 8317, -6849, -5544, -3795, -2158, -4596, -5347, -2467, 3430, -21510, 3602, 514, 11501, -4994, -3484, -5177, -10392, 383, 377, 10424, 317, -1049, -3012, 870, 1208, -1010, 1533, -793, -125, 342, 1398, -5568, 16737, -4467, -6630, -3196, 2285, 3176, -6503, -3792, 1476, -1588, -6683, 3692, 2978, -3201, -900, -2830, -909, -2077, 5839, -984, -237, 2643, -3147, -1970, 1501, -12083, -3329, -3910, 1804, -1883, -5822, -4874, -4118, -5946, 1326, 561};

const static dl_matrix3dq_t conv_ds_2_dw_conv_depthwise_weights_0 = {
	.w = 3,
	.h = 3,
	.c = 16,
	.n = 1,
	.stride = 48,
	.exponent = -13,
	.item = (qtp_t *)(& conv_ds_2_dw_conv_depthwise_weights_0_item_array[0])
};

const static qtp_t conv_ds_2_dw_conv_biases_0_item_array[] = {-3397, -6802, 30104, 15171, -28601, -21999, -17266, 24475, -16482, 11367, 10499, -171, -14780, 4382, -10785, 14558};

const static dl_matrix3dq_t conv_ds_2_dw_conv_biases_0 = {
	.w = 1,
	.h = 1,
	.c = 16,
	.n = 1,
	.stride = 16,
	.exponent = -15,
	.item = (qtp_t *)(& conv_ds_2_dw_conv_biases_0_item_array[0])
};

const static qtp_t conv_ds_2_pw_conv_weights_0_item_array[] = {-6771, -1321, 2866, -500, 5070, -6760, -3093, -18696, 16627, 20320, -527, 3973, -3476, -7525, 12984, 5388, 8872, -10039, -1176, -9724, 10296, -14638, 69, -2098, -6620, 4967, -9745, 6189, 2372, 5512, 555, -5171, 2973, -11412, -6754, -11767, -7777, -388, 5332, 5028, -1152, -8171, -3584, -5685, -61, -4941, 5592, 1175, -4011, -1822, 4918, -10919, -3336, 7240, 2468, 2343, 654, -10578, -8936, -7913, -6704, -8517, -2500, 1817, -7467, 9801, -12458, -1321, -3702, 6971, -1412, -9950, 11987, 9295, 9456, 3587, 3960, -4494, -863, -13253, -4278, -14544, -21, 5231, -9251, -2368, -7748, -4907, -1020, 4369, -1670, 3044, -805, -3896, -2982, -11847, 11356, -4853, -3243, 4430, 10390, 6797, 6832, -18619, 7080, 11655, 3927, 2473, -2366, -3971, 4010, -5969, 3947, 4046, 18636, 2776, -6152, 5967, 11637, 7456, -14873, -11187, -8505, 1607, -3293, -348, 1965, -3036, 4831, 18875, 10834, -11621, 538, -3631, -10148, 7916, 15269, -17709, -5493, 63, 27, 11676, 1333, -4101, 3419, 631, 6762, 5467, -12587, -7436, -6141, -1644, 736, 7454, -1463, 718, 2718, 4970, -207, 762, -7737, 1214, 4333, -3510, 5633, 932, -1018, 4047, -4842, 5150, 3125, 1316, -4481, 3616, -9283, 11215, -9505, 12732, 13227, 939, -7724, 14341, 2435, -1251, 4853, -1266, 6404, -4355, -1666, 11166, -3878, -9531, -5880, 4512, 4412, -945, 170, 8837, 1710, -460, -5451, 4158, -13641, 2802, -3656, 3933, 11021, 3760, 5123, 2091, -11191, -11131, 3840, -10388, -684, 4680, 6079, -5501, -5941, 8235, 3224, -496, -4832, 9160, -12373, -1845, -3937, 7304, 10540, -3770, 4021, -3152, -5483, -5410, 4579, 2740, 5653, 1899, -130, -14773, 3139, 2566, -190, -2735, 4840, 5319, 3006, 686, 4015, 2894, -5241, -1816, -3666, -3092, -20827, -3070, 12672, -9629, 111, -6096, 11125, 2549, 2184, -5809, -2084, -3474, 5405, -2988, 10909, 6630, -9163, -961, 12146, -14599, 12235, 13397, -10267, -3947, -4350, 194, 3322, -6495, -3815, -4832, -1012, -879, 2285, -3192, -13987, 6977, -4855, -11219, 1887, -2348, -3290, 5672, -3848, 2226, -10502, -513, 2812, 4875, 6574, -5377, -247, 6462, -4900, 308, -9270, 870, 6938, -5923, -12852, -13134, 1924, 7141, -2343, 490, -6192, 1382, 3611, -3541, -4832, -1147, 5797, 1541, -9539, 2450, 4746, 3506, -7031, -1207, -2815, 1594, -9349, 3237, 11970, -9961, -4738, 441, -8704, 1018, 4157, -653, 911, -8549, -9152, 5322, 2688, -6125, 5076, -15860, -6334, 1957, -11832, 190, -8996, -7090, -19176, 3347, -2385, 8017, -10277, 2794, 5245, 4296, -959, 747, 5332, -13213, -5471, 4941, 8978, 2283, -85, -4799, 1109, -5808, 1957, 6767, -15480, 4613, -2214, 8795, 5036, -855, 6536, 1717, -9119, -3111, -223, -12063, 4837, 3974, -2166, 2503, -396, 1553, 3056, -6133, -8686, 5001, -2302, 4278, -7800, -10237, -4416, 300, -7499, -5930, -992, -3766, 237, -334, 3261, -7353, 2469, -6253, -1296, -6020, 11489, -4000, -12804, -1001, 2480, -10913, 11418, 10820, 4563, 6975, 13763, 1607, 7827, -4409, -5516, -2417, 1802, 8025, 3838, -861, 2353, -1846, -3512, 4896, 6535, -900, 8119, 6488, -9472, 5241, -13447, 4974, 341, 7505, -5475, 3351, 8311, -2487, 10828, -5413, 4859, -11154, -6311, 6535, -2453, 12142, 416, 2478, -13238, 8460, -10353, 3939, 5235, 1866, -7640, -8804, 4981, 9678, -4238, 5836, 1905, -3816, 3920, -3360, 9852, 9938, 828, -1235, -6900, 5182, -7808, 675, -4657, -845, 4294, 3046, -5512, -1217, -2014, -1489, -6185, 4690, -12656, 4679, -5366, 570, 7022, -5959, 3239, -2376, -6742, 15363};

const static dl_matrix3dq_t conv_ds_2_pw_conv_weights_0 = {
	.w = 1,
	.h = 1,
	.c = 16,
	.n = 32,
	.stride = 16,
	.exponent = -14,
	.item = (qtp_t *)(& conv_ds_2_pw_conv_weights_0_item_array[0])
};

const static qtp_t conv_ds_2_pw_conv_biases_0_item_array[] = {-4628, 12971, 20383, 19958, -717, 19236, -14166, -2452, -11990, 1128, -5492, -11468, -3800, 2222, 7528, 6819, -600, 2777, 10796, 10028, 4404, 15346, 15968, 875, 3689, 22082, -8199, -12738, -6641, -761, -289, 4137};

const static dl_matrix3dq_t conv_ds_2_pw_conv_biases_0 = {
	.w = 1,
	.h = 1,
	.c = 32,
	.n = 1,
	.stride = 32,
	.exponent = -14,
	.item = (qtp_t *)(& conv_ds_2_pw_conv_biases_0_item_array[0])
};

const static qtp_t conv_ds_3_dw_conv_depthwise_weights_0_item_array[] = {-4018, 750, 2652, 1457, 1816, 2851, -4330, -2636, 376, 2205, 2486, -4762, 3282, -823, -4604, 1530, 1454, -2121, 364, -1746, -3973, 2730, 903, 4327, 1675, -7007, 770, -990, 1484, -1597, -2323, 4018, -1670, 1119, -2786, -1254, -7010, -9738, 4242, -503, -6253, 2667, 2881, -2431, -1779, -5613, -6926, 1845, 4073, -545, -3132, 1538, 1178, 3294, -4358, 3865, -1832, 298, 2734, -707, -1634, -3158, -3299, -2811, 1138, -5156, -2991, 8460, -3371, 7223, 1776, 6521, -1096, 8640, 376, 2726, 3027, 2017, -849, -1486, -7543, -3716, -3801, -829, -18165, 7154, -3231, -359, -12241, 153, 2169, -3127, 1026, 3148, 435, -2653, -2577, -3321, 1407, 2044, 2388, -1402, 687, 6789, -198, 3899, -3579, 795, 775, -2180, 3527, -6366, -1740, 1160, -1060, 1754, -2764, 3152, 3512, -2375, -12025, 2464, 1456, -2188, 212, -3131, 1609, 1582, -2270, 770, -80, 666, -2403, -2214, 434, -3630, -1444, -1994, -831, -1752, -1216, -71, 1379, 1078, 1098, 1700, -2468, 1117, 1404, -1648, -263, 87, -4688, -1963, 2041, -1848, -1179, 897, -985, 5010, -2992, -5821, -4221, -14002, -1950, -453, -3158, -5511, -1962, 2731, -865, 4349, -2593, -7097, -2261, 4921, 2103, -4782, -1839, 5657, -6850, 4527, 855, 3123, 5007, 2939, 1834, -2372, -6224, -574, -1698, 1514, -383, -751, 185, 2236, 580, 999, -21, 1489, -63, -5471, -1839, 291, -566, -1466, -2020, -2907, -925, -177, 1835, 1744, 5499, 1790, 2448, -3467, -1088, 2018, 1777, -1187, -1234, -1669, -167, -178, -357, 582, -235, -1270, -1626, 7686, 1908, 933, 456, 2772, 2516, 610, -1480, -1858, 6518, -6760, -92, 1872, -2344, -1553, 3002, -2862, 645, -4022, -118, 1784, 1559, -3738, -5177, -52, -1949, -1028, -641, 1761, -1762, -6299, -330, -2436, 4526, 2042, -2128, -5333, 2610, 1221, -3805, -1936, 1822, 445, -1530, -119, -2825, 3687, -9622, 525, -4636, 6794, 156, 3328, -635, -2815, 4265, 667, -3865, -1876};

const static dl_matrix3dq_t conv_ds_3_dw_conv_depthwise_weights_0 = {
	.w = 3,
	.h = 3,
	.c = 32,
	.n = 1,
	.stride = 96,
	.exponent = -12,
	.item = (qtp_t *)(& conv_ds_3_dw_conv_depthwise_weights_0_item_array[0])
};

const static qtp_t conv_ds_3_dw_conv_biases_0_item_array[] = {11101, 5117, 2698, -1960, 20445, -1266, -4319, 1466, 12642, -15519, -1632, -506, 1812, 21107, 2530, 12346, -4992, 7221, 12030, -16473, -4693, -7204, 4261, 2861, 18378, -9176, -18075, 12626, 8295, 11171, 14642, -9439};

const static dl_matrix3dq_t conv_ds_3_dw_conv_biases_0 = {
	.w = 1,
	.h = 1,
	.c = 32,
	.n = 1,
	.stride = 32,
	.exponent = -14,
	.item = (qtp_t *)(& conv_ds_3_dw_conv_biases_0_item_array[0])
};

const static qtp_t conv_ds_3_pw_conv_weights_0_item_array[] = {5387, -4410, -1724, -4289, -1447, -7827, -2541, -2706, 8997, 12291, 1204, -6001, -1295, 3728, -8084, 4012, 4091, -1530, 4501, 3763, -4436, 4166, 2753, -4524, 6626, -4181, -1153, 6406, -12713, 6198, -9071, -5290, 10734, -7138, -5820, 7672, -1655, 7892, -5816, -1314, 13085, -16705, 1798, 5612, 3769, 1540, -2164, 626, 9003, -11028, -3455, -5578, -4364, -17, -2562, -2409, -9096, -1930, -1460, -9976, -6277, 7829, 1684, 4865, -9761, 4195, -7529, 3899, -12133, 4016, 6301, -7432, -323, -1147, -1136, -7678, -2501, -1731, 7115, 1021, -1593, 11879, -2010, -1262, 5964, 6364, 3864, -2622, 6165, -1451, 6118, 493, 7818, -6302, 6198, 5372, 13972, 514, 11938, -3740, 3648, -7802, -404, -4349, 10587, 556, -4700, 3321, 3124, 7737, -746, -4101, -6882, -23328, 9386, 12089, -3845, -8381, 4220, -2136, 4663, -7460, 8583, 6206, -17913, -10620, -14868, -7518, -1892, 2356, -8339, 1161, 6571, 4235, -10235, 4606, 4175, 291, -4359, 945, -9072, -71, 989, -4599, -1066, -719, 2255, 2172, -1110, -289, 2671, -1543, 2847, 478, 2879, 5161, -4374, -3903, 3600, 2216, -4151, 2042, 8181, 1956, 504, 1838, -4952, 2614, -2606, -4879, 1442, -4584, -2567, 379, 461, -10893, 2869, -2670, -3876, 2815, -6640, 1493, 4508, -8290, -7533, -6695, -2886, -3028, -2137, -6369, -8901, -2637, -6285, -108, 7249, 2951, 6115, -5969, -3286, -7580, 5544, -355, -12816, 8589, 8219, -743, 2741, -7494, -1134, -6203, 132, 4031, 24, -795, -6683, 2208, -1868, -3844, -8519, -7231, -2435, 6121, 2128, -2249, -574, -1269, -8255, -2369, 1407, 2101, -593, 1448, -3963, -6737, -1643, 1878, 6996, 5803, 5775, 1212, -265, -1618, -3930, 1380, -638, 3992, -4781, 1611, 4036, 10186, 2969, -8884, -1130, 2842, 4018, -5774, 950, 2038, -10758, 6050, -5613, 1287, -5647, 4879, 5630, -123, 3304, 3828, -8052, -1358, 5566, 609, -20, -7493, -2369, 1365, -3151, 3314, -10471, -547, 5780, -5929, 552, 2047, -3814, 2141, -4396, 2871, -2191, 1418, -596, 2654, -5374, 2191, 102, -13610, 263, 3667, -2278, 2636, 1550, -3494, 4801, -8017, -1043, 8559, -5717, -4185, 4348, -3820, 5628, 7114, 5041, 701, 1042, -2257, 708, 604, 5465, -3061, -1676, 3292, -4225, 11508, 666, 5997, -4566, 3047, 2919, -2197, 2659, -1832, 4259, 1124, 2169, 5774, 6324, 7997, 14983, -3462, 1825, 16297, -1888, -165, -5459, 12799, -3642, -1858, 1914, 4577, -9182, 3702, -2322, -2935, 8945, 2785, 2853, 5498, 2250, -1855, 11070, -2044, 8929, -10734, 5747, 11723, -4151, -2797, -2818, 5424, 2761, 17732, -6090, -2017, 518, -2233, 3501, 5996, -2459, 3738, -13604, -555, 1080, -241, 8266, 6038, -3094, 4340, 1230, -3020, -2888, 999, 1852, 5756, -6503, -7179, -4521, 4789, -8997, -9176, 3773, -1031, 15747, -3049, 3706, 3195, 1521, -4808, 12229, -5383, -1125, 1304, 8807, 6964, -3105, -9240, 11502, 5309, -23415, 2867, -14112, -2988, 6251, -1784, 3830, 1950, -5826, -7757, 6142, 2759, 2433, -2895, 5636, -4300, -2420, -4833, -1082, -3832, -11189, 1049, -5471, 6177, 3550, 11493, -410, -6895, 5646, -4486, 6809, 8644, -7144, 607, -2025, -6956, 2600, -5186, -12199, -10594, -2379, -1987, -529, 482, -5822, -11794, -12042, 2135, 7407, 2059, 6538, 1754, 7503, 1362, -7782, 3835, 7102, -4583, -11280, -5775, 8718, -2227, 4425, -5941, 8714, -6932, -5830, 4844, -3099, 4875, 2021, 2085, 719, -2453, -10487, 5080, -1717, -7346, -13082, 4884, 4991, -1139, -8202, 269, 4667, 566, 7909, -1110, -836, -12431, -226, 4977, -6951, 2156, 2040, 1328, 8287, 1925, 5285, 3530, -3255, 2589, 4205, -2752, -5591, 8987, 2916, 3393, -387, 6488, -1405, -7352, -4148, -3170, -4986, 368, -17748, 3557, 3287, -11497, -5688, -2302, -6455, 719, 4509, -6176, 1964, 970, 4452, 385, 974, 3415, -3818, -837, 6553, -5125, -2022, -6908, -1891, 6493, -8241, -8572, -3851, 6374, 3237, -4131, 4876, -604, 814, -2599, -387, -6068, 3339, -395, 101, 3755, -4302, -195, 1304, -2982, 1880, 1773, 6645, -12526, -477, -2459, 5054, -1485, -5190, 5449, -7016, 3143, 927, -130, 3526, -5293, 3612, -2177, 2239, 3167, 319, -6657, 1134, 6253, 570, -3717, -1834, 12509, 2513, -7695, 3012, -9325, -1516, 7195, 7704, 3563, -2357, -5275, -6214, 6549, 9365, 6858, 3598, 161, -647, 6020, 10043, 16477, -5508, 3784, -6931, 178, -3921, -5768, -4963, 4820, -3265, -4160, 16759, -67, -11398, 11251, -8550, -7543, 3381, 733, 6187, 84, -1484, 15324, 2296, 998, -2398, 8245, -4576, -5385, 9267, 1532, -15402, 892, -8036, 4154, 2395, -6903, -5475, 4082, 4227, 9332, 1422, -5439, 6054, 1000, 8054, -1588, 4182, 2598, 8975, -9778, -3378, 3749, -4803, -1215, 1331, -12480, 7948, -743, -6344, -1742, -8550, -4158, 4883, 1143, 5648, 2089, -4005, 1145, -4170, 3725, 3548, 3372, -4080, -2081, -6308, -3609, 7565, -1041, 1415, 12195, 638, -1878, 5235, -5757, 976, -2536, 3494, -5984, -5599, -2636, 3284, 919, -1407, -5007, 1227, -5742, 5913, -4730, -7012, -5973, 459, -10645, 5318, 10244, -2933, -2170, -5459, 3794, 8852, -372, -79, 4349, 899, -6602, -8630, -4774, -39, -1804, -1409, -85, 6231, 1227, -725, 4291, 4683, -9918, 2966, 3966, -10459, 4290, -1952, -3298, 2517, -7810, 1902, 9834, -8014, 3247, -3441, -12763, 6800, 1835, 8207, 6686, 2984, 11185, 1519, 7373, -5582, 1158, 13401, -1927, 2641, 3925, -5871, 2514, 7015, -3341, 4245, -1837, 7476, -2678, -6293, 1267, 91, -6943, -11034, -432, 7815, 9157, 3365, 9210, -5756, 2263, -1920, 1551, -1022, 9812, -5277, -3824, 420, -9309, -6470, 4110, 2856, -12933, 1419, 3231, 4384, -2987, 3294, 7159, -2264, -514, 127, 5735, 5962, -9973, -11089, 13777, -2732, -5672, -392, 1726, 764, -13108, -6418, 7887, -8002, 4456, 4415, -8065, -5388, 1508, 8834, -2237, -10023, 408, -3104, -1137, 2535, 64, 272, 4446, -233, 4541, -257, -3584, -2292, -4495, 2400, 1994, -6950, -1041, -3093, -3571, 3064, -2613, -3361, -1574, 2398, -9700, -6198, 2114, -6617, -7541, 3816, -2964, -4995, 4758, 1845, 6026, 4510, -7295, 702, -73, 10446, 2486, -2789, 4019, -3711, 4105, 7188, -8770, -9610, 8396, 1394, -5085, -4906, -1516, 505, -6587, -2616, 645, -3463, 1056, -586, 1781, -2790, -719, -10918, -10391, 2870, -4180, -537, -1828, -3027, -1885, 1399, -1005, 828, 2570, -4182, 5113, 7705, 1628, 2568, -3597, 1563, -6804, 1210, -19739, -12369, 2523, -652, -221, -1607, -396, 22, -4763, 1824, -3052, -650, 1917, -5906, -1596, 6898, 792, -15966, 3069, 2521, 980, -5194, 1844, 2081, 854, 3207, 9234, -1788, 6079, 2492, 9411, -5670, 343, -2626, -12666, 5857, -8546, -4298, 7625, 1763, 4013, -1688, 1549, -980, 6240, 438, -3879, 3648, 2361, -11652, 1005, -3233, 2149, 1051, -4067, 6190, 3243, -6397, 2384, -1905, 6440, -1284, -3692, -2017, -898, -10413, 7720, 12511, -3137, 3037, -1916, -3562, -3009, -1112, 4275, -1628, -4393, 11963, -12666, -1567, 800, 2843, -10681, -11270, -1370, -5838, 1315, -3907, -2478, 6411, -5996, -2741, -3478, 4010, 10418, 144, -9636, -1584, 10423, -6432, -960, -9082, -3760, -2754, -3119, 4528, -5049, 6203, 6412, 7991, 9289, 5619, 4133, -2905, 3167, -2759, 2168, -9075, 3155, 3560, 2751, 13239, 4008, -2449, -9758, 3069, 15785, 10913, -7674, -1195, 267, -3512, -4014, 6833, 5120, -4834, 1689, 137, 3167, -890, -2637, -4831, -4515, -2942, 3462, 1899, 1309, 2071, 531, 2913, -5947, -2439, -705, 144, 4334, -1413, -1184, 3499, 7755, -7023, -1385, 855, -8926, 3113, -10800, 8771, -13202, -3638, 299, -8784, 7817, -682, 3513, 8423, -1276, 1560, -2517, 6662, 1052, -14836, -9312, 11118, 6111, -2406, 1160, -7562, -7072, -8231, -11800, -2233, -2908, -5562, 2916, -172, 1156, 2306, 2793, 2381, -1291, -12666, -6335, 640, 3510, 317, -1587, 4283, -2120, -1811, -5006, 2287, 7333, 3093, 4419, -7134, -1298, 1201, -3637, -4555, -2043, -3671, 3553, 2947, 3927, -2217, -1528, -1602, 21929, -5499, 809, -4908, 6761, -1397, -7028, -97, 1245, 3040, 3659, 3323, 13157, -4697, -890, -6651, 29, 3590, 5122, 2609, 6404, 9699, -4597, 1316, 5279, 6805, -3735, -10310, 145, -1055, -5086, -8968, 2690, 3972, 2180, -2686, -13305, -3447, -201, 294, 1374, -13408, 185, -3918, -600, -652, -2617, 4628, 6663, 4354, 2318, -2306, 3972, 2265, -1365, -4175, -2432, -899, 3222, -8397, -190, -451, 55, -10698, 554, -8128, 5569, -12792, 7405, 3518, -3463, 494, 3782, -6930, 6784, 6812, 1109, -2925, 14, -1796, 6395, -6633, 2557, -9255, 3252, 287, -2546, 2267, 1220, -4070, 8858, -6337, -1183, -2724, -5084, -2410, -1209, 5990, -5762, -5326, 3616, 4263, -830, 5579, 3403, 8477, 3985, -5167, 816, 1666, 4459, 4388, -15570, 581, 748, 5666, -1245, 7756, -7535, 4738, -1317, -4261, 773, -4594, 9677, 5429, -3300, 3471, -13578, 1413, -2308, 1948, -10109, 82, -7872, 5349, -1410, -3884, -8480, 4185, 6367, 4065, -8024, 5673, -4038, -15477, 3770, 2642, 2146, 554, 3481, -5414, -2926, -7939, 5161, -2518, 2568, 12598, -13645, 16800, 1193, -762, -1236, -7554, -7039, 232, -1328, -12742, 2895, 6359, -381, 9786, 778, -826, -7579, -1532, -3426, -1488, -1140, 398, -6926, -55, 3675, -2731, 15670, -7455, -2631, -7570, -8019, 16557, 1051, -9372, -495, -4468, -1685, -1538, 397, -4430, 547, -8409, -5085, -421, 5973, 2871, -8307, -3634, 81, 5449, -9345, -6642, 1154, 3878, 2712, -2626, -2462, 1931, -1735, -4995, 328, 2684, 337, -10748, 3211, -792, 2486, -6066, 165, 3672, 570, -601, -6838, -2747, -2406, -1679, -5903, 5507, -8565, -1714, -2305, -1506, -193, -4503, -840, 1830, -7215, -1067, -2536, 6214, 8198, 556, 176, 506, 2907, -3512, -4268, -4956, 8203, 2606, -9036, 2350, 8514, -4307, -5305, 5174, -4339, 2743, -4162, 7238, 5531, 4486, 5410, 1936, 8557, 4334, 4327, 1137, 682, -17420, 2595, 4097, 994, -9488, -8426, -10500, -1239, 10341, -1381, 11943, -759, -2836, 845, -276, 415, -3472, 1465, 3517, 3679, -324, -795, -5331, -14615, -164, -6469, 139, -6120, 2108, -7311, -2831, -5834, -1317, 428, -2812, 2931, -10042, -1627, -2498, 6390, 3331, 2978, -4932, -2965, 4664, -2709, 3652, 5133, -1415, -1275, 4122, -5624, 524, -365, -4062, 232, 4964, -4520, -5536, 6504, 3950, -4384, 5416, -3290, 4201, 1326, 7901, -5450, 1409, -2688, -870, -9630, -2225, -192, -3726, -13236, -1327, -467, -7933, 3330, -7897, -981, 2325, 1004, -8219, 1166, -4818, 3637, -1540, -3480, 5258, 3914, 3560, 941, -6306, 2020, -5029, 246, 966, 5210, -2759, 3154, -8231, -906, 5438, 4035, -4218, -5983, -5123, 34, 6561, 2486, 2389, -290, 1165, -2322, 4337, 2769, -1128, 7257, 6965, -1809, 7864, -12637, -3064, -893, 5500, -4295, 2579, -5478, -7931, 3749, -1347, -2148, -1025, 3320, 659, -1121, 1269, 1182, -5973, -1515, 195, 528, -6822, -238, 1342, 985, -5479, -1205, -5745, 6776, 3375, 1862, 2816, -3705, 4747, 6118, -3021, 8, -3040, -2549, 3785, 4418, -2227, -692, 2129, 4118, 3589, -10079, 668, -3983, -6259, -6590, -1769, 3220, 1073, -26, 1586, -1672, 187, -299, 2163, 146, -5434, -2137, -10355, 1074, 1045, 2203, -6356, -5320, -14404, -738, 352, 8534, -1647, -3509, 3811, -3215, 6, -4521, -1525, -7246, -8383, 3868, 3164, 5952, -4476, -2301, 4639, 54, 3663, -2247, 5343, 4721, 4515, 4749, 2885, -2442, -5351, 3310, 1042, 3823, 1295, 1536, 2606, 5230, 4966, 1728, 2012, 2368, -2257, -7822, -3073, 2397, 3345, 1667, -70, -4809, -1630, 7539, 380, -930, 5001, 6419, 3368, 11257, -6744, 1108, -1669, 5695, 2655, 16226, -415, -1436, -2807, -1849, 391, 7117, -595, 2423, 2694, -2947, -10233, 3613, 3139, -4533, -2338, 3719, 594, -4881, -10216, -1125, 3738, -7631, -1012, 4329, 7225, 745, -1173, 2105, -4737, -4549, -1908, 4600, -3017, -5538, 1457, -1260, -2224, -922, -2532, -2237, -6174, 1660, -2508, 274, 1155, -10147, 7153, -10192, -3377, -9822, 421, -2293, -14089, -3114, -12873, 3767, 376, -6639, -885, 209, 2029, 3735, 136, -8073, 5513, -6726, -1537, -2618, -4517, -2367, -1891, -7328, 3516, 4627, -1044, 1174, -575, -11881, -840, 3354, -4713, -4169, 3115, -2183, -674, 8252, -7525, -1683, -3427, -812, 6649, 183, -4015, 1015, 3593, 5486, -2723, -1908, 2485, -8454, 3079, -3451, 4308, 4166, -1173, -5329, -6741, -5905, 3121, 3471, -4336, -8055, -5343, 2968, 312, 6297, -2924, -6142, 4693, 2945, 880, -1646, 1337, -2523, 5176, 747, 7844, 2476, 363, 8716, -1573, 2137, 11084, 6967, -2303, 7725, 6202, 919, 2124, -599, 11858, -19209, -9728, -2533, -14102, 5801, 2392, 4489, 9848, -5479, -4766, -2741, 410, -23023, 1480, 1106, -3128, -12360, 1338, -8081, -3924, -1699, -7643, 4136, 2926, -1070, 892, 3321, -49, -2107, -3240, -5006, -7695, 4916, 4547, -9664, -10205, 5500, -3352, 1856, 6166, -8951, 6912, -3808, 522, 1320, 5415, -6120, 3808, -773, 7493, -4770, 860, -2086, -15648, 1052, -4315, -4893, -2744, -11583, 4580, 10561, -6122, -1029, -6411, 11472, 5094, 770, -8168, 3814, -3027, 789, -4412, -13861, 5293, -3942, -3449, -4797, -792, 2250, -6221, -438, -10130, -1764, 5663, -4586, -1091, -3821, 6237, 3318, -1861, -5577, 3236, 2733, 4306, 3820, -2153, 840, -2603, -833, 2231, 5654, -97, -270, 2721, -13813, 4429, -3188, -2416, -8044, 2514, 5468, -451, 5536, 4359, -37, 5883, -5898, -38, -3850, 5600, -1813, 1041, -1014, -4240, -6751, -616, -545, 11002, -2762, 3471, -3647, -2645, -4145, -571, -3382, 5580, -7259, -6364, 5779, -6681, -8374, 2779, -2453, -8161, -9744, 2010, 4443, 2564, -2656, -7910, -648, -2358, 7875, 5066, 4578, -1303, 2264, -2287, -5042, 3461, -1751, -12646, 7246, -2735, -2405, -3723, -857, 5430, 3062, 4612, 6864, 13277, 6239, 8467, 10769, 4893, -16259, -4680, 6796, 1261, 5764, 3335, 420, -5197, -2908, -81, 628, 2110, 1420, 8225, 2461, -3884, 12464, -4132, 1337, -1089, -2570, 609, 910, 2307, -14077, 3899, -12189, 4308, -3846, 3521, 1272, -2262, 10772, -13599, 5206, -2747, -3187, 1781, -5764, 763, -947, -1764, -446, -6723, -13367, 8414, -1258};

const static dl_matrix3dq_t conv_ds_3_pw_conv_weights_0 = {
	.w = 1,
	.h = 1,
	.c = 32,
	.n = 64,
	.stride = 32,
	.exponent = -14,
	.item = (qtp_t *)(& conv_ds_3_pw_conv_weights_0_item_array[0])
};

const static qtp_t conv_ds_3_pw_conv_biases_0_item_array[] = {-204, 130, -3125, 4361, 835, 11646, 1160, -5048, 1567, -1388, -18265, -13106, -5408, 3892, 5972, 1948, 1176, -127, -5822, -9453, -2608, 721, -669, 1827, -14004, 1309, 2244, 6179, 12231, -1813, 4611, 6929, -13055, -1152, 7992, -274, -11352, -1057, 3569, -5176, 7036, -1063, 10825, 4721, -4434, 6750, 2084, 3118, 9, 340, 11814, -7300, -9259, 4722, 13185, 5597, -11237, 15735, 3910, 4378, 3016, 4949, -11139, 3015};

const static dl_matrix3dq_t conv_ds_3_pw_conv_biases_0 = {
	.w = 1,
	.h = 1,
	.c = 64,
	.n = 1,
	.stride = 64,
	.exponent = -13,
	.item = (qtp_t *)(& conv_ds_3_pw_conv_biases_0_item_array[0])
};

const static qtp_t conv_ds_4_dw_conv_depthwise_weights_0_item_array[] = {1423, -49, -1345, 798, 3821, 3167, 4604, 2454, 4221, 2928, -3414, -310, 3263, -2614, -1080, 2791, -6500, 8186, 3733, 758, 2247, 1873, 3015, 699, 1296, -4804, 2499, 3357, 547, 2814, 2303, 1346, -2373, 1420, -3777, -7411, 1581, 4835, -5175, -1402, 3684, -1852, 2405, 2737, 3052, -652, 4145, 3901, 121, 1375, 2532, -2037, -1524, -3775, 2465, -1271, -92, -1704, 1846, -1350, 2309, -103, -3425, 6025, -1152, -4669, -1725, -984, -1598, 3872, 3182, 2263, 3888, 2600, -1271, -1700, 2938, -1999, -624, 1596, 1684, 1551, 3418, -2806, 2100, 3479, 2988, -4090, 1208, -3496, 3087, 3219, 1374, 2060, 2315, 1162, -884, -6897, -4350, -5568, -3792, 5614, -53, -1306, 2173, -1364, 2709, 2441, 2934, 2494, 2126, 1696, -91, 1341, 2375, -878, -1632, -1744, 2998, -2237, -2885, 974, -1228, 2100, 1434, -4033, -1627, 3169, 6257, -2831, 1386, -3175, -5287, 2912, 2808, 17649, 1162, 2432, 619, -2418, 2630, -9864, -1112, 294, -3012, 1347, 4158, 2291, 1533, 2621, 4054, -6515, -1713, -2182, 1483, 3149, 4380, 792, 631, -380, 6924, -9604, -91, -3756, 1923, 3819, -2844, -7070, 2971, -15087, -15309, 2454, 3204, -6824, 2218, 3726, 4556, 3195, 2612, 5045, -2530, 929, 3868, -3293, -1193, -3698, -8415, 3811, 1036, -5297, -2206, 2886, 106, -59, 638, -1300, 3436, 5222, 4900, 1481, 2346, 2799, -339, -3261, 4495, -4394, -1239, 3879, 2437, 2219, 2120, 1114, 1274, 2157, 3291, 351, 1048, -310, 3740, 1800, 1628, 2389, 1555, 3676, 328, 1189, -2321, -7968, 1473, 162, -1743, -1269, 2927, -996, 321, 1470, 2235, -3801, 2898, 2285, -1470, 2684, 2325, -4970, -2244, 6367, 2699, -842, 299, -185, 1005, -1798, 1305, 120, -1476, 1155, 657, -6247, -1934, -4096, -756, 2612, 2104, 1643, 2560, 2237, -3611, -3249, 2936, -1309, -1767, 3604, -9090, 3890, 1091, -1902, 1657, 2516, 3116, -2568, 664, -3071, 3076, 505, 3471, 2912, 1497, -4977, -3511, -1551, -2358, -3045, -2474, 2399, 346, -2173, 3003, -2325, 285, 3174, 2177, 3014, 3702, 2578, -6304, 1934, 1465, -3673, -2151, -7131, 2080, -3197, -3332, 1374, -1568, 627, 2362, -2550, -741, 3235, 6433, -4264, 1574, -1457, 1449, 2325, 2896, 7040, 2158, 3061, -352, -2045, 2362, 2632, -1934, 3376, 2287, 3475, 6009, 1379, 1460, -7958, 3467, -6602, -3902, -1925, 3643, 673, 547, 1934, 1470, -635, 5860, -12153, -686, -3235, 1638, 2870, -9126, -720, 2942, 180, -17849, 3419, 2492, -5669, 3987, 3998, 6483, 3684, 620, 11088, -3785, 1726, 1047, -2337, 371, -1003, 40, 597, 1828, -1119, -751, -83, -5735, -644, -193, -6983, 5143, 8014, 3548, 3436, 3605, 1694, -295, -3879, 4623, -189, -3300, 3852, -3267, 5134, 2479, 1027, 2163, 1315, 3937, 783, 335, -1736, 2304, 2239, 3452, 2537, 2538, 2421, -4805, 2141, -1922, 181, 836, -5247, -2547, -2697, 812, -913, 1855, 2114, 2520, -4543, 2040, 644, 867, 1686, 2130, -938, -886, 1756, 1343, -4528, -116, -4629, 891, -755, 1016, 120, -3477, 5122, 804, -527, -2512, -2555, -3741, 127, 2686, 3439, 4470, 1551, -2497, -4143, 2764, 94, -3433, 3017, 728, 4520, 2047, -3171, 2080, 1036, 3200, -3346, 607, -781, 2278, 3109, 1744, 2794, 2360, -3136, -492, 1620, -1125, -1797, -2357, 3162, -253, -2488, 1922, -664, 1823, 2318, 3084, 2380, 311, 4060, -308, 1995, 3115, -2126, -1024, -4059, 2713, -1951, -2647, 1186, -3837, 2306, 1207, -1180, -2049, 3059, 7657, -2252, 1060, 775, 2074, 1049, 2693, 10672, -3122, 2530, -1113, -2468, 2749, -6042, -3425, 2656, -453, 4802, 5415, 331, 1366, -12443, 2246, -816, -3226, -1520, 2869, 2715, 2173, 7209, 3114, 400, 9047, -10738, -5863, -1454, 3489, 2938, -1592, -6414, 1769, -6023, -29431, 916, 4700, -5239, -127, 4243, 11617, 2733, 4626, 6871, -1607, 2272, 3701, -2150, 529, -6647, -3044, 2561, 2474, -1240, -2239, 4287};

const static dl_matrix3dq_t conv_ds_4_dw_conv_depthwise_weights_0 = {
	.w = 3,
	.h = 3,
	.c = 64,
	.n = 1,
	.stride = 192,
	.exponent = -12,
	.item = (qtp_t *)(& conv_ds_4_dw_conv_depthwise_weights_0_item_array[0])
};

const static qtp_t conv_ds_4_dw_conv_biases_0_item_array[] = {-2255, 9266, 1177, 10940, -2813, -18213, -12173, -18970, -15094, -15272, 10895, 9995, -19187, 7366, 14309, -15137, -110, -30218, -16863, 812, -14824, -9592, -19691, 4753, -191, 16557, -17131, -23811, -27507, -20212, -21414, -798, 4602, 1675, 8370, 13049, 698, -4433, 8962, 14979, -22961, 12893, -9722, -6272, -21174, -519, -23225, -15929, 1620, -17667, -30064, 15899, 21099, -585, -23106, 17152, 8697, -165, 9767, -13944, -14917, 8566, 12803, -14758};

const static dl_matrix3dq_t conv_ds_4_dw_conv_biases_0 = {
	.w = 1,
	.h = 1,
	.c = 64,
	.n = 1,
	.stride = 64,
	.exponent = -14,
	.item = (qtp_t *)(& conv_ds_4_dw_conv_biases_0_item_array[0])
};

const static qtp_t conv_ds_4_pw_conv_weights_0_item_array[] = {-5995, 2737, -4034, -6078, -4552, 1338, -328, -3578, 4403, -4632, -4430, -4398, 1199, -10315, -7262, -1255, -319, -5427, -1649, 1934, -4731, -2726, -887, -4242, 7728, -1839, 7979, 235, -370, 3990, 3935, -2461, 4753, -1432, -691, 6905, 5062, 3962, 11937, -1256, -425, -940, 2458, 5448, 4059, 5056, 2357, -677, 838, -2534, -2383, 1474, -4912, -2047, 2022, 6386, 9587, -5599, -2823, 5069, -2466, 688, 2375, -5906, 1413, -6191, -3145, -2617, 2395, 2870, -641, 481, -167, -2131, 260, -6077, -1502, -4710, -62, 3418, 12531, -7459, 3600, 2323, -4838, 1910, -3344, 4316, -1184, 1233, 3761, 1932, 4080, 8440, -1468, 663, 8223, 4955, -5575, -2248, -5913, -1571, 7330, -4324, 189, -6009, -5335, 4927, -1390, -406, 5309, 4497, -11804, -2282, -1553, 2705, 3273, -8078, 5428, -1006, -12958, 3499, -1421, 2897, -2267, 8862, -7556, -3508, -1269, 2839, -3448, -1024, -7293, -1487, 3834, 4957, -3722, -957, 4029, 5506, 1736, 14490, -1082, -1769, -19656, 9994, -7590, -8361, -3106, 3019, -986, 10839, 2605, -1994, 447, -2119, -6570, 629, 4714, 685, -602, 7555, -9068, 12453, -3929, 3264, -8885, 3994, 1211, -5874, 4471, -3085, -306, 2940, 308, 934, 14362, 2244, -437, -4491, 3579, -8900, -6435, -3278, -5158, 80, -11546, -767, 2997, -8009, -1146, 1553, 2870, 4785, -3201, -1611, -1362, -2720, 3987, 5710, -2121, 2948, -5822, 8540, 4364, -4529, -3614, -1283, -10071, 4095, -3922, -2425, 716, -1806, -604, 16538, -13365, 3877, -4840, -2980, -3924, 3106, -1154, 2412, -3108, 3269, 7465, -3889, 2521, 674, -9347, 1232, -365, -6026, 7401, -6184, 5282, 2999, 308, -2272, 2693, 1034, -5615, -654, -3177, -2679, -2271, -3804, 2075, -5948, 717, 4732, 2061, -17088, 503, -1847, 2400, -4374, 298, 7768, 8720, -3088, 1649, 1334, 2063, 1658, 268, -7522, -916, -1454, -2620, 1791, 4546, 2247, -968, 4045, 1463, -859, -6799, -18469, -4729, 2576, -585, -631, -60, -5152, 891, 1114, -8808, 990, -1621, -19, -580, 63, 2863, -4565, 1345, 4042, 1741, 128, -462, -8040, -1479, 2638, 11486, -518, 1692, 3265, -864, 7151, -2553, 1982, 6604, -3366, 2658, -1663, -1633, 69, 3717, -2947, 2934, 3697, -2054, -2729, 4626, 2966, -3709, 1942, -1512, -4764, -8498, 2973, -2064, 2665, -4385, -3679, 8373, 6558, -5243, -771, -519, 1944, -1563, -16159, 2022, 5401, 795, -257, -1105, 1127, 2980, 5691, -9540, 7375, -2848, 7898, -160, -662, 601, -2563, 2381, 3640, -3636, -1981, 2811, 2370, -2202, 2492, 11085, 4425, -2794, 10599, -2157, 2836, 562, -276, -1689, -3829, -4516, 2309, 2385, 2931, 937, -2529, -2217, 1344, -8681, -10011, -6226, 3876, -1751, 4931, -1292, 3343, 6590, -9752, 2668, 9449, 2928, 4164, -6605, -5396, 3441, -7818, -2661, -549, -116, 3672, 3415, -604, 1961, 3036, -1948, 3704, -1023, -4369, 7323, 2708, -8896, -2178, 886, -518, 7039, 3338, -716, -8501, 466, 2667, -3931, 7064, -51, -490, 4752, -3738, 17, -6672, 2679, -3433, -1524, 3990, -13193, 7690, -4174, 1092, 1428, 9171, 1185, -1930, -5206, -3720, -3369, 2547, -1027, -1502, 154, 2079, 583, 1840, 2577, 3436, -2687, -1937, -6795, -2240, 13445, 822, 5225, -2554, -777, -2782, -3905, -205, 897, 2084, 1379, -328, -1404, 6698, 433, 233, -189, 2394, -2133, 9448, 4870, -74, 5095, -8502, -2440, -731, -1585, 469, 3929, 2393, 195, -805, 9312, -4718, 4251, 3376, -2124, 9920, -5598, -3688, -7493, -4187, 181, 456, -8645, 3897, 4915, -3275, -1411, 8619, -3531, 5986, 1298, -338, 5272, 4816, -1795, 3464, 1265, 4383, -5026, -954, 4761, 5543, 5863, -2446, 580, -4660, -4254, 649, 3306, 4061, 3296, -4534, -1569, 1179, -3634, 471, -1391, 2316, 1384, 2297, 4996, -2972, -1162, -1453, -4815, 3145, 4858, -4432, 2129, -3539, -4015, -1190, 309, -4774, 4902, -2752, -1149, 959, -8628, -547, -4109, 1308, -8315, 3609, 3319, 3657, 3475, -14820, -4838, -3754, -3497, 14212, -3240, -4587, -5341, 1987, -1588, -1472, 4058, -6322, 6947, 5286, -828, 4544, -1754, -3105, -10223, 834, 2735, -3255, 951, -500, -1000, 957, 286, -4394, 3309, 7273, 2805, -2991, -461, -6192, 4656, 657, 3885, -502, 4416, -136, 8433, -865, -392, 1006, -389, 2701, -867, 1571, -1558, -3412, 11160, -6240, 1078, -8306, -2651, 8464, 449, 9579, 2069, -5799, 33, 3884, -1728, 911, -3992, -2236, -4935, 3214, -4362, 1903, -332, -2219, -4142, 729, 2614, 5890, 5296, -2473, -2614, 5101, -1871, 3479, -11222, -5272, 2545, -2568, -3016, -813, 2559, 967, 3254, -9167, -6278, 3842, -2579, -379, -880, -2790, -3462, -1393, -10781, -4886, -8723, 3131, 5509, 2238, -1125, 8302, 3927, 2566, 229, 5327, -2249, 703, 10297, -1650, 3493, -6284, -1697, 5515, -3402, -311, -6164, 7194, 5160, 1070, -4770, 9851, -620, -729, 113, -251, 5775, -1373, -840, -1163, 2339, 5260, 42, -1760, -6743, 7293, 1999, 1205, 9700, -3803, -2736, 2703, -5030, -5969, -4359, 2813, 3140, 12502, -11235, 540, 1528, -5314, 1291, -920, 7205, -5223, 575, 5199, 3075, -966, 9965, 3231, -2238, -1260, 694, -1802, 2085, -401, 699, -1347, 3930, -1089, 2591, 6546, 612, -1536, 81, 3955, -269, -4172, 11779, -6815, -4662, 1651, -4440, -9098, 8564, 5753, 4695, -6370, 4598, -2370, -16, -5252, 1245, -1667, -4073, -848, -6244, 4694, 2001, 398, -1865, -297, -3233, 1552, -2221, 5787, 2100, 740, 3038, -3643, -3610, 3700, -2665, -382, 4452, 8282, -1956, -124, -3108, 270, -4823, 3518, -1162, 3253, -10396, -2674, -1964, -2466, -1865, -5010, -1919, 2202, 2642, 4736, -3189, 1820, -8613, 1511, 548, -2214, -566, -1852, 11615, -3880, 7670, 1217, 1482, -5012, -2682, 248, 3590, -10593, 7677, 2559, 7337, 889, -3030, -173, 2658, 143, -704, -6645, 2031, 6020, -2337, -617, 9155, 6509, -2720, 1065, 366, -728, -1829, -3517, -13609, 4094, 2139, 361, 1144, 830, 1267, -2854, -3086, 6025, -7710, 4043, -2640, 424, -4532, 816, -4487, 1229, -2380, 442, 1102, -1608, -857, -2945, 2256, -3180, -595, -1491, 2681, 4325, 1044, 1823, -5106, 3770, 3437, -8704, 1707, 2393, 1017, 3448, 3124, -698, -1132, 9544, -1150, -2905, -4086, 4193, 1874, 1807, -7257, -10729, 2223, 7572, -3907, -3770, 313, -2717, -4347, 2014, -1934, 3224, -2045, 582, -3308, 944, 415, 265, -3063, -4972, 1917, 10605, -4920, -4258, -15223, 1665, 1260, -76, -166, 2539, 2488, 4982, -2065, -1257, 3252, -5022, 1715, -864, -3943, 3841, 364, 3401, -3948, -1276, 2958, -10430, -3681, 1064, -1745, -3299, 2324, 5500, 8799, -1826, -2600, 4849, 56, 3571, 3997, -6371, -1556, -4618, 5908, 3265, -8051, -5786, -3869, -174, 4123, 4495, -9835, 4484, -151, 5330, -291, 3598, -3053, -2547, -4816, -3175, -5675, 4946, -439, -461, -4541, 1184, 4352, -6633, 1054, -1186, -7645, 666, -595, 1242, 411, 1976, 419, 2914, -5706, 3625, -279, -1510, 118, 3474, 3124, 4217, 1136, 505, 2646, -2896, 13780, -3250, 7165, 2532, -1838, -265, 4265, 3407, -5085, 7945, -2083, -9909, -594, 1257, 4409, -1766, -1601, 2098, -1473, -2335, 3381, 2241, 2233, -251, -5910, -1874, -4579, -740, 2087, -4543, 3542, -6143, 1473, -724, -610, 4778, -191, 513, -504, -356, 1741, -1740, -757, -8378, -3540, -5290, -583, 5178, 332, -114, -2812, 3298, 77, 3875, 794, -2605, 2206, -1270, -8108, -5648, -5587, -954, 924, 8857, -4684, 943, -1195, -445, 5430, 4393, -6257, 3948, -1542, -5021, -2475, -50, 4341, 3210, 2602, -2009, -641, 2505, -6737, -7851, 2598, -5486, -7094, -705, 7690, -1466, -2306, 1106, 2933, 4257, -1384, -24746, -409, 278, -514, -3378, -465, -920, 3748, -1148, -1768, -7902, 2173, 182, -750, -1634, 5325, -3603, -4650, 10418, 1775, 8281, -644, -3163, -698, 481, -1943, -739, -2635, -1570, -2066, 2085, -628, 4138, 6557, 7376, 2274, -1534, -6934, 16219, 5746, 1335, 1799, 10385, 2835, 1848, 2935, 817, 1762, 1941, -4399, 6151, -2171, 4104, -3175, 296, 3086, 4034, -2335, -2339, 275, -3493, 3951, -7389, 4450, -15798, 3935, 187, -1984, 661, -896, -2122, -3451, 7555, -1550, -4879, -213, -2963, 1175, -2974, -7015, 410, 836, 737, 8364, -5719, 2500, -5165, -3844, -5532, 1303, -5771, 845, -834, -8122, 7813, -7784, -364, -1738, 8645, 11122, -2229, 3938, -2487, 3172, -936, 1205, -2959, 4674, 6816, -174, 5844, -4052, -508, -511, 958, -3490, -3618, 4977, -14704, -7845, 180, 14912, -1251, 1393, -6791, -292, -839, -3991, -3477, -3186, 7023, 4823, -1321, -2400, 2817, 4682, -2014, -10813, 1116, 680, -995, 2065, -3203, -702, 1097, -279, -2375, 1215, 3764, 2681, -4983, 2760, -6074, -6877, -5527, 3166, -6164, 4886, 5573, -661, -1741, -549, 7985, -2091, -5201, -6190, 2911, -318, -658, -1074, -8857, -3344, -291, -2391, 247, 5533, 3373, -4575, 910, -2644, -1038, 367, 1695, -2456, -4385, 10979, 7379, -2098, -5503, 1467, -3617, -5458, 4752, 830, 7374, 2479, -186, -3291, 4770, -955, 1922, -1310, 5365, -4133, 14533, 7108, -2242, 1326, 2008, -3160, -1850, -2955, 1063, -222, -1076, -3448, 3430, 2311, -1683, 1535, 1995, 1225, 1300, -2539, -756, -11534, 115, -5608, -739, -2192, 802, -315, 6944, -7075, -1144, -3944, -249, -5447, -547, 6130, -359, -271, 2060, -34, -3384, -3344, -2318, -49, 3045, 12472, -6380, 4577, -2944, -2483, -1848, 4469, 8691, 6542, -1434, -1447, -4118, 2081, 5214, 1204, -338, 12727, 8896, 2304, -3865, -5044, -1698, -6347, 476, -611, 412, -7555, 3926, -4219, 6880, -704, 3356, -2235, 2256, -5528, 3640, -5782, -5160, -1173, 2651, -11948, 1523, -700, 2564, 3562, -1592, -1810, -2205, -3090, -9581, 4745, 3527, 3372, -1361, -541, -1405, 6350, 2464, 2493, -1159, -252, -10122, -4020, -167, -14260, 5457, -5500, 6004, -2597, 6151, 1262, -8120, -6350, 2615, -2637, 3011, 5288, 1756, 4348, -328, -2251, -10361, 1793, 5346, -5964, 2942, 6334, 1523, 17, 8697, -2387, 5337, -4484, -3088, -1575, -4945, -2879, 7624, -1233, 4493, -903, 475, 2883, 2548, 9027, -8212, 8940, 782, -4194, 11344, -2863, 4707, 1156, 2494, 1092, 2091, 323, -3357, -9298, 2318, 956, 3505, 2014, 7390, 3305, -2911, 1211, 2559, -8468, -1161, -8818, 5007, 1168, 205, 4762, -1279, 1251, -4319, 1780, 3461, 1000, 1308, 673, 6681, 978, -7750, -10017, 2032, -1907, 100, -868, -3961, 1629, -4562, 3765, -6781, -2502, -998, -2767, -1789, 8395, 396, 1019, 4546, -5045, 3745, -4821, 2201, 11060, -3406, 9520, 2396, 3515, -6668, -4142, -179, 3056, 579, 6428, -5244, 3760, 136, 1582, 3876, -3790, -3313, -5235, 2588, 714, -11228, 1036, 1570, 1882, -1673, -276, -2433, -3554, -677, -3109, -8693, -2247, 4806, 2265, -94, 3980, -347, 6708, -420, -9950, 2287, 6452, -6811, 9858, -3771, 3047, -7912, 1159, 8620, 1896, -459, 5232, -3388, 982, 3339, -892, 2035, -1502, 7546, 1039, 7021, -224, -1363, 5605, -7524, 2643, 1860, -1107, -6566, 368, -584, 700, 1269, 4433, -1134, 1867, 672, -745, -6484, 797, -3763, 5861, -6806, 6521, -3634, -3599, 2571, 242, -4300, -3427, -922, -191, 4100, -297, 6075, 1727, -1442, -3231, -3119, -571, 1437, -2452, 422, -595, -1133, 560, -2562, -855, 2181, -6413, 819, -3729, -2350, 4687, 4242, 2111, 1435, 3228, 3454, 5012, -2168, 885, -4772, 10375, -9606, 4504, 2044, -8591, 977, -577, -2224, -2725, -5115, -7630, 5112, -3724, 7407, -6336, -1740, 2014, -1567, 2942, -2394, -3827, 2422, 2875, -2901, -5524, 7802, 199, 3816, -5463, -2287, -2979, -1003, 351, -1446, 5852, -6180, 6926, 3837, -3133, 4001, -1651, 2242, -1480, 3467, -975, 3144, -3688, 10754, -7208, -1525, -4950, 1382, 4129, -2977, 1710, 1070, 213, 1914, -6227, 4167, 2193, 2593, -3244, 3030, -4487, 1916, -4140, 3125, -2521, 5351, 363, 4167, 1539, -2832, -8731, -1020, 2363, 4345, 3992, -4997, -5729, -5017, 338, -476, -318, 2189, 6243, -3470, 3774, -3143, -9069, 2359, -14768, 2516, -3451, 88, -3625, 2463, 363, 3371, 3333, 6630, 569, -585, 152, 3280, 2448, 3830, 2802, -5897, -4256, 6303, 2454, 1195, 1337, 7102, -2390, 1561, 5934, -4371, -4034, 3612, 1444, -893, 2043, 2363, -586, 1292, 5454, -5175, -3158, -811, 6251, -5822, 1883, 1546, -300, -2203, -5090, 6410, -6634, -852, 2846, -5425, -1122, 1557, 4775, 1310, 3027, 289, -7528, 1875, 643, -18109, -813, -2962, 1876, 1047, 1524, 3264, -2940, 4354, -3410, -6123, -4831, 7664, 2033, -4112, 5508, 2698, 6872, -626, 3391, -5246, 577, 974, 4958, 806, 6858, -9158, -2004, 6240, -6358, 2276, -4093, -4911, -2209, -2220, 1644, 6252, 4780, 2336, 6149, 3943, 1830, 2945, 8131, -10341, 5559, 840, -2507, -1184, 5177, 2326, -1740, -55, -5142, 6701, -1429, -2309, 176, -3433, 1000, 1693, 5294, -4620, -2568, 6494, -7786, 6049, 6964, 5576, 3366, -4500, 853, -1664, 226, 3213, 2501, 3392, -5480, -1222, -239, 3324, -3497, 1960, 8, 4538, -4233, 5014, -9415, 1125, -9635, 4981, -740, -4630, 4791, -7885, -1078, -2000, -4134, 1749, 23545, 2956, 579, -3115, 1482, 3630, -4135, -5583, -5973, 7319, 496, 1830, 5367, 1355, 2431, 1517, 641, -9821, -1425, 5592, -576, 478, 3614, -34, 6000, 1909, -8192, -5178, 535, -1022, -1261, -3127, 874, -834, 1109, 8283, -644, 5302, -2118, -3440, -985, 195, 1520, 639, 5735, -2261, 2721, 8782, 203, -6224, -3945, -74, -1650, 531, 3673, -4886, 166, 6841, -10660, 1540, -4093, -5094, -3849, -5618, 1220, -93, 6941, 2641, 6620, -5577, 2595, 3238, 3383, -4502, 3161, 1176, -344, 2564, 4029, 649, 642, -1145, 2589, 6193, 1780, 483, 4990, -1880, -3490, 1800, -7715, -3639, 4108, -5937, -7877, -1393, 5168, -9249, -2972, 2198, 1483, -12079, -725, -18415, 1852, 5876, 5958, 2496, -1066, -3993, 548, -81, -2606, -632, 773, 3175, 4447, -2522, 3115, -5140, -1320, 2240, -611, 3892, 4528, -1988, -8738, -500, -2505, -6450, -994, 2831, -5020, 5644, -2027, 5494, 5444, 2942, 1736, -4933, 2020, 2270, -4227, -300, -1375, -9281, -1628, 3503, 4195, 60, -840, -2245, 1364, 1714, -2268, 4111, -5998, -2764, -1160, 113, 3388, 4512, 3606, 9133, 718, 5893, 1369, 1340, -1919, 1975, 1758, 780, 4327, 7742, -2947, 146, -1792, -7803, -18260, 930, -6854, 775, 5760, -4155, -2162, 719, -10491, -3831, -3693, -2730, -1824, -54, 1330, 2214, 5680, 4376, 5336, 110, -931, -925, 1607, -7383, 5550, -530, 4296, 4568, -7112, -2554, 3039, 2281, 2400, -497, 113, 4256, 3366, 599, -1554, 6869, 5418, 16344, -488, -12033, 7287, 4220, 2791, -1054, 4393, -356, -916, -615, -2419, 2139, 1906, -719, -846, -3573, -5120, 1238, -3291, 1344, -6876, 3533, 1058, -3086, -4857, 2044, 4655, 1164, 4437, -301, -1718, -2112, 4644, 594, -764, -4935, -143, -2240, 4415, -5323, -1195, 9959, -3906, -2796, 2432, -16, 9033, 534, -898, -13066, -4940, -3564, -4878, 8869, -5667, -2987, -6147, -5669, -2503, 2008, 372, 1049, -633, 6471, -2875, 1924, 8683, -1032, 812, -1593, -1564, -809, 2892, -349, 510, 8116, 7197, -6386, -1400, -648, 558, -1167, -5983, -4289, 3023, 86, 8110, -2007, -1243, -1389, 2387, -409, 1390, -7627, 3444, 737, 998, 8649, 5956, 3877, 493, -3047, 1482, 2385, -4030, -4985, 5948, 5895, -9619, 2951, -4358, 3269, -2535, 11999, 942, -33, -5369, 7841, 4094, 2715, -2377, 882, 6632, 2394, 332, -2443, -3944, 3981, 479, 1686, 7503, -461, -3551, 3488, -308, -11422, -4095, 1001, 5414, 12225, -971, 3625, -5594, -6312, 962, -739, 1266, -5433, 2766, 11324, 10005, 350, -246, -267, -8955, 4634, 1745, -4656, 1589, 425, -1994, 9091, 1035, 6524, 6515, 2967, -1203, 3133, 2981, -4556, -2663, -4139, -4675, -4647, -9541, 394, 1993, -10310, -2698, 4302, -7816, 5147, -834, 4455, -3082, 1749, 2522, 165, -1042, 2934, 4460, 4379, -2131, 3761, -7576, 1122, 7921, -2775, 4780, -6326, -4267, -5514, 4453, 12325, 3555, 3255, -7454, -1777, -2422, 1144, 1903, -2623, 9403, 7016, 3397, -6101, -4404, 1854, -2669, -1902, -203, -2125, -1318, -2241, -4400, 2492, -5004, -1842, 4082, 4934, 3700, -5488, 1413, -1468, -5413, -2310, -13936, 2058, -4177, 384, 4302, -1988, -5179, 1264, 5760, -802, 6518, 544, -4745, -1388, -1245, -3094, -1302, -5525, 2902, -1588, -1897, 5278, -3093, -3456, -12876, 258, -1333, 9993, 2924, -1135, 2092, 11187, 3662, -8121, 2930, 5257, -35, 225, 3408, -1676, 1143, -400, 3663, 9267, -2393, 3835, -1411, -5752, -2004, -3743, -1603, 2886, -842, -79, -156, 1494, 7402, 1366, -4662, -4840, 5806, -7361, -680, 536, 6546, -3149, 4737, 2033, -2405, -6236, -9537, 572, 3007, -682, 591, 2507, -4906, -2682, -620, 4317, -2595, 426, -1570, 507, 2014, -2974, -5181, 3948, 6501, -6020, 2072, -1360, -3686, 4076, 3437, 3774, 2231, 4316, 5128, -1325, 374, 1710, 3245, -3906, 548, -106, 3274, 1271, 4454, 3153, 8442, -5276, -4713, 95, -2847, -5644, -3190, 6556, 2550, 1714, -1611, -2364, 2526, -2002, 2909, -7520, -1466, -5813, 915, -1721, -4544, 2351, -5100, 5572, 6621, 3326, -155, -5481, -327, 6617, -3144, 1444, -1933, 288, 2358, -624, 2480, -10095, 1327, 897, -7147, -2941, 6544, -3262, 6747, 2824, -1365, 961, -4040, -147, -3167, 545, 4706, 1725, -1790, -51, 1602, 2129, -2701, -10005, -8976, -344, 6963, -1380, 12567, -1637, 934, 7643, -857, -16, 4576, -3171, -2043, -3787, -1336, -5215, 4725, -3073, 4814, 1956, 1601, -7525, -3041, -5465, 3919, -2143, -3196, 11240, 7990, -6356, -6179, -8834, 3349, -3050, 348, -3604, 583, -2382, 3047, 1171, 7435, -6218, 2518, -8946, -4897, -3371, -5889, 2417, -2281, -1981, -1589, -822, -1259, -11802, -285, 3419, -2460, 1325, 2448, 2811, 2751, -7005, -2032, -3948, 4633, -3607, 172, -660, 3341, -4336, -3344, 7089, 3950, 3771, 3854, -10039, 500, -1802, -3203, 4290, -3756, 3630, 347, 538, 4792, 1160, 973, -6618, 5468, -568, -4633, 17917, 1820, -813, 1257, 187, -5450, 1592, 3072, -3207, -4461, -5039, 2734, 2165, 935, -8253, -534, 12474, -7039, -58, -3554, -3954, 1188, 4176, -2776, -1175, -6924, -1499, -1514, -7745, 2387, 1052, 261, -9932, 177, 6669, 2087, 361, -825, -3620, -5830, 1193, -1835, 5144, 1616, 3778, 5428, 2460, -700, -773, 432, -87, 14953, -1239, 3375, -2160, 1911, -4151, -3025, -4427, -3834, 3006, 146, 3116, -1009, -2273, -5943, -3509, -493, 2339, 1728, -2472, -673, 2247, 4022, 114, -4093, 1600, -4740, 7131, 1688, 1963, 4064, -499, 5848, 2218, -1845, -9680, 2015, -3406, 2416, 8794, -213, 10699, -7173, -6340, -2331, 3542, -6031, -2509, 528, 14652, 6807, -9123, -4139, -4265, -12697, 4178, 1620, -10399, -3568, -3755, 1764, -97, -3172, 8315, 9126, 2814, -5192, -3204, -1705, -2583, -295, -4237, -8678, 4063, -7058, -2301, 6223, -5702, -3096, 3757, 2206, 9187, 192, -2801, -5002, 2771, 2249, 5246, -2392, -5251, -1835, -677, 3423, -10275, 1150, 358, 3742, -6505, 3272, -1888, 2914, 3306, -6, 4277, 12885, 5338, 4229, 1811, -3555, 410, -2279, -2736, 5723, -5207, 7813, -5027, 6564, -1759, -3091, -11202, -1786, -101, 2003, -2101, 1057, -2153, 4830, 4695, -5856, -8163, -3228, -344, 400, -1650, 3234, 1775, 2721, -2883, 4609, 1649, -7389, -11789, -3188, -1283, -5820, -3037, -5779, -5777, -3101, -469, -1204, 934, 2125, 7512, 2370, -3151, -2971, 9323, -6711, 761, 6621, -2384, 5400, 2865, -2850, 685, 2259, 10335, 2132, -3957, 831, -1932, 2091, 2984, -1437, -1150, 11996, -1043, -8059, -4168, -5115, 2245, 7485, 15, -20, -959, -2698, 1182, -677, -5172, -2195, -5447, -1550, -2785, 4091, 3482, -2676, -2802, -5898, 928, -8895, 1377, 1139, 2563, -953, 9252, -1263, -4229, -4297, 6579, 1310, -7785, 4171, -2886, 439, 1548, 648, -590, -12820, -373, 1497, -2879, -2648, -162, 5520, -1187, -5283, 9098, -282, 1050, -289, 963, -7291, 4034, -335, 248, 635, 1476, -2122, -5560, 5168, -10380, -871, -6951, 4934, 3404, 2397, -4182, -4041, -1454, 42, 634, 3721, -410, 2084, -1055, -6658, 3771, -1618, 6720, 3050, -5159, 812, 6188, 6166, -6126, 6748, -3426, -922, -4825, 1175, -1008, -3904, 10694, -2227, 1531, -4064, 100, 2449, -203, 2343, -1367, -382, 9604, 2889, 4658, 4532, -976, -9999, -1125, 588, -4086, 1459, 625, 1347, 11928, -4911, -8589, 1381, -2400, -511, -156, -2887, -7411, 3565, 3239, 12065, 910, 6677, -3759, -3291, -1431, 1605, -4439, 2648, -58, 3378, 4980, 5984, 845, 9439, -1397, 820, -6962, -365, 5578, 3345, 3232, 7655, -7697, 1622, 6394, -5741, -11588, -320, -6397, -384, 6495, 1226, -3118, -1399, -224, 3905, 864, -3431, -469, 5832, -3779, 3533, -733, -3947, 537, -8706, 3460, -4819, -1365, 4375, -763, -1749, 172, 10089, -1700, 3227, 721, -2278, -4316, -5948, -383, 3003, 1613, -12836, 7545, -1142, 2026, -4071, 886, 591, -7176, 6002, -3533, -1962, -2998, -1303, 1896, 10971, -511, 4120, -5869, 12401, -1562, -7558, 3177, -2138, 3923, -1652, 2207, 1445, -8875, -5364, 3051, -2338, 4544, 907, 3135, -4413, 3611, 2347, -517, -3763, 4089, 11452, 10740, -2759, -17173, 2666, 2492, 4785, 2970, 8763, 799, -69, -1732, -1165, 420, 3849, 6040, 2780, -1772, 3279, 5494, -1863, -2854, -4520, 1666, -1653, -1762, -147, -3035, 3818, -10422, 216, -3969, -4333, -6423, 2977, 1095, -5342, 128, 2695, -3328, 2824, -6816, 4776, 11237, -3375, -5226, -5123, -4367, 8714, -1384, 970, -2662, -1457, -68, -4416, 227, 7094, -3950, 3114, -410, -2256, -578, 4373, -647, -5201, -5855, 2408, -7461, -4001, -2520, 7222, 1698, 2386, -5158, -2536, 503, 1861, -3461, -484, 4713, 221, -167, 3230, 322, 6338, -7788, 1807, 1523, 3828, -7771, 1421, -1910, 2459, -9257, -5754, 6529, 971, 1088, 945, -1839, -1308, 2248, 2363, 3180, -3170, 2011, 596, 8834, -819, 4171, 6844, 1155, 2486, -1531, -1784, 2601, 7181, -155, -3522, -8890, -2955, 7044, -6308, -3618, -1629, 1624, 1993, 4251, -5674, -3981, -7, 1602, -1398, -4794, -6591, -9043, 1381, 1905, -4845, 230, 1090, 11165, -3437, -247, 3184, -1273, -1526, -3008, 5431, 2335, -3322, -6505, -2397, -2326, 7669, 1500, 3420, -2874, 625, 6890, -1310, 1064, 1931, -3438, -704, -2017, 1668, 6746, 828, 1454, -2739, 1380, -2167, -6517, -1981, -2843, -994, -2103, -3391, 5668, 9691, -961, 1495, -1268, 2618, -688, -3274, -1027, 4548, 5699, -4975, -1481, -4399, -2285, 1529, -995, 5311, -2464, -3010, -5660, -1373, -7373, 53, -2211, 2392, 8538, -3043, -2266, 3426, 987, -2013, -366, 2527, -4842, 536, 2349, 9528, -2534, 12285, -3171, -5362, -7291, -1025, 232, 971, -1144, -177, 136, 2423, 1974, -239, 4329, -3728, -4187, 1464, -623, 1741, -1093, 7645, -4115, -1164, 1260, -1392, -10511, 4091, -2543, -876, -4395, 5958, 3169, 3787, 5076, -987, 1738, 2348, 2839, 2126, -6654, 4189, -10362, -7938, 3100, 11623, -1282, -1117, -9849, -2625, -2217, -1506, 985, -8973, 10077, 5813, -4714, 2364, 1862, 2021, -6130, -4511, 7798, -5497, -4923, 123, -4611, -3599, -6438, -4774, 7803, 1094, 1979, 2915, -6988, -1234, 3663, -4104, -4351, 662, -1565, 1239, 8977, -359, 297, -3900, 4004, 5807, -3199, -5102, 1609, -213, -1419, -536, -8896, 361, 3444, 6247, -6419, -3415, -5442, 2119, 1390, -3623, 3533, -6225, 2338, 3177, 6516, 355, 5507, 3472, 2421, 2255, -14, -751, -3790, -3282, -3760, -6493, 1373, 4454, 6599, -5264, 141, -5169, -844, -5243, 126, -9125, 691, 133, 7, -542, -2495, -1987, -2348, -2962, -1829, -2614, 3766, 19619, 4227, 1553, 4882, 45, 2746, 1733, -4277, 6283, 370, 5883, 2293, 4000, 7062, 1742, -1682, -1333, -6185, -5201, -677, -4252, 244, 926, 4317, -4128, -6108, 6974, -4532, 1093, -4790, 2190, 2316, -13428, -1096, -3030, 3245, -3120, -3593, 2299, 3680, 3297, -3120, 4802, 4031, 1091, 4353, 3193, -2536, 4906, 2089, -4175, 4495, 459, 6045, 1046, -2399, -188, -5796, 5816, 1251, 276, 4365, 2436, -729, 10885, -600, -4381, -8681, 8496, -1327, -1359, 4915, -1551, -2173, -1639, 3454, 1847, -4478, -3140, -4775, -2418, 2031, -4986, -1699, 660, 3887, 3498, -2095, -3357, 3750, -9110, -6121, -2173, 376, -2314, 1506, 12813, -1398, -969, -4756, -1207, -3037, 95, -13496, 2223, 7683, 2526, -223, -3461, 5891, -1664, 3805, 5421, 6044, 141, 12144, -4922, -4349, -3742, 3463, 2497, -4592, -6515, 5623, -618, 3732, -3288, 1705, -8356, -14, -140, 1477, 330, -11738, 1577, 4414, -7302, 9245, -5868, 304, 593, 6695, -8584, 1610, -3254, 10545, 3552, -9459, 168, 4608, 1036, 104, 853, -4097, -8713, -480, -374, 2453, 9927, -237, -5257, 2586, -1338, -3503, 574, 4108, 2652, 6283, -3158, 5216, -1004, -1607, 5012, -3580, -3057, -4928, 5923, 5694, 4465, -9012, 741, -6008, -2838, -748, -4319, -5644, 2203, 4151, 1098, 3682, 5796, 6982, -2101, 2604, -4400, 5446, 4694, -979, 5017, -29, -1480, -6019, -4987, -152, -3780, -835, 1313, 5368, -3999, -4041, 4516, 607, 4810, -1863, 1531, -223, 1541, 3620, 2517, -13901, -2174, -433, -5169, 1479, -5670, -4143, -167, 11245, -1441, 6717, 120, -3048, 205, 604, -480, 3627, 1508, 574, -1323, -668, 5178, -9314, -605, -6264, -5605, 1147, 3677, -3604, 407, 4960, -6481, 545, -6199, -9603, -358, -6202, -5361, -3647, 4441, -596, 1040, -4321, 3708, 6129, 44, 964, 6826, -2110, -919, 5661, -4106, 1975, -1189, -7695, 4371, 7886, 5448, -1543, -180, 2540, -4454, -37, 4719, 2734, -1352, 10107, -3586, 2006, -6692, 7135, -2315, 5664, 4713, 6305, -2922, -10828, 1686, -1334, -3377, 1487, -1166, 1831, -268, -181, -6099, -7627, -3685, 10295, -2671, -2913, 788, -950, 256, 5490, 31, -1652, -192, -8169, -2274, -1828, 408, -3339, 1879, -2745, 3013, 1809, 193, -8231, 4302, -696, 6368, -5073, -2667, 3093, 5298, 2693, -4142, 10627, 4552, 352, -3357, -3571, -471, -623, 4576, -2050, -9102, 1528, -201, 217, 5058, -3153, -14304, -1013, -1118, -2316, -2213, 1310, -31, 3281, -2716, -4251, 2862, -616, 5944, -5667, 1638, -4092, -1922, 6971, 18954, -1421, 7380, -2883, 2548, 1004, -1989, -4485, 2883, 5705, -500, 2742, 4198, 1894, 2419, 1464, -234, 3950, 6986, -565, 4065, 3697, 7693, -11213, -8434, 2727, -8159, -6578, -245, 1664, 1436, 1883, -3953, 1143, 2250, 773, -334, 6015, -6392, -852, 1481, -2850, -5473, 5711, 1854, -1801, 2851, -1547, -5389, 354, 14, -5433, 5793, -785, 1974, 1773, -86, 3230, -2060, -2470, 568, 5568, 2504, 1623, 4370, -1566, 2331, -650, -5726, -3806, 5807, -10428, 4649, -7237, -2125, 5075, -7270, 916, 4429, 1595, -5677, -8060, -4135, -3800, -3731, -1386, -9233, 2487, 1156, 4019, 6761, -9123, 1163, -1532, -759, 3950, 3571, 361, 982, 2710, -950, 2322, -4750, -1718, 2687, 10109, 750, 4680, 8921, -1951, -1207, -2327, -4058, -1325, 926, 1470, 5235, 5673, 2501, 110, -1325, 3594, -2611, -7147, 5676, -2174, -1282, -772, 1570, -7051, 1908, 977, 1791, -546, 5372, -755, 2064, -2036, -2714, 1329, 232, -140, 1940, 2543, -2120, 115, -3930, 734, -8535, -3275, -14663, 2579, 2174, -1150, 1783, -8123, -5642, 4507, 6174, -5116, 1231, -464, -3473, -6771, -476, -3329, 3389, -352, -1207, -6655, -1000, 9563, -4057, -4131, -6204, 6225, 1231, 4286, 383, 2400, -8158, 12640, -10270, -6065, 2462, 990, -269, -2957, 5240, 4760, -5595, -2419, -6104, 553, -1992, 3310, 20, 2341, -1479, 5478, -271, 454, -4851, -1264, -975, -1862, 2107, 4178, 2367, 2066, -727, -6052, -2466, -6950, 2785, -996, -953, -582, 1613, 2425, -5, 3461, -2692, 11763, -3060, -7891, -1949, -32, -257, -3809, 3273, 2694, 4974, -6658, 801, -1104, -1889, 492, 13159, -5410, 2290, -11201, -2935, 1085, -196, -1035, 5936, -6984, -2419, -4594, 1112, 3597, -6882, -3121, 4102, 8259, -2842, -10554, -4192, -3277, -5041, 7361, -964, -2749, 3979, 2268, 3647, 2702, 5395, 3070, -4940, -571, 376, -2826, 2812, -4536, 5341, 2949, -10405, 9014, -10373, -2283, -754, 8693, -3502, 2799};

const static dl_matrix3dq_t conv_ds_4_pw_conv_weights_0 = {
	.w = 1,
	.h = 1,
	.c = 64,
	.n = 64,
	.stride = 64,
	.exponent = -13,
	.item = (qtp_t *)(& conv_ds_4_pw_conv_weights_0_item_array[0])
};

const static qtp_t conv_ds_4_pw_conv_biases_0_item_array[] = {5277, 10204, 13575, 17954, 7156, 2339, 7082, 8313, 13115, -3110, 10360, -4739, 9903, 4891, 12462, -633, 10383, 5912, 9130, 11867, 7910, 12031, -10117, 3291, -1382, 6525, 7248, -4422, -6178, 10788, -2112, 13125, 3762, 346, 152, 718, 14470, 2854, 145, 6223, 2339, 18571, 17832, 9073, 9661, 8393, -3111, 4193, 1803, -1431, 11632, 9035, 4667, 3540, 2518, 8539, -4869, 8390, 975, -7115, 21968, 4995, 10736, 11885};

const static dl_matrix3dq_t conv_ds_4_pw_conv_biases_0 = {
	.w = 1,
	.h = 1,
	.c = 64,
	.n = 1,
	.stride = 64,
	.exponent = -13,
	.item = (qtp_t *)(& conv_ds_4_pw_conv_biases_0_item_array[0])
};

const static qtp_t fc1_weights_0_item_array[] = {3788, -1125, 203, 405, -475, -5770, 5175, -2573, -3300, 5815, -1562, 249, -4714, -5027, -4058, -1975, 2729, -2644, 3414, -5277, 181, -4662, 4090, 5852, 1052, 4447, -1770, 4080, -557, -1835, -2265, 3059, 178, -5724, -4317, -1527, -5667, 3653, 4436, 2802, 3072, -1436, -1505, -750, -4286, -5976, 3607, 6307, 647, -3867, 370, 2743, -2320, 1325, 7242, -2138, -5117, -1434, 2046, 4157, 4019, 6670, -3088, -805, 487, -7287, -1361, 4647, -2091, 4301, -5798, -3162, 3476, -827, -853, 4914, -407, -7860, 4079, 2942, -8207, -6376, -4286, -10026, -3877, 454, -472, 4157, 2092, -11183, 1637, 216, 4750, 326, 7365, -10086, 4315, 4643, -1059, 1204, 4135, 3592, -10723, -1851, -7489, 4020, -3915, -1815, 4934, 1159, 4756, -599, 2573, -3281, 5833, 1762, -11380, 25, -1305, -9890, -1885, 2922, -8084, 1807, 2290, 2126, 7021, -8805, 893, -5993, 2203, 3274, -1193, -1440, -3084, 2648, -9299, -162, -1076, 7430, 5286, 3087, -10694, -378, 6204, -970, -12444, -1085, -1327, -755, -1884, -8584, 2097, 4254, -10021, 5260, 2331, -4198, -4439, -4658, -9532, -4164, 6233, 8321, -354, 2073, 4451, -5822, 3754, -6796, 3226, 1687, -5293, 4519, 4271, -1603, -7032, 4702, -1533, 2658, 3849, -1879, -773, -6366, 7726, -3681, -2130, 7075, -15626, -1956, 1901, 4656, 1324, 6173, 263, -3063, -8121, -11609, 7380, 3469, 3518, 2205, 7299, -7945, -5120, -3203, 6313, -7469, -4017, -4791, -5129, 5006, -5171, 5768, -9188, -8637, -5991, 499, -4802, -3124, -12539, 2998, -3135, -315, -7699, 194, 2933, 6, 8906, -3461, 7407, 6396, -4078, 7465, -1546, -3826, 7914, -6952, -3210, -7136, 1425, -1523, 8295, -5625, 2934, -2836, 6868, -2832, -8960, -5694, -6795, -6655, -3837, -6596, 4009, 8167, 5055, 7430, -3336, -6185, -8165, -124, 4545, -5490, -856, 1781, 3567, -9591, 669, -1266, -1187, 4575, 6868, 5837, 53, -4441, -3574, 6841, 4792, -730, -13733, -590, 6059, 3265, 2228, -4774, 1536, -439, 4523, -7558, 6789, -29, -541, -2637, -5890, -7659, 1031, -2060, -5912, -1587, 7600, 2127, -7765, -7012, -11138, -514, -5785, -12189, -4355, 1420, -2175, 9595, 4846, 6026, -2710, -1594, -3308, -7856, -9623, 2987, 1430, -1648, -8027, -4723, 3496, 3678, -7760, 6771, -4995, 664, -661, 1131, -8252, 1269, 6585, -4872, -5803, 5741, 176, 7948, 4761, -1246, 2597, -5388, 5168, -3229, -6153, -9785, 7839, -6919, 4179, 4984, 3146, 3873, -10292, -9278, -5199, -8891, 9, 5865, 5148, -2928, -6859, -43, 474, 2609, -3865, -7272, 5227, 4466, 3879, 1485, 5349, -6877, -7369, -2332, -3130, 2609, 2427, -3097, -4511, -2468, -2144, -5093, -3254, -801, 217, 3643, -4348, 1588, -667, -7277, 9455, -8824, -9774, 573, -8853, 1261, -6816, -11928, 4450, -2719, 6427, 5772, 3196, 7094, -10487, -7245, 4469, 1974, 4670, -5755, -11132, -1941, -7430, 5341, -12352, 5522, -4950, 6193, 6423, -7649, -4681, -4374, -6322, -8107, 8712, 4455, -3310, 774, 2584, 859, 2185, 1112, -3038, 5357, 5626, -11719, -7713, 6812, 6387, -3700, -8412, -3177, 7008, 4245, -8398, 1593, -942, 1598, 2669, 4827, -8360, -7376, 2146, -1589, -189, -3448, -2, -2832, 3083, -11260, 4508, 3631, -4293, -6768, -3326, 2055, -4202, -3349, -3798, 5197, -6357, -4956, -2287, -4543, -1107, -9400, -2874, -2474, 5405, 5811, 4935, -8364, -8185, 7875, 8333, 2832, -6099, -108, -4959, 8250, -538, 6678, 4081, 3496, 4398, -11552, -7106, 4203, -9536, -7609, -1319, -3149, -67, 8314, 8971, -4780, 2585, 1673, -1329, -1164, 4562, 10691, -5904, -4601, -6945, -196, -7501, 5593, -8428, -5633, -9635, -11626, 8114, 2063, 2608, -3405, -18103, -9974, -1678, -1217, -1843, 1691, -7643, -9445, -4542, 7083, -590, -11756, 5446, -118, 6291, -4534, 9582, -6794, 4026, -2307, 2075, 9345, 301, 742, -10184, -1392, 3976, 353, 1719, 1987, -6304, -1023, 927, -1257, -9267, -1879, -2850, 8693, 5751, 3298, 4126, 1575, -4783, -6819, 4794, -7705, 3963, -2977, -1196, -7621, 477, 10588, -1450, 4646, -311, -3579, 6624, -11373, 121, 645, 8829, 5322, 8214, 6110, 3057, -3048, 8461, 2179, -3344, -4343, 2369, 4996, -5377, -7034, -3127, 5395, -5667, 7935, -7158, -143, -2874, 1182, -858, -240, -1412, -7240, 2911, -6444, -4702, -1767, -1717, -11038, -7027, 5549, -7727, -12802, -1077, -2443, -5647, -8454, -2965, 7721, 27, -923, -5409, -4522, -578, -7978, -5468, -15747, 4129, -1754, -16098, -2957, -5362, -11678, 5270, -7258, -4746, -9925, -6521, -4671, 2850, -4959, 1543, 7232, 3159, 4109, -5201, 5021, 1957, 3365, -6580, -10942, 4810, 328, -88, 5697, 356, 4260, -4888, 3427, 5400, -228, 4357, -4182, -5342, -2468, -3024, 2287, -1700, 2975, 4262, 3543, -5417, -10897, -8090, -3075, -13613, 2436, -7360, 3634, -7103, -12733, 3160, 2250, -8675, -1002, 1183, 8262, 7082, -745, -1522, 1852, 7130, 618, -12328, 592, 5008, -12626, 836, 4645, 3833, 1083, 3698, 1483, 305, -5446, 3343, 1773, -12879, -1455, 4969, -8261, -951, -10289, 4049, 4620, 1903, -1644, 3151, -9124, 8296, -1495, 1624, 5539, -6414, 25, 7291, 4214, 13, 5088, 5565, -672, 181, -8955, -4365, -7742, 5758, -13083, -2675, -10901, -9872, 2190, 6764, -5451, -5510, -8334, -1708, 4889, -1019, 2778, -5198, -3397, 3666, -9126, 1908, 5983, -614, -15089, 964, -6376, 11243, 2497, 5972, 8387, -6147, 5378, -3983, -5923, -7076, -4490, -3054, 5524, 7567, -5791, -1600, 1707, -3724, 3830, 11381, -6225, -6066, -1016, -6528, 319, 2965, -2269, -11535, 5767, 6260, 265, -3054, -12131, 1020, -1865, -4315, 2859, -6117, 1753, -10169, 7166, 6632, -5818, -4699, -8963, -7318, 3534, -12132, -11944, 2057, 599, -2972, -1188, -5285, 7671, -9993, -13297, 3534, -7408, 4586, -5042, 8040, -3451, -1431, 3133, -7204, -3454, 7357, 4305, -8429, -771, 4284, -1382, -45, -11009, 1764, -1390, -6134, 2212, -7378, 2697, 7093, 1058, -7382, -6921, -5794, 6118, 2325, -2444, 4753, -8571, -4538, 0, 1970, 5155, -65, 8294, 1290, -4174, -11607, 1384, -11106, -5838, -4143, 8979, -772, 4708, -10594, -5244, 1140, 3045, 2482, 1859, -15468, -9065, 6199, 6911, -1746, 603, -718, -3983, -4682, 5734, -2718, -5342, -7912, 5470, -9059, -7704, 3133, -5500, 956, -7062, 1101, 9251, 595, 6804, 7916, -4490, -5606, -2860, -8857, 3052, -1779, 3223, 7472, -3893, 1799, -1712, -10461, 846, -13818, -9096, 3200, -11275, 1996, 8505, -9806, -5164, -850, 3957, 2838, -9579, 4889, -3849, -6383, 2768, -22, 202, 853, 1544, 407, -3580, 6724, 7758, 8680, -4549, 1170, -2462, 3086, 5023, -15356, -2710, -9638, -6703, 3736, -14553, -6497, -4543, -3710, 3183};

const static dl_matrix3dq_t fc1_weights_0 = {
	.w = 1,
	.h = 1,
	.c = 15,
	.n = 64,
	.stride = 15,
	.exponent = -12,
	.item = (qtp_t *)(& fc1_weights_0_item_array[0])
};

const static qtp_t fc1_biases_0_item_array[] = {-10174, 499, -2622, 5484, 5587, 3431, 650, 8099, -3555, 1179, 9152, 4266, 17979, 3759, 2427};

const static dl_matrix3dq_t fc1_biases_0 = {
	.w = 1,
	.h = 1,
	.c = 15,
	.n = 1,
	.stride = 15,
	.exponent = -16,
	.item = (qtp_t *)(& fc1_biases_0_item_array[0])
};

